{"hparams": {"n_kc": 100, "d_model": 64, "n_heads": 4, "n_layers": 2}, "state": {"kc_emb.weight": [[0.0, 0.0, 0.0, 0.0, 0.0, 0.0, 0.0, 0.0, 0.0, 0.0, 0.0, 0.0, 0.0, 0.0, 0.0, 0.0, 0.0, 0.0, 0.0, 0.0, 0.0, 0.0, 0.0, 0.0, 0.0, 0.0, 0.0, 0.0, 0.0, 0.0, 0.0, 0.0, 0.0, 0.0, 0.0, 0.0, 0.0, 0.0, 0.0, 0.0, 0.0, 0.0, 0.0, 0.0, 0.0, 0.0, 0.0, 0.0, 0.0, 0.0, 0.0, 0.0, 0.0, 0.0, 0.0, 0.0, 0.0, 0.0, 0.0, 0.0, 0.0, 0.0, 0.0, 0.0], [1.3056106567382812, 0.42661771178245544, 0.8604062795639038, 0.0314563512802124, -0.758391797542572, 0.14340722560882568, -0.32276207208633423, -0.26297128200531006, 1.0608887672424316, -0.7633541226387024, -1.476391315460205, -0.3052034080028534, 0.7393544912338257, -1.6415362358093262, -0.08033499866724014, 0.44740015268325806, -0.22945044934749603, -0.17069964110851288, -1.2845771312713623, 0.9105871319770813, -0.16628770530223846, -0.20901693403720856, 0.2703239619731903, 1.5918045043945312, 0.9157540202140808, -0.4658399522304535, -1.3294187784194946, 0.47057196497917175, -0.09969661384820938, -1.0014132261276245, -1.1906896829605103, -0.45737579464912415, 0.40838930010795593, -1.3878010511398315, 1.2918012142181396, 0.25986453890800476, -0.3024420440196991, 1.2020946741104126, 0.6506404280662537, 2.8350932598114014, -1.700717806816101, -0.6710096597671509, 0.49342063069343567, 0.6880099177360535, -0.7370076179504395, -1.1700608730316162, 0.3554186522960663, 0.38085314631462097, -0.9583232998847961, 0.7584666609764099, 0.26232489943504333, 0.8604421019554138, 0.7369608879089355, 0.46028250455856323, -1.5753607749938965, -1.008297324180603, -0.7757269144058228, -1.873980164527893, -0.7631126046180725, 1.013308048248291, -0.6009413003921509, -0.7038300633430481, 1.7468371391296387, 0.5172930955886841], [0.5994555950164795, -0.5141275525093079, 0.9561517238616943, -0.05450265854597092, 1.958320140838623, -0.6225293874740601, 0.1789322793483734, -0.22593864798545837, 0.44290539622306824, -0.5269564390182495, 1.0174483060836792, 0.7862346172332764, 0.25407493114471436, -2.5366809368133545, 1.4769392013549805, -0.42758145928382874, -0.6847911477088928, -0.34612417221069336, -1.1360011100769043, 0.2337484359741211, -0.011468409560620785, 0.22705873847007751, 0.06449679285287857, -0.4190506041049957, 3.0798697471618652, 0.30890336632728577, 0.2536217272281647, -0.8140059113502502, 0.013395022600889206, -0.42008891701698303, -0.41237279772758484, -0.303327351808548, 0.8497617840766907, 2.3910880088806152, 0.15881098806858063, -2.1015658378601074, -0.29689735174179077, -1.0476691722869873, -1.2719188928604126, 0.012851121835410595, -1.8356376886367798, -1.044705867767334, 0.920095682144165, -2.2602880001068115, -0.6584007143974304, -0.5876601934432983, -1.6213855743408203, 1.3971326351165771, -0.07578611373901367, -1.4673278331756592, -0.34552279114723206, 1.6317086219787598, -0.70223069190979, -1.3301138877868652, 0.26081201434135437, -1.7629116773605347, 1.1869844198226929, 0.8002981543540955, 0.5220813155174255, -0.5976563692092896, -0.22685015201568604, -0.07559546083211899, 1.1472721099853516, -0.8996239304542542], [1.460546851158142, 2.0269384384155273, 1.4975792169570923, -0.43537288904190063, -0.3273370563983917, 0.08312782645225525, 1.2038640975952148, 0.49729713797569275, 0.003219455014914274, -1.6788358688354492, -0.416168749332428, -1.354331612586975, -1.2257187366485596, 1.3641043901443481, 0.5006694793701172, -0.3201994299888611, -1.0982624292373657, 1.2607007026672363, -1.1592861413955688, -1.6025612354278564, 1.5875738859176636, -0.27121251821517944, -0.5244221091270447, 0.2850368916988373, 0.5286387801170349, -0.6173911690711975, -1.6792579889297485, -0.3499127924442291, 0.36787453293800354, -0.015111354179680347, 1.6000785827636719, -0.6448769569396973, -1.300542950630188, -1.3264315128326416, 0.8764009475708008, 2.1686580181121826, 0.24827633798122406, 1.7959915399551392, -0.4564804434776306, -0.9744223952293396, -1.13693106174469, -0.5718835592269897, 0.2701205909252167, -0.3587038815021515, 1.2625350952148438, 0.0441572330892086, -0.9297354817390442, -1.8684618473052979, 0.09855898469686508, 0.6063992977142334, -0.14789213240146637, 0.3178318738937378, 2.337087392807007, -0.39698299765586853, -0.23282727599143982, 1.288529634475708, 0.879866361618042, -0.572467029094696, -0.2366248518228531, 0.9933663606643677, -0.05841119587421417, 2.6624457836151123, -0.17280302941799164, -0.9154714941978455], [0.18249398469924927, 1.0673209428787231, 0.9565151929855347, 0.7461570501327515, -0.376568466424942, 0.8708556890487671, -2.83901047706604, 1.2771592140197754, -0.4106060564517975, 0.6705358624458313, 0.32849401235580444, -0.06679308414459229, 0.18190555274486542, -0.11276330053806305, -1.502244234085083, 0.4986349642276764, -0.13181805610656738, -0.5257545709609985, 0.66078120470047, -0.24892333149909973, 0.6075857281684875, -0.04853930324316025, 0.5358538627624512, 1.2583699226379395, 0.31363245844841003, 1.3770276308059692, -0.171981081366539, -0.9797422885894775, -0.8255527019500732, -1.3856463432312012, 1.4895330667495728, 2.2964303493499756, -1.240879774093628, -0.10678447037935257, -0.22123770415782928, 1.2346501350402832, -0.0235456433147192, 3.723013401031494, -0.28901898860931396, -0.18842147290706635, 1.5206936597824097, -0.47051575779914856, -1.5230656862258911, -0.8540475964546204, -0.2285609394311905, 0.05501220375299454, -0.15675799548625946, 0.510621964931488, 0.49209874868392944, 2.1865158081054688, -1.235825777053833, 0.5129860639572144, 0.033653561025857925, 0.4438154697418213, -1.727541446685791, 1.3037259578704834, -0.04590092599391937, 0.8386638164520264, -1.2596336603164673, -1.4386664628982544, 2.029454231262207, -1.4651854038238525, 1.0883541107177734, 1.1572555303573608], [-1.62104332447052, 0.16731640696525574, 0.1439887285232544, 1.2065013647079468, -0.08856404572725296, -0.5834781527519226, -0.8180422782897949, -1.1348286867141724, 0.079136423766613, 0.4494032561779022, -1.5200504064559937, -0.04073657840490341, 1.2056323289871216, 0.26348286867141724, 0.6874909996986389, -1.094804286956787, 0.7828523516654968, -1.1222926378250122, 0.00951056182384491, -0.8602299690246582, 1.3094393014907837, 1.198072910308838, 0.3828737735748291, 0.09725931286811829, -0.3998408913612366, -0.6214650273323059, -1.6430997848510742, -0.24187570810317993, -1.3199769258499146, -0.9938817024230957, -0.46788573265075684, -0.6556376218795776, -0.1596309095621109, 0.40611904859542847, 1.0701404809951782, 0.789962887763977, 0.6123066544532776, 0.32171544432640076, -0.6413781642913818, 0.1298348605632782, -0.7189246416091919, -0.926729142665863, 0.6879704594612122, 0.4892827272415161, -0.7019480466842651, -0.5737301111221313, 0.0821245014667511, 1.280592441558838, -2.014939069747925, -0.4519674777984619, -1.0740262269973755, 0.19208170473575592, 0.4409920275211334, -0.31764131784439087, 1.7307182550430298, 0.1097513884305954, 0.6394683122634888, 1.0745759010314941, -0.26703953742980957, 0.2622891366481781, 1.8092337846755981, 0.6266509890556335, 0.2064439356327057, 0.31737861037254333], [-0.0511016771197319, 0.9610856771469116, -0.4777812957763672, -1.4971190690994263, -0.9496474266052246, 2.029395580291748, -0.23172634840011597, -1.3494136333465576, 0.1500212550163269, 1.539726972579956, -1.6170158386230469, 3.238356828689575, 1.1674689054489136, 1.3640023469924927, -0.46373000741004944, -0.5270967483520508, -0.47011250257492065, -0.3226821720600128, 0.7478145360946655, 0.6693143248558044, -0.8146124482154846, 0.4524930417537689, -0.03458753228187561, 0.7063352465629578, -0.80762779712677, 0.7397879362106323, -0.5215843915939331, -1.0733343362808228, 0.35396575927734375, -0.6018632054328918, 1.1654163599014282, -0.6106648445129395, -0.1649518460035324, -1.572690725326538, -1.305959701538086, 1.6768391132354736, -0.46495217084884644, 1.8542659282684326, -0.49871906638145447, -1.0856245756149292, 0.23528577387332916, -0.01702655293047428, -0.854389488697052, -0.6731007099151611, -3.171656370162964, 0.210222527384758, 1.2581881284713745, 0.26933854818344116, -1.5205931663513184, -0.4559309184551239, -0.18254677951335907, -1.5636521577835083, -0.1360338181257248, 0.5305740833282471, -0.47979748249053955, -0.7253265380859375, 0.23811140656471252, -0.6779991984367371, -0.782547116279602, 0.42052754759788513, 0.5319769978523254, -0.7053447365760803, -1.328097939491272, 0.8233553171157837], [-0.3094344437122345, -0.352855384349823, 0.6236252784729004, 0.4750198423862457, -1.6246851682662964, 0.38228699564933777, -0.5223909616470337, 0.5737594962120056, 0.01920664682984352, -0.950681746006012, 0.8715823888778687, 0.49505743384361267, -0.7899578809738159, 1.1250379085540771, -0.16125079989433289, 0.8003820776939392, -2.3802199363708496, 1.394060492515564, -0.15259622037410736, -0.47631552815437317, 0.0161338672041893, -1.4428342580795288, 3.212921619415283, 1.4563411474227905, 0.14569911360740662, -0.3679153621196747, -1.9666721820831299, -0.37755900621414185, 0.5568472743034363, 0.4002232551574707, 0.7251873016357422, 1.2999919652938843, -1.9056135416030884, 0.33805182576179504, -2.6831135749816895, -1.7956947088241577, -0.9169983267784119, -0.6737392544746399, 0.833469033241272, -0.9582260847091675, -0.03140402212738991, -0.8326818943023682, -1.3611994981765747, -0.5937380194664001, 0.8958324790000916, 0.7670454978942871, -0.31066033244132996, -0.3137526214122772, 1.2800287008285522, 0.37028297781944275, -2.1791343688964844, 0.9392285346984863, -0.09254549443721771, 0.3268982768058777, 0.30129024386405945, 1.345270037651062, -0.3460599482059479, 1.5615603923797607, -0.9670619368553162, 0.4467083215713501, 1.6250213384628296, -0.2890578806400299, -2.038738489151001, -1.12796151638031], [0.19424688816070557, -0.23696358501911163, 2.4327309131622314, 0.6494826674461365, -0.2735370397567749, 0.3823065757751465, -0.9750455617904663, -0.8582800626754761, -0.5243330001831055, 0.1403398960828781, -0.22150962054729462, -0.5278496146202087, -1.4678930044174194, -0.34673017263412476, -1.001168966293335, 1.2644765377044678, 1.1264889240264893, -1.3525125980377197, 0.21662333607673645, 0.7616230249404907, 1.4444456100463867, -1.3640518188476562, -0.13894297182559967, -1.1687177419662476, 2.901308298110962, -0.5039810538291931, -1.5327657461166382, 0.9768454432487488, -0.46689704060554504, 1.703958511352539, -0.3260479271411896, -0.5719572901725769, -1.9985712766647339, -1.0436763763427734, 0.7118108868598938, 1.5982168912887573, 2.0860466957092285, -1.7339842319488525, 1.0020952224731445, 0.4239913821220398, 0.826515793800354, 1.371184229850769, -3.022819995880127, 0.5599585175514221, 1.1179015636444092, 0.3553380072116852, 0.8909466862678528, -1.982952356338501, -0.26506319642066956, -1.1968553066253662, 0.7503336071968079, -0.45010408759117126, 1.4798280000686646, -1.3654237985610962, -0.1846427321434021, -0.39173996448516846, 1.050232172012329, -0.03462895750999451, -0.44652193784713745, -0.2577905058860779, -0.28752630949020386, 0.8191413879394531, -0.5753083229064941, 1.2111164331436157], [-0.8406686186790466, 0.8603286147117615, -0.10756396502256393, 0.34954720735549927, -0.0031282329000532627, -1.0074063539505005, 0.4683980345726013, 0.42608410120010376, 0.924869179725647, 0.008599487133324146, -1.4341052770614624, 0.10020352900028229, -0.8947723507881165, 0.1934024691581726, 0.5334351062774658, 0.9542231559753418, 0.8209666609764099, -0.4074438214302063, 0.23788130283355713, 0.9800423979759216, 1.0843336582183838, 0.7941237688064575, -0.3937511444091797, 0.5520732998847961, -0.7899265289306641, -1.7432944774627686, -0.10512188076972961, 1.789709210395813, 0.3768281042575836, 0.661162793636322, 0.13273324072360992, 0.9932466149330139, 0.5379255414009094, -0.10244254022836685, -1.3714196681976318, -1.023102879524231, -0.18445703387260437, 0.7404685020446777, 1.251874566078186, -0.940571665763855, -1.2168270349502563, -1.3339241743087769, 0.605660617351532, -0.7131356000900269, -0.33950212597846985, 1.2946875095367432, 0.14669613540172577, 0.15028750896453857, 1.0028958320617676, -1.4219697713851929, -0.1296026110649109, -0.4262295365333557, 0.07993519306182861, -0.29749736189842224, 0.3443068861961365, -1.3873608112335205, 0.40402093529701233, 0.7157911658287048, 0.34872695803642273, 0.39660608768463135, 0.41176289319992065, -0.4902667701244354, 0.006358932238072157, -0.9726919531822205], [-0.40850985050201416, -1.7810592651367188, 0.8186089396476746, -1.6821237802505493, 1.0030258893966675, -0.8641023635864258, 0.5452250838279724, 0.979138970375061, -1.3087022304534912, -0.20916518568992615, -0.6260119676589966, -1.2303580045700073, -0.42452576756477356, 0.08965222537517548, 2.015887975692749, 0.011925678700208664, -0.20437674224376678, 0.568122386932373, 0.2808380126953125, -1.3791508674621582, 0.6475297212600708, -1.623150110244751, 0.38491204380989075, 0.310098797082901, 1.1152642965316772, -1.1318886280059814, -2.62833571434021, 0.5243514776229858, -2.1020455360412598, 1.831942081451416, -0.4181806743144989, 0.05527830496430397, 0.2026665359735489, 0.20782527327537537, 0.7083216905593872, -2.3256773948669434, -2.165233612060547, 0.6488639116287231, -0.1716717779636383, -0.37789931893348694, -0.295333594083786, -0.7887228727340698, 1.020576000213623, 0.08567655086517334, 0.23822088539600372, -0.23808708786964417, -0.7936758399009705, -0.7486711144447327, 0.8682170510292053, -0.07841668277978897, -0.9817707538604736, 1.0617499351501465, 0.6569421887397766, -0.3671804666519165, -0.7344280481338501, 1.1538482904434204, 0.11083979904651642, -0.07524936646223068, -0.2792218327522278, 2.4911582469940186, 1.9202651977539062, 0.0688503310084343, -0.8150261640548706, 0.1083439290523529], [1.750124454498291, 0.21860355138778687, -0.7308027148246765, 0.5994450449943542, -0.5008152723312378, 1.7938299179077148, -1.124371886253357, 1.840205192565918, 0.1470489203929901, -0.24142758548259735, -0.3270111382007599, 0.0697593167424202, 0.43931424617767334, -0.7096214294433594, -0.4026467204093933, -1.1698975563049316, -0.875954806804657, 0.9885059595108032, -0.05890338495373726, -1.4379392862319946, 2.514382839202881, 0.515953540802002, -0.9343314170837402, 1.3397560119628906, 0.7648040056228638, -0.4496861398220062, 0.8444613218307495, -0.3602169454097748, -1.6299952268600464, 0.04732520878314972, 0.841157078742981, 0.6196555495262146, -0.13456562161445618, 0.9856546521186829, 0.1710161417722702, -0.06559556722640991, -1.0911706686019897, -0.9599049091339111, 2.550041437149048, 0.5459846258163452, -1.0303847789764404, -0.5462086200714111, 1.7897108793258667, 1.8600317239761353, -1.967175841331482, -0.07983922958374023, 0.4963221251964569, 0.6391692161560059, -0.335342139005661, -1.0179811716079712, -0.4386235475540161, -0.18782983720302582, -0.45041751861572266, 0.8544370532035828, 0.10026375949382782, -0.6688380837440491, 0.05412042886018753, 0.39058589935302734, 0.2777446210384369, -1.2001785039901733, -1.1180065870285034, 0.40821176767349243, 0.642398476600647, 0.893084704875946], [0.5716201663017273, -1.2405896186828613, 0.34614598751068115, -0.44228264689445496, 0.4624912738800049, -0.09187659621238708, 0.6828580498695374, -0.33706337213516235, 0.8933923840522766, 1.937428593635559, -1.6468077898025513, -0.1943819522857666, 0.547458827495575, -2.0104262828826904, 0.6936063766479492, 0.03816145285964012, 0.31619396805763245, -1.4211808443069458, 0.42144539952278137, -0.1823224127292633, -1.9285106658935547, -1.3770182132720947, 0.27395620942115784, 0.8027257323265076, -0.6597447395324707, 0.7981128096580505, 1.1323795318603516, -0.06756465882062912, 0.43729153275489807, 0.9115836024284363, 0.7837134599685669, 0.699690580368042, -0.6755961179733276, -0.4321076273918152, -1.6873548030853271, -1.5295922756195068, 1.2101621627807617, -1.0187877416610718, -0.12382973730564117, 1.9192779064178467, -0.35186970233917236, -0.7476934194564819, -0.44620072841644287, 0.33660537004470825, 2.1333961486816406, 1.1740604639053345, 0.6047505736351013, -1.2818596363067627, -0.20905964076519012, 0.10213540494441986, -0.3383083641529083, 0.535427451133728, 0.26294782757759094, 1.976296067237854, 0.40859031677246094, 1.7023310661315918, -0.8921085596084595, 1.3957054615020752, -1.5251784324645996, -1.674959421157837, 0.6685351133346558, -0.32291656732559204, 0.24805587530136108, 0.08621164411306381], [0.6784038543701172, 0.7973330616950989, -1.4737987518310547, -0.8819658160209656, -0.8661929368972778, 1.762632131576538, 0.22430063784122467, 0.06365103274583817, -0.5798884630203247, -1.6040458679199219, -1.524118185043335, -1.893662929534912, 0.8152369260787964, 0.9251952171325684, -0.053211405873298645, 0.8891830444335938, 0.7482681274414062, -1.2599831819534302, -0.4822407364845276, 0.9168062806129456, 0.8978294134140015, -1.1547455787658691, 0.729264497756958, -0.9396241307258606, -0.7646227478981018, -1.414741039276123, 0.6266666650772095, 1.1673836708068848, -1.2434804439544678, 0.05489831045269966, -0.8291767239570618, -0.11768165975809097, -0.6628202795982361, -0.6341959834098816, 0.2042563557624817, -1.4328378438949585, -0.42175421118736267, 0.058302924036979675, 0.30842673778533936, 0.2690964937210083, -0.7769648432731628, -1.1448198556900024, 0.1595631241798401, 1.4218873977661133, -1.1774019002914429, -0.7340623140335083, 0.24501395225524902, 0.7330347299575806, 0.5725546479225159, -0.3746585547924042, -0.542495846748352, -0.8497060537338257, 0.1880115270614624, 0.19428014755249023, 1.7219027280807495, 1.6807414293289185, 0.17740017175674438, -1.5529361963272095, 0.9064387083053589, -0.10034872591495514, -0.16920147836208344, -1.5982427597045898, 0.6436141133308411, -0.3389599323272705], [0.8821714520454407, -0.0872240886092186, 0.2730686366558075, -1.2451741695404053, 0.6303524971008301, -1.2291460037231445, -0.7768876552581787, 1.0080817937850952, 0.6624931693077087, -0.643010675907135, 0.8055030703544617, -1.8022334575653076, 0.6522950530052185, 0.016959065571427345, 1.8847641944885254, 0.5381288528442383, 0.8674983382225037, 0.4555691182613373, 0.2285493016242981, -0.10310294479131699, -0.21264506876468658, -0.02672102488577366, 0.36482709646224976, -1.5672955513000488, -0.1653624176979065, -1.134965419769287, 0.1721469610929489, 1.305059552192688, 1.3363378047943115, -0.2937164306640625, -0.7760839462280273, -0.7784658670425415, 0.12368392199277878, 0.854401171207428, 1.1445705890655518, 0.8265825510025024, -1.3039698600769043, 1.3533873558044434, 0.4700673818588257, 1.0214728116989136, -0.6586217880249023, 0.21623386442661285, 0.5635067224502563, -0.8974496722221375, 0.14300504326820374, -0.005913684610277414, -1.8957605361938477, -0.30678045749664307, 0.46666428446769714, 0.49011707305908203, 2.8734560012817383, 1.5182671546936035, 1.7980329990386963, 0.4207513630390167, -0.2740456163883209, 0.41497573256492615, -0.44702473282814026, -2.727761745452881, -1.4379563331604004, -0.9550571441650391, -0.5021708011627197, -0.059788595885038376, -0.22296087443828583, 0.4484160840511322], [0.6372231841087341, -1.2221845388412476, 0.597973108291626, 0.7651634216308594, -1.9773385524749756, 0.5932665467262268, -1.3583509922027588, -1.1932507753372192, -0.44892793893814087, -1.1496429443359375, -0.206151083111763, 0.20539020001888275, -0.5696303248405457, -0.7308797836303711, -1.006437063217163, -0.97830730676651, 0.8837646842002869, -0.7860695123672485, 2.136525869369507, -0.033080123364925385, 2.9116921424865723, 0.7953689694404602, 0.7587742209434509, 0.002250858349725604, 0.08277067542076111, -0.7401973009109497, -0.9185895919799805, 0.5969918966293335, -0.9895256757736206, 1.2633066177368164, 0.11684213578701019, -0.4757230877876282, 1.6163100004196167, 0.4313679039478302, -0.7123661637306213, 0.49307146668434143, -0.11767042428255081, -0.36623942852020264, 0.7316264510154724, 0.5975919961929321, 0.7237151861190796, 1.506190299987793, 0.5426368117332458, 0.3451552987098694, 1.2138932943344116, -0.05039064586162567, 0.018530048429965973, 1.974113941192627, 0.1153445839881897, 0.9431975483894348, 0.540070116519928, -0.6510888338088989, -0.7842675447463989, -0.2531551718711853, 1.046187162399292, 0.2768220603466034, 0.03354894742369652, 1.3527319431304932, 1.4013657569885254, 1.1368812322616577, -1.263541340827942, -0.9476573467254639, -0.5965378880500793, -0.5157650709152222], [-0.8378499150276184, -0.8612357974052429, -1.3078947067260742, 0.41543325781822205, 2.181781530380249, 0.2609090805053711, -0.703594982624054, 2.490250825881958, -0.397401362657547, -0.39940592646598816, -0.8040853142738342, 1.4642043113708496, 1.3761396408081055, -0.7180957198143005, -0.11277000606060028, -0.2148490846157074, -0.7279642224311829, 0.18096280097961426, -0.23199233412742615, -0.13465829193592072, -0.4957194924354553, 0.34501153230667114, 0.14799310266971588, -1.3765289783477783, -0.21308372914791107, 0.2707468867301941, -0.03687126189470291, 0.5827392935752869, 0.2998350262641907, -0.3008533716201782, -1.0745174884796143, -0.7617660164833069, -1.4172248840332031, -0.4144383370876312, 0.33275794982910156, 0.39428648352622986, -0.4999772608280182, -0.06294455379247665, -0.3705722987651825, 1.235992193222046, -1.3485490083694458, 1.0361640453338623, 2.005150318145752, 1.8997507095336914, 2.2542026042938232, -0.6420345902442932, -0.06565090268850327, 0.08161751925945282, 0.6827680468559265, -0.4405929148197174, 0.23991143703460693, -1.2703641653060913, 1.031546711921692, -1.360994815826416, 0.9517733454704285, -0.3530740439891815, -0.7317872643470764, -0.758495032787323, -0.18609930574893951, 2.9858438968658447, 1.0351077318191528, -1.5850428342819214, 0.9759793281555176, 0.25778308510780334], [-1.0874359607696533, -0.2624509334564209, 0.903073787689209, -0.05967896059155464, -0.5824113488197327, 1.809065818786621, 0.1803666651248932, 0.5769143104553223, 0.5677517652511597, -0.43976789712905884, 0.2921161353588104, -0.702360212802887, 0.9018535017967224, -0.8884595632553101, 0.46409597992897034, 1.351252555847168, -0.8022753000259399, 1.6074419021606445, -1.7671504020690918, 0.3081584572792053, 0.15505194664001465, -0.9383783936500549, 1.0668668746948242, -0.46030083298683167, 0.5307333469390869, 0.31867867708206177, 1.7468022108078003, 0.858408510684967, -0.6872909069061279, -0.82053142786026, -2.374173879623413, -0.29110896587371826, -1.1272966861724854, 0.6421727538108826, -0.5621936321258545, -0.3366401493549347, -0.6192225217819214, 1.618804931640625, 0.12647558748722076, 2.7064127922058105, 0.7310550808906555, -1.2275419235229492, -1.9866282939910889, 0.03336125239729881, 1.308181881904602, 0.31003451347351074, 0.08199163526296616, -0.4589705467224121, 0.6411054134368896, -0.25462573766708374, 0.247123584151268, 0.06456810235977173, 0.3784981966018677, 1.3637409210205078, -0.5456211566925049, -0.25356876850128174, 2.5009937286376953, -0.4501495957374573, -1.15544593334198, 0.05702812597155571, -1.5419608354568481, 0.45149290561676025, 0.5210224390029907, 0.5924474596977234], [-0.16933386027812958, 1.378358244895935, 0.0896957516670227, 0.5627210140228271, -0.7481206059455872, -1.3774996995925903, 2.1725080013275146, 0.901993453502655, -1.6244165897369385, 0.3433336317539215, -0.1919250190258026, -0.4033491015434265, 0.9859251379966736, -0.771912693977356, -1.1751888990402222, -0.645100474357605, -0.093387670814991, 0.3574707508087158, -0.5798330903053284, -0.13520783185958862, 1.0285602807998657, -1.3692291975021362, -0.34019315242767334, 1.4619483947753906, -0.76694655418396, 1.1932196617126465, 0.7454818487167358, 0.053129393607378006, 0.43924829363822937, 2.037172317504883, -0.9542754888534546, -1.1109404563903809, 0.10834424197673798, -1.5186141729354858, -1.1358214616775513, 0.31649506092071533, 1.1586328744888306, 1.4984666109085083, -0.8981486558914185, -0.9344530701637268, 0.8855571746826172, -0.6333755254745483, -0.49341917037963867, -0.9627507328987122, -1.3623536825180054, -2.0907952785491943, -0.1445031315088272, 2.5616140365600586, -1.4230847358703613, 0.5173946619033813, 0.5518763661384583, 0.034135278314352036, -1.7775673866271973, -0.026739021763205528, 1.4210807085037231, 0.8578651547431946, -0.6618606448173523, 0.8947432041168213, -0.32835516333580017, 0.9591533541679382, 0.9718042016029358, 0.9204325675964355, -1.4276701211929321, -0.7161654829978943], [-1.2268757820129395, 0.8354071378707886, 1.0304924249649048, -0.8557217717170715, 1.4753626585006714, 0.8152456879615784, 0.02999555505812168, -0.8740929365158081, -1.0642222166061401, 0.31870824098587036, 0.9212339520454407, 1.9957197904586792, 0.049757882952690125, -0.9178422093391418, -0.2477654069662094, -0.19485275447368622, -0.08096745610237122, 0.5726647973060608, -1.4041308164596558, -0.10640168935060501, -1.0468589067459106, -0.8500518798828125, -0.5130080580711365, -0.6740416288375854, -1.560564398765564, 0.5249626040458679, -1.3606170415878296, -1.402207374572754, 1.6370290517807007, -0.10003174096345901, -0.26769664883613586, 0.04828036576509476, -0.42628931999206543, 1.3556773662567139, 0.07800821959972382, -1.1809728145599365, 1.5398520231246948, -0.8397987484931946, -0.8088303208351135, 0.5642260313034058, -0.5651680827140808, -2.2725207805633545, 1.15656316280365, -0.9638306498527527, 0.1735054850578308, -1.8022031784057617, -0.0009824481094256043, -0.8400243520736694, 0.03168024122714996, 0.1304805427789688, 1.6164369583129883, -0.5443395972251892, 0.4370954930782318, -0.8836426734924316, 0.15379294753074646, 0.47015056014060974, 0.6623044013977051, 1.0240278244018555, -0.5960089564323425, -0.5414816737174988, -1.3445714712142944, -1.879654049873352, 1.2812639474868774, -1.695417881011963], [0.03905153647065163, -1.2280857563018799, -1.5741479396820068, -0.6206057667732239, -1.5404413938522339, -0.5249658226966858, 0.5175966620445251, -0.6973955631256104, 1.116663932800293, 0.21499554812908173, 0.27277669310569763, -0.024637801572680473, 1.8234028816223145, -0.2136925309896469, 1.4841008186340332, 0.02071903832256794, 0.7127013206481934, 0.26612553000450134, -1.234386682510376, 0.3017875552177429, -0.9631261825561523, -0.3367813527584076, -1.6647586822509766, 1.1303731203079224, -1.8795205354690552, -0.795798122882843, -0.08080650120973587, -0.7146019339561462, -1.7829488515853882, -0.11172185838222504, -0.6133571863174438, 1.2789686918258667, -0.5805283188819885, -1.4906845092773438, 0.2054448276758194, 0.46733778715133667, 1.5464977025985718, 0.7024232745170593, -1.8177295923233032, -1.3522647619247437, 0.40155333280563354, -0.7915027737617493, -0.0752241313457489, -1.1021835803985596, -1.2583708763122559, 0.4947482943534851, 0.9254087805747986, -0.6342744827270508, -0.9800151586532593, 0.6490414142608643, 1.5232871770858765, 0.8860380053520203, 0.13278785347938538, -0.07373616844415665, 0.736790120601654, 0.573563814163208, 2.4324069023132324, -0.224385067820549, -0.1772392839193344, -0.3438068926334381, -0.9374403953552246, -0.42284390330314636, 1.1660075187683105, -0.4951692223548889], [-1.2428102493286133, -0.016234146431088448, 0.5027852654457092, -1.336466670036316, -0.33787912130355835, 0.6398472785949707, -1.066628336906433, 0.7261679172515869, -0.12815360724925995, 0.3099459707736969, -0.15129731595516205, -0.5187433362007141, 0.7532777786254883, 0.8046624660491943, 1.950157642364502, -1.1137912273406982, -0.3757157325744629, 1.3715779781341553, -0.37981873750686646, 0.09186666458845139, -0.25240781903266907, 0.5315809845924377, -0.5266682505607605, 0.027630725875496864, 0.624031662940979, -1.3302698135375977, -1.3078272342681885, -0.8756551742553711, -0.8630533814430237, -0.5812767148017883, -1.4523388147354126, -2.035630702972412, -0.3209538757801056, 2.130558729171753, 0.26729488372802734, 1.007049322128296, 1.3029654026031494, -1.4822523593902588, -1.827244758605957, -1.2795042991638184, 0.03732291981577873, 1.0156240463256836, 0.4124731719493866, -0.7504447102546692, -0.008908528834581375, -0.09950727224349976, 1.4477572441101074, -0.07933695614337921, -0.44761407375335693, -0.32203182578086853, -1.451144814491272, -0.3152350187301636, -0.2504645586013794, -0.1843675822019577, -0.3985268473625183, 1.5243182182312012, -0.7150064706802368, 0.6713002324104309, 0.8077239990234375, 0.16810342669487, -2.0751254558563232, -1.0402920246124268, 0.1433655172586441, 0.6132331490516663], [-0.43773794174194336, -0.047845613211393356, -0.8568553924560547, -0.35854125022888184, 1.0236432552337646, -0.6116304397583008, -0.5172688961029053, -0.18208178877830505, -2.1477158069610596, 0.6821657419204712, -0.7215109467506409, -0.17390450835227966, -0.30391189455986023, -1.583258867263794, -1.5852971076965332, -0.7703373432159424, -0.014885617420077324, 0.36087340116500854, -0.08133973926305771, -0.5184175372123718, -0.9874230027198792, -0.5889604091644287, -0.9334741830825806, 0.7024133801460266, 0.139568030834198, 1.1530790328979492, 0.009326881729066372, -0.7716559171676636, 0.38623619079589844, -1.9744873046875, -1.2954367399215698, 0.8823143243789673, 1.3432728052139282, -0.6593238115310669, -0.6089102029800415, -0.437190443277359, -0.5241535902023315, 2.167046546936035, -0.3661465644836426, -0.3564206063747406, 0.34210455417633057, 0.3181963264942169, 0.8215373754501343, 1.0453195571899414, 0.9365212917327881, 0.904167890548706, -0.30164021253585815, -0.7125750184059143, 0.39846423268318176, -0.11259583383798599, 0.851669192314148, 0.2901035249233246, -1.8309991359710693, -2.1202023029327393, 0.8346632122993469, -0.3637450933456421, -0.7492361664772034, 1.2396354675292969, 0.12963765859603882, 1.0427272319793701, -0.2702280879020691, 0.8857135772705078, 0.26057153940200806, 0.002919368213042617], [0.6197264790534973, 1.242222547531128, -0.37993428111076355, -0.19935455918312073, 0.7394681572914124, -0.06507615745067596, -0.3024076521396637, -1.536176323890686, -1.0255286693572998, -0.5100389122962952, 0.23841361701488495, -0.40502995252609253, -0.3964708149433136, 1.9260658025741577, -0.12090624123811722, -0.8386620879173279, 1.4946095943450928, 0.9609021544456482, -0.26111742854118347, 0.43548208475112915, 1.1274902820587158, -0.471261203289032, -1.387235403060913, -1.4297196865081787, 0.7161961793899536, 0.829359233379364, -0.45808354020118713, -1.0849984884262085, 1.5727386474609375, -0.12437517195940018, -0.07721556723117828, -1.2824695110321045, 0.7931973934173584, -0.9004837870597839, 0.4127611517906189, 0.19179105758666992, -0.2021324187517166, 0.09455360472202301, -0.21531766653060913, -0.9048102498054504, -1.4444482326507568, 1.0023903846740723, 0.005429111421108246, 1.5783640146255493, -0.9869537353515625, 1.1517364978790283, 1.4693108797073364, 0.44345811009407043, 1.6937286853790283, -0.8192499876022339, 0.1573563814163208, -0.24299059808254242, 1.2200288772583008, -0.9071319103240967, -1.1917924880981445, 0.5131968855857849, 1.574810266494751, -0.5030022859573364, -0.7472231984138489, 0.1672837883234024, 1.0290571451187134, -1.2213284969329834, 0.169271320104599, 1.318563461303711], [0.2788255214691162, 0.7543686032295227, -0.467062771320343, -1.5510780811309814, -0.30502814054489136, -1.6444166898727417, 0.24051690101623535, 0.027763037011027336, -0.2526254951953888, -0.040141068398952484, 0.38491448760032654, -0.13054296374320984, -1.07752525806427, -2.073195457458496, 0.5436795353889465, 0.010051121935248375, -0.3384212255477905, -0.22205978631973267, -0.8075143098831177, -1.8471956253051758, -0.40681391954421997, -0.18874168395996094, 0.2656037509441376, -0.9513025879859924, 0.7088552713394165, 0.3257141411304474, -0.24269846081733704, 0.11970549821853638, 0.7009080648422241, 1.6251931190490723, -0.02494601532816887, -0.9301214218139648, -0.12482288479804993, -1.2807683944702148, -0.03145250678062439, -0.3712117671966553, 0.9852323532104492, 0.6972081661224365, -0.2887119948863983, 1.4261224269866943, -0.45823174715042114, 0.44482967257499695, -1.4849952459335327, -1.1974408626556396, -0.2644294202327728, 1.2648952007293701, -0.22038084268569946, 0.41842135787010193, 0.21970704197883606, 0.9868025183677673, 0.41512182354927063, -1.192510724067688, -0.21585394442081451, 0.7486715316772461, 0.5695904493331909, 0.39285188913345337, -0.6957052946090698, 1.2195169925689697, -1.1438099145889282, 0.3173608183860779, -0.014951182529330254, 0.11193859577178955, -0.3687993586063385, -0.2184678465127945], [-0.5435822606086731, -0.3919375240802765, 0.831516444683075, 0.6898733377456665, 0.09321673959493637, -0.17098931968212128, 1.1232950687408447, -0.8219825625419617, 0.9120863080024719, 0.6650620102882385, -0.032990191131830215, 0.5212973952293396, -0.3393445611000061, 1.3555504083633423, 0.3809005320072174, 0.14661851525306702, 0.5819381475448608, -0.06160575896501541, -0.855094850063324, 0.5952110886573792, -0.38447731733322144, 1.0455350875854492, 0.21045218408107758, -0.6353791356086731, -0.5936098098754883, 0.3342200219631195, 1.6482731103897095, 1.2096344232559204, -1.1715476512908936, -1.1470478773117065, -0.09550337493419647, -1.2468986511230469, -0.97563636302948, 0.3750219941139221, 0.6873042583465576, -0.12373674660921097, -0.04321203753352165, 0.1304764747619629, -0.1385459005832672, 0.04437309503555298, 0.32630643248558044, 0.42399993538856506, -0.7447226047515869, -0.6276916265487671, 1.053528904914856, -0.18419907987117767, 0.7438997626304626, -1.1748967170715332, 1.4763925075531006, 0.5213953852653503, -0.0019304282031953335, 1.212787389755249, 0.020332418382167816, 1.9954968690872192, 0.643404483795166, 1.7342827320098877, 0.13511298596858978, 0.20897246897220612, -0.42217156291007996, -0.31235411763191223, 0.923949658870697, 0.8601422309875488, 1.1993141174316406, 0.032835472375154495], [0.2629288136959076, 0.8662418723106384, 0.5688567161560059, -0.5618393421173096, -0.2116687297821045, 1.345050573348999, -0.2750146985054016, 0.2026749551296234, 1.4865686893463135, -1.179260492324829, -0.3581637144088745, 0.8881734609603882, 0.7216894030570984, -0.019382525235414505, 0.4234102666378021, -0.9088428020477295, 0.6794864535331726, -0.7122974991798401, -1.1851204633712769, -0.1976696252822876, 0.7235116362571716, -0.2552372217178345, -0.3760440945625305, 0.43248334527015686, 0.21108508110046387, -0.16472461819648743, -0.17619657516479492, 0.5170089602470398, -0.33195680379867554, 0.44881772994995117, 0.0841561108827591, -0.7598155736923218, 0.20506919920444489, 1.26261305809021, -1.0552875995635986, -1.896695852279663, 1.1178561449050903, 0.3902571201324463, 1.7144955396652222, 0.3406381607055664, -0.5295165777206421, 0.4712687134742737, -1.8162527084350586, -0.07811172306537628, -0.5778293013572693, -1.4902703762054443, 0.12401571869850159, -0.09421674907207489, -0.43873974680900574, 0.5995251536369324, -0.6288291811943054, 1.8044289350509644, -2.890343189239502, -0.34400612115859985, -0.13159655034542084, 0.17130671441555023, -0.13569895923137665, -0.7319864630699158, -0.7474313378334045, 0.15713603794574738, 1.8367253541946411, -1.1863725185394287, 0.7460509538650513, -1.0367467403411865], [0.2035072147846222, -0.9740293025970459, -0.13462506234645844, 0.046889353543519974, 0.863319456577301, -0.9391078352928162, 0.16115106642246246, 1.3070214986801147, 1.4985475540161133, 0.07590507715940475, 1.3312474489212036, -0.04516490921378136, -1.5680949687957764, 1.708146572113037, 0.34219419956207275, -0.3949746787548065, -0.767105221748352, 0.2091148942708969, 1.071028232574463, -0.5378904938697815, 0.9206350445747375, -2.2871437072753906, 0.09849709272384644, -0.4258679151535034, 1.2222603559494019, -0.49047574400901794, -1.091884732246399, -0.07986542582511902, -0.7447019815444946, -1.549953818321228, -0.2664111256599426, -1.3587372303009033, -0.19248291850090027, 0.6107769012451172, 2.67612361907959, 0.32858607172966003, -1.7823342084884644, 1.597571611404419, 0.2848832905292511, 0.07767066359519958, -0.24416346848011017, 0.3555728793144226, 1.951452612876892, 1.8243173360824585, -0.6224130988121033, 0.6418172121047974, -0.8596707582473755, -0.14857865869998932, 1.6413227319717407, 0.47587648034095764, -0.11874955147504807, 0.6519036889076233, -0.7468453049659729, 0.8984900116920471, -1.0173805952072144, 0.5873112082481384, -0.5356559753417969, -0.06800466775894165, 1.5445414781570435, -0.8297132849693298, 0.952809751033783, -0.532057523727417, 0.7595623731613159, -0.9187554717063904], [2.219662666320801, 0.685202419757843, -0.28818652033805847, 0.7917836904525757, -0.49620652198791504, -0.37519675493240356, 0.43189942836761475, -1.4331146478652954, -1.586659550666809, -2.132753849029541, 0.024228984490036964, -0.7867485284805298, 0.163530632853508, 0.8585309982299805, -0.39052125811576843, 1.3202757835388184, 0.5438536405563354, -0.8030182719230652, 0.7788546681404114, 0.7174299359321594, 0.39621666073799133, -1.815742015838623, -0.9985719323158264, 0.5929273962974548, -0.9459398984909058, 0.24176542460918427, -0.40002402663230896, 0.14869290590286255, 0.6851068735122681, 0.21619701385498047, 0.600354790687561, -1.2454084157943726, 1.3166618347167969, 1.5181529521942139, -0.09529178589582443, 0.6555965542793274, 1.4663622379302979, 0.11707641929388046, -0.5839136838912964, 0.6029202938079834, -0.519415020942688, -1.1407201290130615, -0.1671069711446762, -0.11831600219011307, -2.228238344192505, 1.388262391090393, -0.22622007131576538, 0.052747778594493866, 1.4458837509155273, -1.0528740882873535, -0.11302586644887924, -0.8826174139976501, 0.1631527692079544, 0.7892632484436035, 0.9869434237480164, 1.3060081005096436, -0.1047847643494606, 0.4761243462562561, 1.1480512619018555, -0.9943185448646545, -0.39006248116493225, -1.202529788017273, -0.8543217182159424, -1.0259404182434082], [0.2077098786830902, -0.19969144463539124, -0.2240561991930008, 0.03479080647230148, 1.8933534622192383, -1.8207203149795532, 1.2159231901168823, 1.265485405921936, -0.06969981640577316, -0.1906830370426178, 0.10120970755815506, 0.18589907884597778, 0.8026180267333984, 0.27174532413482666, -0.7044362425804138, 0.26742762327194214, -0.5489699840545654, -1.4885493516921997, -0.5411723256111145, 1.3005095720291138, -1.2478476762771606, -0.9485960602760315, 0.2996860444545746, 0.5137401223182678, 0.24466495215892792, -0.5716672539710999, 0.7933435440063477, -1.9691596031188965, 0.05234749987721443, -0.40512749552726746, 1.2078481912612915, -0.4304373264312744, 0.5527265071868896, 1.5545637607574463, -0.46447208523750305, 0.3454563617706299, 0.3107883632183075, 0.2320454716682434, -0.9190618395805359, 0.09805154800415039, 0.7392452955245972, 0.17422106862068176, -0.2583199441432953, 1.315039873123169, 1.1407978534698486, 1.9918572902679443, 1.1937360763549805, 0.19120287895202637, 1.034122347831726, -0.4534473121166229, -2.737492799758911, 0.9423515200614929, 1.6642577648162842, -0.24017897248268127, -0.8517274260520935, -0.15840215981006622, 0.03931009769439697, -1.1058279275894165, -0.4736413359642029, 1.6328588724136353, 0.24411244690418243, 2.5308837890625, -0.586765468120575, -2.13303804397583], [-0.4846132695674896, 0.2983447015285492, 0.5780377388000488, 0.2941049337387085, 0.3339425027370453, 0.11049731820821762, 1.6550995111465454, -0.1097133532166481, -0.9132068157196045, 0.21086004376411438, -0.23548392951488495, -1.2909799814224243, -0.7571389675140381, -0.19424544274806976, -0.40861043334007263, -0.24507388472557068, -0.947124719619751, 0.1765572428703308, 0.7743354439735413, 2.222614049911499, -0.589138925075531, -0.44326066970825195, 0.2779426574707031, -0.5877033472061157, 0.2457018792629242, 1.5311542749404907, -0.536159336566925, 0.3786299526691437, -0.5502634048461914, 0.26411035656929016, 0.6624112129211426, -0.29748067259788513, -0.2929970920085907, 0.4250470995903015, -1.0542229413986206, 0.24059657752513885, 0.08432181179523468, -0.06054399907588959, -1.8639185428619385, 0.24737976491451263, 0.27279821038246155, -1.688457727432251, 1.456161618232727, 0.45574647188186646, -0.6329265236854553, 1.8018368482589722, -0.13048119843006134, 0.06720978021621704, 0.5941663980484009, 1.1212410926818848, 0.1794213354587555, -0.16731877624988556, -0.05146345496177673, -1.6894264221191406, 0.47895580530166626, 1.9684447050094604, 0.3236384987831116, -0.8942292928695679, 0.35504722595214844, -0.5569323301315308, 0.2786877751350403, 1.8356770277023315, -0.589866578578949, 0.8233051896095276], [1.238895058631897, -0.8392402529716492, 0.8222687840461731, -1.6910474300384521, -0.41321709752082825, -0.24106457829475403, 0.18870261311531067, 0.299421489238739, 0.34576061367988586, -0.8339515328407288, -0.676213800907135, -1.2172657251358032, -0.839972734451294, -0.28908583521842957, 1.947473168373108, -0.6656500101089478, -0.30902987718582153, 1.6472541093826294, -0.2452404946088791, -0.43698254227638245, -0.31754130125045776, -0.2778112292289734, -0.802577018737793, 2.8219902515411377, 0.6338855028152466, -1.3116588592529297, 0.8074465990066528, -0.1410457044839859, 0.2238844484090805, 1.8218274116516113, 0.3508475720882416, 1.5112797021865845, 0.6331766843795776, 1.8971790075302124, -0.27702608704566956, 0.0015932915266603231, -1.3556537628173828, 1.1602197885513306, -1.0600067377090454, 0.4918477237224579, 1.1092169284820557, 1.0061386823654175, -0.8844010829925537, 0.8119376301765442, 1.3265259265899658, -1.5341715812683105, -0.8028141260147095, -0.7373049259185791, 1.3211445808410645, -0.5437295436859131, -1.1941101551055908, -0.38575324416160583, 0.09646213054656982, -1.0994677543640137, 0.2538999915122986, 0.0328010693192482, -0.6385500431060791, -1.318558692932129, -0.8785542249679565, 0.6865046620368958, 0.31808918714523315, -1.9089435338974, 1.126011610031128, 0.2680552005767822], [0.014632640406489372, 2.6596713066101074, 0.43507930636405945, -0.31540313363075256, -1.4724531173706055, -0.1906186044216156, -0.36183685064315796, 0.7294544577598572, -0.32135024666786194, 0.9013357162475586, -0.2155495285987854, -0.41161859035491943, -1.1200826168060303, 0.6490485668182373, 0.7633629441261292, 0.09260764718055725, -1.446679711341858, -0.47458624839782715, -1.3113420009613037, -0.9190859794616699, 0.13675768673419952, -1.467057704925537, -1.6408295631408691, -0.9486741423606873, -0.3533994257450104, -0.3516489267349243, -0.4138845205307007, -1.3858585357666016, 0.19235703349113464, -1.0833125114440918, 1.0916568040847778, -0.4308636486530304, 0.949969470500946, 0.6410316824913025, -0.4828367233276367, 0.6664291024208069, 0.33766695857048035, 0.7313157320022583, -0.011913338676095009, 0.2978450357913971, -0.11990683525800705, 1.1652551889419556, 0.9159116148948669, -2.200789213180542, 1.132079005241394, -0.47036436200141907, -1.633276104927063, -0.7453426718711853, 1.4061278104782104, 1.0498133897781372, 0.7052925825119019, 0.7376939654350281, 0.9392107725143433, -0.6078304052352905, 0.5994441509246826, 0.11190573126077652, -1.0814132690429688, 0.299923300743103, -1.4431028366088867, -2.12955379486084, -1.268216848373413, 1.389182448387146, 0.637025773525238, -0.042061954736709595], [-0.06192983686923981, 1.0154547691345215, -0.6132416129112244, 2.026355743408203, 0.29657015204429626, 0.13157035410404205, -0.013795122504234314, -1.1315250396728516, 0.015365018509328365, 0.011894640512764454, -0.5170553922653198, 1.2007269859313965, 1.167258381843567, -0.08690357953310013, -1.1959115266799927, -0.7432560920715332, 0.0057807439006865025, -0.03750605136156082, -2.0016541481018066, 1.041588544845581, -1.1005756855010986, 0.09138467907905579, -0.11197931319475174, -1.0142788887023926, 1.7916218042373657, 0.7090851068496704, -0.08253716677427292, -0.8332507610321045, -0.5732922554016113, -1.5862168073654175, -1.3266377449035645, 0.7071141004562378, -1.2561566829681396, -0.22987036406993866, 0.5133816599845886, 1.0228592157363892, 0.36665090918540955, 0.1978549212217331, 0.4415101706981659, -0.385627418756485, 0.29008084535598755, -0.3647593855857849, -0.177364319562912, 0.6994955539703369, -1.9051827192306519, 0.7123451828956604, 0.8366119265556335, -0.4014263153076172, -2.946537494659424, 1.1050591468811035, -0.9014609456062317, 0.14012709259986877, -2.2558422088623047, -0.37645968794822693, -1.4726144075393677, -1.7218154668807983, -1.3954812288284302, 2.020200729370117, 0.43474259972572327, -0.34368783235549927, 0.6223971247673035, -1.467944860458374, 0.8916282653808594, -0.14403590559959412], [-1.0899995565414429, 0.4673836827278137, 0.0034417002461850643, -0.7484159469604492, 0.13171496987342834, -1.428552508354187, -0.6105881929397583, -1.3889721632003784, 0.4274355173110962, -1.6877903938293457, 0.6883280873298645, -0.5958783030509949, -1.3721047639846802, 2.5216190814971924, -0.32120442390441895, -0.2894270122051239, 0.6841041445732117, -0.04442775249481201, 0.07880803197622299, 0.5030742883682251, 0.5208895802497864, -0.021000292152166367, -0.41050398349761963, 2.395700216293335, 1.7638952732086182, 0.33079683780670166, 0.1843247264623642, -0.2581327259540558, 0.45136114954948425, -0.9828212261199951, 0.9800743460655212, -0.5653758645057678, -0.08474418520927429, 1.3854334354400635, 0.10567749291658401, 0.6143831610679626, -0.7246453762054443, -0.502953052520752, -1.0291723012924194, -0.5728157162666321, -1.3855292797088623, 0.39027997851371765, -1.5773825645446777, -0.06510670483112335, -0.524398684501648, -0.8199484348297119, -2.089081287384033, 1.1258906126022339, -1.139683485031128, 1.6929274797439575, 0.38432806730270386, 0.5082308650016785, 0.5852797627449036, 0.6662247180938721, -0.7292833924293518, 1.3551313877105713, 0.9446836113929749, 2.635943651199341, 0.684523344039917, 0.3354525864124298, 0.6999464631080627, 0.034026965498924255, -0.4035628139972687, 0.056951217353343964], [-1.2596083879470825, -1.8268101215362549, -0.6061722636222839, -0.32089462876319885, -0.5474863052368164, 0.659769594669342, 0.8234635591506958, 0.23069219291210175, -2.3796722888946533, 0.2620304226875305, 0.45359253883361816, 1.016760230064392, -0.15784338116645813, -1.064845323562622, 0.560225784778595, 1.1936489343643188, 0.025859985500574112, -0.146744966506958, -0.6517834067344666, -1.2672061920166016, 0.8647557497024536, 2.1569325923919678, -0.457392156124115, -0.9027767777442932, -0.057081688195466995, -0.6073517799377441, 0.5453280806541443, -1.458375096321106, 0.8023681640625, -0.6390488147735596, -0.1939087212085724, 0.8547540307044983, 1.197804570198059, 0.6508488059043884, -0.6732754707336426, 0.8800575733184814, 0.3079324960708618, -0.7282998561859131, 0.5067557096481323, 0.2846844494342804, -0.49929797649383545, 1.3208979368209839, 0.4740769863128662, 0.4591277241706848, -0.8781425952911377, 0.10470862686634064, -1.5618336200714111, 0.01001819223165512, -0.7442743182182312, -0.1636100858449936, -1.174985647201538, -1.027483344078064, 1.5552951097488403, 0.6527023911476135, -0.9160204529762268, 0.6284335255622864, 0.5998599529266357, -0.8304536938667297, 0.0657658725976944, -0.484732449054718, -0.7648563385009766, 1.1097080707550049, 0.2740146815776825, -0.2277313470840454], [-0.8308782577514648, -0.45067694783210754, -0.8295693397521973, -1.0327707529067993, -0.4640248417854309, -1.2331105470657349, -0.6126827597618103, -0.7824896574020386, 0.19388172030448914, 0.07141707092523575, -0.024633746594190598, -2.0718026161193848, 0.19124069809913635, 1.3164863586425781, -0.4633122384548187, -0.009919866919517517, 0.3694794178009033, 0.31181806325912476, 0.09957440197467804, 0.14778639376163483, 1.6422810554504395, 0.24998702108860016, -0.12205890566110611, 0.019494662061333656, -0.30425798892974854, 1.2257038354873657, 0.7509459853172302, -1.4867916107177734, 0.3690067231655121, -1.7617539167404175, 0.27071502804756165, -0.17027516663074493, 1.9322569370269775, 0.8403982520103455, -0.8986436128616333, 0.6812365651130676, 1.2563937902450562, 0.71205073595047, -0.660853922367096, -1.167762041091919, -0.8211256265640259, 1.3415789604187012, -0.48948654532432556, 0.017150796949863434, -0.8944161534309387, 1.3499722480773926, -0.14921647310256958, -0.5678730010986328, 0.37892428040504456, -0.8820145130157471, 0.9184717535972595, -1.2692546844482422, -0.427814781665802, 1.543519139289856, 2.677128314971924, -0.8312833309173584, 0.05834468454122543, 0.08727741241455078, 1.3941137790679932, -0.7362174987792969, -0.16898521780967712, -1.524465799331665, 1.4014173746109009, -1.1309645175933838], [-0.07385867089033127, 0.9789971709251404, 0.2942367196083069, -0.8669447898864746, -0.9783853888511658, -0.04400188475847244, -0.2995445430278778, 0.2284408062696457, -0.07745146006345749, -0.8364099264144897, -0.8605029582977295, 0.7315335273742676, -0.18385781347751617, -0.5061438083648682, -2.206071138381958, 1.4815771579742432, -1.6559984683990479, 1.1728949546813965, -0.9633265137672424, 0.6804935336112976, 0.6787880659103394, -1.0172332525253296, -2.145975112915039, 1.088088870048523, 1.3443552255630493, -0.7416791915893555, 0.977577805519104, 1.4438532590866089, -0.20423108339309692, 0.6411546468734741, -1.9347515106201172, -0.7634322643280029, -0.216838076710701, 1.3575644493103027, -0.9348067045211792, 0.1506267935037613, -0.5502777695655823, 1.5084362030029297, -2.0024874210357666, 0.9823998808860779, -0.226383239030838, 0.1976245641708374, 0.08476704359054565, -0.3315848708152771, -0.13771884143352509, 0.7533326148986816, 0.7796697020530701, 1.5729310512542725, 1.1535999774932861, 0.1998075395822525, -0.6522303223609924, 0.6620783805847168, 1.1548917293548584, 0.6542142629623413, 0.41093406081199646, 0.43179550766944885, -0.7993130087852478, 0.5134536623954773, -0.8788456916809082, -1.1069121360778809, 0.27484405040740967, -0.035151612013578415, 2.133531093597412, 0.39926254749298096], [-2.5816099643707275, -0.25172385573387146, 0.8163418769836426, 1.9600657224655151, 1.249729871749878, -0.17827802896499634, 0.3329482972621918, 0.5292074680328369, -0.024502206593751907, 0.9735917448997498, -0.45672279596328735, -0.08696368336677551, 0.8598268032073975, 0.9692918062210083, 0.17286637425422668, 0.5214058756828308, 0.26090753078460693, -0.46945637464523315, 0.8347326517105103, -1.57338547706604, 0.2394031137228012, 0.8553528785705566, 0.41816580295562744, -0.09409507364034653, 0.7976912260055542, -0.4905013144016266, -1.8207714557647705, -0.6267990469932556, 0.2959441840648651, 0.08756702393293381, -1.2673718929290771, -1.1550027132034302, -1.7080963850021362, -1.1067593097686768, 0.8753015995025635, 0.12721757590770721, -0.9144896268844604, -0.37877196073532104, -0.5409084558486938, -0.9428067803382874, -0.08328808099031448, 1.1005470752716064, -1.7788293361663818, -0.21095257997512817, -0.3641507029533386, 1.9526201486587524, 0.7767082452774048, 0.3465055823326111, 0.3684895634651184, -0.7029950022697449, 0.4790562391281128, -1.1804262399673462, -0.8532044887542725, -0.13878025114536285, 0.10265983641147614, -1.9873425960540771, 2.008584499359131, -1.3553351163864136, 1.172411322593689, -0.18042391538619995, 0.633279025554657, -0.34815531969070435, -1.0146766901016235, 0.9655486941337585], [0.6275441646575928, -0.43986573815345764, -0.33637815713882446, 0.8410974144935608, 1.3382760286331177, 1.0557386875152588, 1.8313552141189575, -0.23559020459651947, -0.618462324142456, 0.3995891213417053, -0.7413555383682251, 0.40518680214881897, -0.4445813298225403, -0.5565697550773621, 0.8899701237678528, -1.0268292427062988, -0.24793995916843414, 1.340477705001831, 0.2577047348022461, -0.3006739914417267, -0.2668054401874542, 1.8951843976974487, 1.1889692544937134, 0.7207552790641785, 0.042861271649599075, -0.4939558506011963, 1.1166090965270996, 1.1637260913848877, 0.4588148891925812, 1.8213428258895874, -0.4962313175201416, -0.8251922726631165, -0.7111154198646545, -0.003942141775041819, 0.9389700889587402, -1.7180012464523315, 0.9288308620452881, -1.1278303861618042, -0.5177576541900635, -0.3773484528064728, 0.9217668175697327, -0.6477224826812744, 0.2805362939834595, 1.3720725774765015, 0.01702272891998291, -1.6764308214187622, 0.4433315694332123, -0.42942050099372864, 0.8472138047218323, 0.996202826499939, 0.3215963542461395, 0.6095344424247742, -0.11671140789985657, -1.5194519758224487, -0.27314355969429016, -0.700552225112915, -0.47422322630882263, -0.2572375535964966, 0.5202314257621765, 0.02321421355009079, 0.9148116707801819, 0.2336810976266861, -0.006385670509189367, -0.0548580028116703], [-0.02215629070997238, -0.6691895723342896, -0.7009351849555969, -1.7832475900650024, -0.26924648880958557, -0.9228853583335876, -1.1111477613449097, 1.972603678703308, 1.288527011871338, -0.18851126730442047, -1.9622043371200562, 1.260669231414795, -1.8415288925170898, 0.20316357910633087, 2.0894644260406494, -0.13875125348567963, -0.5193626284599304, 1.013031244277954, -1.525984525680542, 2.124788284301758, -0.5781018733978271, 0.6035967469215393, 0.4320984184741974, -0.7852608561515808, -1.453003168106079, 0.24093809723854065, -0.08333901315927505, 0.6776024103164673, -1.0736815929412842, 0.7125166058540344, 0.4612170457839966, 0.09635669738054276, -0.17457976937294006, 0.322670042514801, -0.208966463804245, 0.9403167366981506, -0.5120140314102173, -0.18244569003582, 1.548448920249939, 1.473700761795044, 0.3304077386856079, -1.8589924573898315, 0.4457700848579407, -0.4648902118206024, 0.5293763279914856, -1.1557644605636597, 0.8145071268081665, 0.32154372334480286, 0.9472060799598694, 0.07296114414930344, 1.144854187965393, -0.7446937561035156, -1.685497760772705, 0.7916503548622131, -0.15184161067008972, -0.012572985142469406, -0.4788290858268738, 0.4681011736392975, -0.3023805022239685, -1.3134593963623047, -1.0086256265640259, -1.7097283601760864, -1.9073402881622314, -0.3762546181678772], [-0.25725671648979187, 1.8068135976791382, -0.6446337699890137, -0.34521788358688354, 0.43712887167930603, 0.6642279028892517, -0.6082592606544495, 0.8682585954666138, 0.09999627619981766, -1.1707172393798828, -0.7603768706321716, 0.09567733854055405, -0.3129735589027405, -1.0584537982940674, -0.6803500652313232, -1.6632106304168701, -1.6097277402877808, -1.5744622945785522, -0.4546751081943512, 0.6365839242935181, -1.6459705829620361, -1.4208128452301025, 0.5450884103775024, 0.13485346734523773, 1.5395851135253906, 0.5357229709625244, -0.9248755574226379, -0.6314887404441833, 0.20009484887123108, 0.25890621542930603, -0.4582194685935974, -0.5273647904396057, 1.1325262784957886, 0.3072105348110199, 0.33083784580230713, 1.7286205291748047, 0.9353870153427124, 0.13283342123031616, 1.1919533014297485, 1.7696175575256348, -0.22130772471427917, 1.7008304595947266, -0.06536868214607239, 0.6888025403022766, -0.5071520209312439, -0.015993306413292885, 0.6074226498603821, -0.9259949922561646, 1.8484843969345093, -0.3571740388870239, -0.9780663251876831, 0.11941643059253693, 0.6396576166152954, -0.8525657057762146, -0.3053867518901825, 2.258530855178833, 1.3583168983459473, -0.8896856904029846, -0.158442422747612, 1.1250804662704468, 0.4862680733203888, -0.9602668285369873, -0.499207079410553, -0.5188174843788147], [0.8930965065956116, -0.5144035220146179, -0.16227956116199493, -2.3900575637817383, 1.2841112613677979, -0.3690051734447479, -2.0349185466766357, 1.8545150756835938, -0.5300629138946533, -0.5649770498275757, 1.3302712440490723, -0.37687379121780396, -1.373813509941101, -1.4032618999481201, 0.4834831953048706, -0.5468572378158569, -1.120639681816101, -0.8814672231674194, 0.1886536031961441, 1.6144487857818604, -0.39080655574798584, 0.5736774802207947, 1.6449154615402222, -0.7938137054443359, -0.8248702883720398, -0.2330845594406128, -0.1501343995332718, -0.14342281222343445, 1.246988296508789, -0.5265065431594849, 0.3925972282886505, -0.07512605935335159, -0.455579936504364, -0.5934814810752869, -0.22355961799621582, 0.12449914962053299, -0.8006272315979004, -1.0880006551742554, 0.22439852356910706, -0.762116551399231, 1.3691047430038452, -0.5093918442726135, -1.5001213550567627, -0.510989248752594, 0.41062021255493164, 0.22801537811756134, -0.9209179282188416, 2.7459123134613037, -0.8793877959251404, -0.3705816864967346, -0.23200386762619019, -0.32993900775909424, -0.34461498260498047, 1.4206676483154297, -1.5094455480575562, 0.12172231078147888, -0.528549313545227, -1.1494200229644775, 0.4487251341342926, -0.1857813596725464, -0.6529192924499512, 0.5342127084732056, -1.0957883596420288, -0.7896538972854614], [-0.26589643955230713, -0.2575005292892456, 1.1474077701568604, -1.8422061204910278, -1.1756078004837036, 0.5596030950546265, -0.95975261926651, 0.8058841824531555, -0.2708324193954468, -0.3298119902610779, 0.4977366328239441, -0.5868982672691345, -0.38889163732528687, -1.1569442749023438, 1.8322851657867432, -1.7920738458633423, 0.19200670719146729, -1.6613500118255615, 0.010752955451607704, -0.24207299947738647, 0.5676307678222656, -0.7759265303611755, -0.6941530704498291, 0.6075696349143982, -1.034243106842041, 0.006892702542245388, -0.38737547397613525, -1.5001553297042847, 0.6299355030059814, 1.0074679851531982, -0.9458873271942139, -0.03751315176486969, -1.540644645690918, 0.3770846724510193, 0.477774053812027, 0.9553989171981812, -0.3383278548717499, -2.1855993270874023, 0.9459770321846008, -1.8529256582260132, -0.2769358456134796, -0.17316341400146484, 0.4986511170864105, -0.5837472081184387, 0.8107331991195679, 0.6361963748931885, 2.4779982566833496, 1.1645324230194092, 0.7420201897621155, -0.016388647258281708, -0.6145442724227905, -0.4651361405849457, 0.48792168498039246, -0.5537702441215515, -0.13665148615837097, -1.206381916999817, 2.0545196533203125, 0.5757692456245422, 0.18202929198741913, -0.7731391787528992, -1.509076476097107, 0.052724141627550125, 0.45411112904548645, -0.625758171081543], [1.9629473686218262, 1.1409717798233032, -0.22405147552490234, 0.04986691102385521, -0.18773365020751953, 0.305627703666687, -0.8489581942558289, 0.15472348034381866, -0.48048561811447144, -1.6737682819366455, 0.821648359298706, -0.012564004398882389, 0.44271597266197205, 0.5084272623062134, -1.0658658742904663, 2.0992326736450195, -1.1233338117599487, -0.5099809765815735, -1.7048074007034302, -0.0283361803740263, -0.8624464869499207, 0.48499417304992676, 0.5324594974517822, 0.29410240054130554, 0.23222969472408295, -1.4040483236312866, 0.811859130859375, -0.6833570599555969, 0.8190547823905945, -0.26834502816200256, 0.5249420404434204, 1.8844000101089478, 0.4689699709415436, -0.26613733172416687, 0.21969522535800934, 0.2676337659358978, -1.3057048320770264, -1.099273443222046, -0.27694517374038696, 0.22327376902103424, 1.3665438890457153, 0.25622525811195374, -0.3143453001976013, -0.11384198814630508, -0.4445754289627075, -0.646977961063385, -1.2802574634552002, -1.1210896968841553, 0.37687382102012634, 0.17162640392780304, -0.4635891914367676, 1.4666393995285034, -1.175717830657959, -1.512701392173767, 0.32144057750701904, 1.5889122486114502, -0.7328465580940247, 1.0100516080856323, -1.0121046304702759, -1.5626037120819092, -0.25723329186439514, -2.410288095474243, -0.0687083825469017, -0.8060298562049866], [-0.4522513747215271, 0.8241334557533264, -2.00360369682312, 1.1812318563461304, -0.5016598105430603, -1.7246952056884766, -1.0183433294296265, 0.981408417224884, 1.2049442529678345, 2.5534188747406006, -0.2949184775352478, 2.176870346069336, -1.8931994438171387, -0.8374273777008057, 0.7512182593345642, -0.8617814183235168, 1.203405499458313, -0.5476445555686951, -1.621644139289856, 0.6730857491493225, -1.0417803525924683, -0.8388874530792236, -0.5267753005027771, 0.9391655325889587, -0.48007258772850037, 0.1587081402540207, -1.1029661893844604, -1.8653836250305176, -1.1333296298980713, -1.561552882194519, -0.9824855327606201, -0.04069862142205238, -2.19997501373291, 0.43524274230003357, 1.1848114728927612, -1.6727546453475952, -0.5694759488105774, -0.7636825442314148, 0.2770003378391266, -2.1138370037078857, -0.7921656370162964, 0.03648580610752106, -1.0846270322799683, 2.943197250366211, -1.4811081886291504, -0.028632357716560364, -0.07437347620725632, 0.4690669775009155, 0.6882811188697815, -0.17999319732189178, -0.7424545288085938, 0.8562570214271545, 1.3359711170196533, -1.2681665420532227, 2.2755672931671143, -1.1419346332550049, 0.3989989161491394, 1.5922292470932007, 0.03441444784402847, -0.9578524231910706, -0.2976019084453583, -1.5723801851272583, 1.7300149202346802, 1.327497124671936], [-1.8169846534729004, 1.6841567754745483, -0.2164054661989212, 0.9292068481445312, -0.3550392985343933, -0.394297331571579, -1.2442606687545776, -0.8994032144546509, -1.8694565296173096, 2.9090170860290527, -0.38144543766975403, 1.260867953300476, 0.8539990186691284, 0.2700732946395874, 0.18244437873363495, -1.1698464155197144, 0.4244181513786316, -1.351386308670044, 1.7055381536483765, 0.06876727938652039, -0.5778080224990845, -0.9290881156921387, -0.4366709887981415, 1.456477403640747, -0.5307187438011169, -0.8921168446540833, -1.872336983680725, -1.1296277046203613, 0.7546412944793701, -1.2471208572387695, 1.590134620666504, 1.095276951789856, -0.3842664659023285, -0.3015330135822296, -0.6235061287879944, -0.562624990940094, -0.17340384423732758, 2.026416301727295, 0.4151664078235626, 1.1392693519592285, 0.3701995611190796, -0.7882986068725586, -0.9165193438529968, -0.08149033039808273, 0.02260669320821762, 0.87502121925354, -0.7630459666252136, -1.436876654624939, -1.4189879894256592, 0.35234513878822327, -1.6644428968429565, -0.8064529895782471, 1.4356424808502197, 0.9352439045906067, -0.16751629114151, 0.6838465929031372, -0.3731003999710083, 0.8148776292800903, 0.11206874996423721, 0.6811082363128662, -1.0514001846313477, -0.2313496172428131, -2.2842369079589844, -0.6013630628585815], [-1.0430680513381958, -1.292672872543335, 1.0161385536193848, 0.3259057402610779, -0.5951541066169739, 0.4266517162322998, 0.36150237917900085, 2.1458449363708496, 0.8696100115776062, 0.49678492546081543, -1.3299380540847778, 0.7520920038223267, -1.8645062446594238, 0.8570986986160278, 0.18673783540725708, -0.677182137966156, 0.6372736096382141, -0.0717809796333313, -0.6715977787971497, -0.05992812663316727, -0.996353805065155, 0.4550909698009491, 1.1428390741348267, 0.9841126203536987, 0.034868303686380386, 0.2796306908130646, 0.38160842657089233, -0.7764461636543274, -0.49650460481643677, -0.7676888108253479, 0.4380618929862976, 1.1283466815948486, 0.9811407327651978, 0.49118879437446594, 0.5659905076026917, -0.16402745246887207, 0.6740999817848206, 0.4959316551685333, 1.9780775308609009, -0.5248627662658691, 0.33754390478134155, -0.555695652961731, -2.6064252853393555, -1.1423269510269165, -0.6448818445205688, 1.115342378616333, -0.6329689025878906, -0.48455706238746643, -0.7058312892913818, -1.8334683179855347, -0.4051004648208618, -0.784822940826416, -1.137557029724121, -1.2238656282424927, -0.06633022427558899, 0.8898167610168457, 1.2000930309295654, 0.2497718185186386, 1.1931606531143188, 0.4787507653236389, -1.0722451210021973, -1.0905187129974365, 0.7446753978729248, 0.8601425886154175], [0.6904938817024231, -0.6636146306991577, -0.972476601600647, 0.06712424755096436, 0.3088507652282715, -1.3251028060913086, -0.6247962713241577, -0.06516888737678528, -0.9940071702003479, -1.413620114326477, 0.0056061348877847195, 0.5538648962974548, 0.6989589929580688, -0.666337251663208, 2.196859121322632, -0.15577518939971924, -2.3717494010925293, 1.2348008155822754, 0.5669773817062378, -0.401460200548172, -0.11121462285518646, 0.392088383436203, 2.0944268703460693, -0.23585659265518188, 0.05566580966114998, 0.43276795744895935, -0.7913631200790405, 0.22541871666908264, -0.4271175265312195, 1.886212944984436, -1.727176308631897, 0.011362234130501747, 0.6795122027397156, 1.764344334602356, -1.469632625579834, 0.4350391924381256, -0.16852733492851257, 1.6339908838272095, 0.4017055332660675, 0.6573659777641296, 0.21756038069725037, 0.3917941153049469, -0.8373149633407593, 1.2197988033294678, -0.7963979244232178, 0.7690864205360413, -1.5086838006973267, -1.026494026184082, -1.067446231842041, -0.7130125761032104, 0.35369446873664856, 1.3535348176956177, 0.6302323937416077, -1.1533221006393433, -0.02969995327293873, -0.323949933052063, -1.396194338798523, -1.3333150148391724, -0.8115370273590088, -0.4989044964313507, -1.9114763736724854, -0.012131384573876858, -0.7873383164405823, -0.6590706706047058], [2.3548314571380615, 2.2289934158325195, -1.2839730978012085, 0.17128422856330872, -2.02725887298584, 0.14322534203529358, -0.28195905685424805, -1.1229318380355835, 0.18557675182819366, -0.16506336629390717, -0.07891996949911118, -2.224734306335449, -1.0095804929733276, 1.1037877798080444, -0.49646157026290894, 0.03536379337310791, -1.4158053398132324, 0.8203256726264954, -2.5294878482818604, 1.3111255168914795, -0.7048386335372925, -1.5148543119430542, 0.36671608686447144, -0.8535202145576477, -0.9184364080429077, -0.9486681818962097, -0.4909660816192627, -0.15229323506355286, -0.30599895119667053, -1.061956763267517, -0.5428174734115601, 0.8798779249191284, -1.4596418142318726, -1.0607669353485107, -0.576932430267334, 1.4317100048065186, 0.569169819355011, -0.30805450677871704, 0.6399276852607727, -0.5225152969360352, 0.11525271087884903, 1.176149606704712, 0.4805905818939209, -0.43947336077690125, 1.0250846147537231, -0.5104967951774597, -0.4390476644039154, 0.25456443428993225, 1.365770697593689, 1.1209731101989746, 0.3860403597354889, 0.4743545353412628, -2.6010308265686035, -0.5372242331504822, -1.6885665655136108, 0.1476818323135376, 0.23162975907325745, -2.1868233680725098, -1.1104799509048462, 0.27782657742500305, 0.7310926914215088, 0.43921005725860596, -0.8793896436691284, 0.8470519781112671], [-0.3977728486061096, 0.8966955542564392, -0.03940410166978836, -0.5234892964363098, 1.3359920978546143, 0.4993363320827484, -1.7416157722473145, -0.06175612658262253, 0.2775445282459259, -1.8493918180465698, 0.30443933606147766, 1.250898838043213, 1.0944993495941162, 2.34348201751709, -0.15068408846855164, -2.5190112590789795, -0.6421871781349182, -1.2434872388839722, -0.2775786221027374, -0.2898339033126831, 0.3741428852081299, 0.5323358178138733, -0.20812062919139862, 1.550027847290039, -1.4886311292648315, -0.7133797407150269, 0.6077203750610352, 1.8566491603851318, -1.0668448209762573, 0.2426965832710266, 1.2417492866516113, 0.3860810399055481, -0.054855022579431534, 0.904529869556427, 0.6397700309753418, 0.5537614822387695, 0.41265392303466797, 0.767390787601471, 0.4553016424179077, 0.5677583813667297, 1.160892367362976, 0.7428715229034424, -0.4349934458732605, -0.14907947182655334, 0.019646499305963516, 1.1702390909194946, -1.7615058422088623, 0.8346022367477417, -0.39897751808166504, 2.22438645362854, 0.904968798160553, 1.1688066720962524, -0.9268659949302673, 1.8719041347503662, 0.19665716588497162, 0.4655948281288147, -0.021603809669613838, 0.2535524368286133, -0.07447399944067001, -0.5135273337364197, -1.1314661502838135, 0.18728211522102356, -0.4522159695625305, 0.3834353983402252], [1.4950109720230103, -0.731745183467865, -0.22047273814678192, 0.0055984617210924625, 0.5869957804679871, 1.2246038913726807, -1.6397831439971924, -0.040392663329839706, -0.5970568060874939, -0.4137759804725647, -1.2212543487548828, 0.8753635287284851, 0.03429436311125755, -0.44312503933906555, 1.3961782455444336, 0.11110229045152664, 0.2554074227809906, 0.7618116736412048, -1.3932684659957886, -0.9451208710670471, 1.3064261674880981, -0.5806965827941895, -0.5079773664474487, -0.04906680807471275, 0.49668338894844055, 1.4236546754837036, -0.1641644537448883, -0.4541143476963043, 1.7754930257797241, 1.342986822128296, -0.6109958291053772, 1.1338529586791992, 0.5847585797309875, -1.0184643268585205, -0.10227351635694504, -0.595233678817749, 0.22666166722774506, -1.1704959869384766, 1.0021473169326782, -1.064011573791504, -0.36237961053848267, 1.1782727241516113, 0.4105391204357147, 1.912397027015686, 0.4595145285129547, 3.3576135635375977, -0.986431896686554, 0.7069587707519531, 2.0139009952545166, -1.2707195281982422, -0.14592285454273224, 0.6113747358322144, 0.013100926764309406, -0.5598354935646057, 0.7633600831031799, 0.7995111346244812, -1.4769330024719238, -0.7094036340713501, 0.7339826226234436, -0.464126855134964, -0.17685678601264954, -1.305868148803711, 0.3753267228603363, -1.6934412717819214], [0.268065482378006, 1.5336203575134277, 0.23583124577999115, 0.6075162887573242, 0.7567124962806702, -0.29670193791389465, -1.5634243488311768, -0.6388498544692993, 0.2576759159564972, 0.775860071182251, 0.009632585570216179, -1.2763769626617432, 0.3031482696533203, 0.3204977512359619, -0.3014165163040161, 0.9538586139678955, -0.28154686093330383, -0.792579710483551, 0.5890488028526306, -0.9224808812141418, -0.7160558700561523, 0.3104805648326874, 0.5230512022972107, -0.4975498914718628, -0.8163318037986755, 0.7885771989822388, -0.4406743049621582, -0.4454924166202545, 1.45078444480896, 1.0749750137329102, -1.1375281810760498, -0.8866259455680847, -0.774918258190155, -2.858884334564209, 0.5207441449165344, 0.8496691584587097, 1.7466188669204712, -0.9720696210861206, 0.26219332218170166, 0.6062593460083008, -0.15735052525997162, -0.4552839994430542, 1.9991252422332764, -0.10025167465209961, 0.12376846373081207, -1.0716091394424438, 0.1567797064781189, 0.37416574358940125, -0.902700662612915, -1.6482126712799072, -1.8251551389694214, 0.3480675220489502, 0.17190411686897278, -0.3534039258956909, -0.3360002040863037, -0.054841332137584686, -1.6038063764572144, 0.9770532846450806, 0.6758777499198914, -0.5341898202896118, -1.332845687866211, 0.7794336676597595, 1.4369659423828125, 0.5518411993980408], [1.1298803091049194, 0.030920572578907013, 0.06287965923547745, -2.097982406616211, 0.5311476588249207, 1.3476403951644897, -0.15967653691768646, -0.6385681629180908, -0.08981199562549591, 0.06276989728212357, -0.03551139682531357, 0.2475540041923523, 0.34383219480514526, 0.4831746816635132, 0.7506875395774841, -0.7669872045516968, -0.8828950524330139, 1.2734489440917969, 1.2483476400375366, -0.050342459231615067, -0.6081274151802063, 0.9370542168617249, 0.8461006283760071, 0.9437483549118042, -0.7735602259635925, -0.769951343536377, 1.1431437730789185, -0.3125758767127991, 0.9854520559310913, -0.6163908243179321, -0.17077115178108215, 1.1887965202331543, 1.8555794954299927, -0.4974382221698761, -0.4887573719024658, 0.2261139303445816, 0.13478320837020874, 1.910797357559204, 1.4041038751602173, -0.9074413180351257, 1.3040173053741455, 0.5056409239768982, -1.5014327764511108, -0.03355075418949127, -0.020815018564462662, -1.7602592706680298, -0.719452977180481, -1.3065842390060425, -1.171563982963562, 0.5585247278213501, -1.0098586082458496, 0.26492413878440857, -1.1147990226745605, 0.17362640798091888, 0.8925673961639404, -0.6787206530570984, -2.4428367614746094, 0.8756568431854248, -1.2103440761566162, 0.47043752670288086, 0.25616130232810974, -0.3043805658817291, 0.7638076543807983, 0.415579617023468], [0.05417511984705925, 0.1776723861694336, -0.7196833491325378, 0.43748340010643005, 1.7709851264953613, -1.2915215492248535, -0.7952321767807007, -0.4747682809829712, -1.0837382078170776, 0.5099249482154846, 1.1303819417953491, -0.08359966427087784, -0.7765753269195557, -1.0071290731430054, -1.0369641780853271, 0.7447948455810547, -0.5239604711532593, -0.6570427417755127, 0.7808277010917664, -0.0888892188668251, 0.06514966487884521, 0.35195162892341614, 0.0846804827451706, 0.7790648341178894, -0.8940067887306213, 0.9642342329025269, -0.10120690613985062, -1.1721603870391846, 0.34794068336486816, -0.40476348996162415, 0.5136345624923706, -1.2679589986801147, 1.5656481981277466, -1.1325182914733887, -0.5746431946754456, 0.09533608704805374, -1.909838080406189, -0.020851239562034607, -0.08714966475963593, -1.623583436012268, -0.7054367661476135, 0.6236070394515991, 1.6525349617004395, 1.231130838394165, 0.2408600002527237, -0.7357839345932007, 1.8792604207992554, 0.748777449131012, 0.5593143701553345, -0.5088484287261963, 1.4043960571289062, -0.030434727668762207, 0.9210178852081299, 0.8514352440834045, -0.25025883316993713, 2.189997434616089, -0.4105316996574402, -0.9252495169639587, -0.006232092157006264, 2.439863443374634, 1.2327032089233398, -0.06977491825819016, -0.03866030275821686, 1.2653741836547852], [-0.1817963719367981, -0.3394131660461426, -1.058887004852295, 0.3896864354610443, 0.5394301414489746, -0.1805022954940796, 1.4037566184997559, 1.2683520317077637, 0.7484066486358643, -1.9631116390228271, 0.23903679847717285, -0.2823522388935089, -1.0767903327941895, -1.084861159324646, -0.6392472386360168, -0.20377370715141296, -0.402902215719223, -0.9290236830711365, 1.2767606973648071, 1.7510902881622314, -0.37406444549560547, 0.058342188596725464, -1.2694114446640015, -0.6622149348258972, -0.8257761597633362, -0.546597957611084, 0.7413527369499207, 1.7416622638702393, 0.002638904843479395, 1.2614481449127197, -0.7239627242088318, 0.4934663772583008, 0.7093307375907898, 1.1250613927841187, 0.19398021697998047, 0.5798491835594177, 1.5244537591934204, 1.238904595375061, -0.1870025396347046, -0.3121141195297241, 0.5126009583473206, -1.1176574230194092, -0.3558170199394226, -0.2952985167503357, 0.360310822725296, -0.9887941479682922, 0.2662069499492645, -0.08092672377824783, 0.29792606830596924, -0.7990482449531555, -0.15786607563495636, -2.6570990085601807, 1.8662282228469849, -1.224672555923462, -0.8488143086433411, -0.6094760298728943, 1.6742329597473145, -1.608847975730896, -0.10748601704835892, 1.365785002708435, 2.0832815170288086, -1.9538482427597046, -0.6724165081977844, -1.4513535499572754], [0.7311456203460693, -0.8616520762443542, -2.2474303245544434, -2.423121452331543, -1.019542932510376, 0.08678264170885086, 0.3281528651714325, 1.8301849365234375, -0.34192994236946106, 0.836857259273529, 1.6934492588043213, -0.005135727114975452, -0.44106143712997437, -0.017037369310855865, -0.740482747554779, 1.5910766124725342, 0.05670465528964996, -0.1450367420911789, -0.018941782414913177, -0.4595138132572174, 0.8317872881889343, 0.7867189049720764, 1.8800145387649536, 0.2683153748512268, -0.22962430119514465, 0.10454940795898438, 0.5505810379981995, -0.8109548687934875, -0.007704521995037794, 0.985204815864563, 0.22843579947948456, 0.07240593433380127, -0.01258974801748991, 2.6477842330932617, -0.8280661106109619, -1.2252492904663086, -0.996188759803772, 2.169391393661499, 2.253448009490967, -0.6190444827079773, -0.1911114603281021, 0.14500296115875244, 0.5176507234573364, -0.5957164168357849, 0.33891183137893677, 0.689247727394104, 0.252902090549469, -1.0497443675994873, -0.8581302762031555, 1.1029391288757324, -1.4941270351409912, -1.0623536109924316, -1.6294885873794556, 0.07970041036605835, -0.7154332399368286, -1.2743982076644897, 1.2952725887298584, 0.4821673035621643, -0.10076304525136948, 0.6182565689086914, 1.1089717149734497, 1.0089259147644043, -0.21218320727348328, 2.023144245147705], [-0.4388328492641449, -2.3971548080444336, -0.026016611605882645, -0.7772300839424133, 0.24833576381206512, -1.251581072807312, 0.27853164076805115, -0.777396559715271, -1.0363689661026, 2.2576394081115723, 0.25984829664230347, -0.4541337788105011, -1.4074327945709229, -0.107796810567379, 0.0985921248793602, 1.8831638097763062, 0.9025103449821472, -0.7328653931617737, -3.1656088829040527, -1.1362444162368774, -1.253402829170227, -0.4479978680610657, 0.8951197266578674, -0.21002651751041412, 0.6478832960128784, -0.114592544734478, 2.4460830688476562, 0.6075542569160461, -1.4219554662704468, -1.1635141372680664, -0.34218868613243103, 0.23480406403541565, 0.2456682026386261, -1.3356072902679443, -1.2104432582855225, -1.245948314666748, -0.6118132472038269, 0.21178193390369415, -0.34364980459213257, 0.7168896794319153, -1.4602854251861572, -0.2403045892715454, -0.1817992627620697, 0.16817326843738556, 0.5083232522010803, 1.071277379989624, -1.099461555480957, -1.040505290031433, 0.7363395094871521, -0.10017083585262299, 1.8066695928573608, -0.3844538629055023, 1.6051098108291626, -1.2035472393035889, -0.6027466058731079, 0.39424362778663635, 0.14882847666740417, 0.6760692000389099, 0.484279602766037, 0.4752441644668579, 0.7821429967880249, 0.07048492878675461, 0.019343867897987366, -1.1238564252853394], [1.747035026550293, 0.3134419620037079, -0.215825617313385, -0.06347009539604187, 1.0739901065826416, 0.4907953441143036, 1.7295007705688477, -0.20583121478557587, -0.3409213721752167, 0.7424334287643433, 0.1775079220533371, 0.03770009055733681, -1.0198304653167725, -0.09830685704946518, -0.6323726773262024, -1.568063497543335, -0.29505017399787903, -1.3289941549301147, -0.2965479791164398, -0.11112320423126221, 1.403442144393921, -0.912219762802124, 0.19863614439964294, 0.3500013053417206, -0.4501332938671112, 0.2010345607995987, 0.483727365732193, -2.5141656398773193, 0.929143488407135, -0.3255246579647064, 1.5342535972595215, 0.5941714644432068, -0.5352470874786377, 1.9379736185073853, 0.25615718960762024, -0.4255267381668091, -1.4006167650222778, -0.5981312394142151, -1.0003429651260376, -0.007103173527866602, -0.750673234462738, -0.01676918938755989, 0.6108754277229309, 0.8473828434944153, 0.5074161291122437, 0.6762659549713135, -1.4163341522216797, -0.45971351861953735, -0.40025684237480164, 0.8003154397010803, -0.9853747487068176, 1.2818211317062378, 0.11098738759756088, -0.9642674922943115, -0.5315567255020142, -0.5120223164558411, 0.45972180366516113, 0.9073088765144348, -1.8821659088134766, -1.3574601411819458, 0.37612637877464294, 1.6840349435806274, 0.6567981839179993, -2.9597673416137695], [-0.953508198261261, 0.2638130486011505, 1.4878003597259521, 0.18649904429912567, 2.1305549144744873, 1.959035873413086, -1.495307445526123, -1.2119052410125732, 1.4971344470977783, 0.29364433884620667, -1.6712902784347534, 1.2694649696350098, 1.4316869974136353, -1.4146618843078613, -0.8603735566139221, -1.223832130432129, 0.13979044556617737, 1.5656083822250366, -0.5818873047828674, -0.06357394903898239, -0.8370447158813477, -1.419508695602417, -0.6860226392745972, -0.1563144475221634, 0.3044361472129822, -1.377361536026001, -1.3711634874343872, -0.6379079818725586, -0.11092416197061539, 0.7918921709060669, -0.635297954082489, 0.6088244318962097, -0.9189918041229248, 1.3708921670913696, 0.297458291053772, 0.08300568908452988, 0.4016038477420807, 1.660180926322937, 0.15314224362373352, 1.0598528385162354, 0.6260511875152588, 1.7141661643981934, 2.151336908340454, 2.072744846343994, 0.5034835934638977, 0.9949264526367188, 1.1946978569030762, 0.6687659621238708, -1.1150591373443604, -0.6435240507125854, -0.27445149421691895, -0.5039737820625305, -0.1503240317106247, -0.42391660809516907, -0.4796890914440155, -2.0123348236083984, 1.091238021850586, 1.2797613143920898, -0.040682051330804825, -1.477913498878479, -1.759516716003418, -0.5796449780464172, -0.7237352728843689, 0.6571391224861145], [0.08669339120388031, 0.10735935717821121, 0.31967708468437195, -0.32868942618370056, 0.805655300617218, -0.7010319828987122, 0.133322611451149, 0.6612235307693481, 0.3493516743183136, -1.3912479877471924, 0.8189163208007812, -0.5432939529418945, -0.7055326104164124, 0.3994404673576355, 0.6324620842933655, -0.031669408082962036, -0.0631227120757103, -0.9510601758956909, 0.21306070685386658, 1.3676824569702148, -0.41858068108558655, -0.47483116388320923, 1.9074488878250122, 0.9562731385231018, 1.5567322969436646, -1.9902244806289673, 1.1423982381820679, 0.8742051124572754, 1.4796674251556396, -0.888796329498291, -1.0213704109191895, -1.0126157999038696, 1.5568833351135254, 1.1539069414138794, 1.082584023475647, 1.0702300071716309, 0.2294207364320755, -0.28194496035575867, 0.4102499485015869, 0.2469651848077774, 1.0354233980178833, 0.22849678993225098, -0.22809669375419617, 0.0739799290895462, -0.3972739279270172, 0.2547036111354828, -1.0972825288772583, -0.7967057228088379, -0.7970843315124512, 0.7780559062957764, -0.049639392644166946, 0.6289055943489075, 0.8098084926605225, 0.4272586703300476, -1.086897850036621, -0.6463595032691956, 0.006576575804501772, -1.4640803337097168, -0.3153061270713806, 0.13613712787628174, 0.8390560150146484, -2.422799825668335, -0.4308265149593353, -0.16739024221897125], [-0.7967409491539001, -1.0599710941314697, -1.018178105354309, -0.4562634229660034, 1.070135235786438, 0.06896653026342392, 0.27910566329956055, 0.17468494176864624, 0.545647919178009, -0.7921112179756165, -0.8526212573051453, -1.0153201818466187, 1.097899317741394, -0.36939239501953125, -0.2658984661102295, -1.92434823513031, -0.7105183005332947, 0.4420740306377411, 1.2701748609542847, -1.8445689678192139, 0.978207528591156, -0.4822206497192383, -0.24551402032375336, 0.17400775849819183, 1.6220645904541016, 0.41428643465042114, -1.0856152772903442, 0.21427610516548157, -1.66484534740448, -1.0760070085525513, -0.05706647410988808, 1.1497032642364502, 0.1899048089981079, 1.4165847301483154, 0.49959707260131836, -0.4506343603134155, 1.2721906900405884, -0.5104673504829407, 0.2920159697532654, 2.5332846641540527, 1.7306883335113525, 1.8217827081680298, 0.0906362310051918, -1.827811360359192, 0.7291153073310852, -0.6921117901802063, -2.803748607635498, 0.8920717239379883, -0.3502945899963379, 1.0823915004730225, 0.07723189145326614, 0.7633368968963623, 0.711675763130188, 1.0559909343719482, -0.7901207208633423, -1.1394753456115723, 1.112991452217102, 2.153780937194824, 0.25581732392311096, -0.5332227945327759, 0.4226492941379547, 1.318763256072998, -0.9909866452217102, -0.619063675403595], [0.3552396297454834, -1.8723384141921997, -0.5960379838943481, -0.14945738017559052, 0.9625075459480286, -0.4179127514362335, -0.009374908171594143, -1.2325695753097534, -1.3995665311813354, 0.422023743391037, -0.9137916564941406, -0.33935701847076416, 0.6321037411689758, 0.25377926230430603, -0.4115746021270752, 0.15327933430671692, 0.736748456954956, -0.6734384894371033, -0.39115628600120544, 0.583622395992279, -1.1580443382263184, 0.9575395584106445, 1.3996895551681519, 1.2675870656967163, 1.3063162565231323, 0.42249026894569397, 1.4155224561691284, 0.9787502884864807, 1.2021260261535645, -0.5601304769515991, -0.4660080373287201, 1.1671643257141113, 0.9644505977630615, 0.7735699415206909, 0.24091127514839172, -0.47337955236434937, 0.11006844788789749, -0.45488595962524414, 0.05671285465359688, -1.4625200033187866, 0.5011359453201294, -2.0205135345458984, 0.33895084261894226, -1.2604612112045288, 1.5965484380722046, 0.2678414583206177, -0.4148337244987488, -1.9836324453353882, -0.10236450284719467, 2.2248713970184326, -0.6046294569969177, 0.7913183569908142, 0.40508100390434265, 0.40970104932785034, -0.5502281785011292, 0.5962486267089844, 0.09526710212230682, 0.5668419003486633, 1.0992258787155151, 0.25277215242385864, -0.6068676114082336, -0.9168754816055298, 1.2590367794036865, -0.8605667948722839], [-1.0039846897125244, 0.4208478033542633, 0.5676470398902893, -0.07155310362577438, -0.652089536190033, 0.2954893410205841, -0.4774742126464844, 1.3912053108215332, 0.8719325065612793, -1.5796732902526855, -0.7096966505050659, -0.4222164452075958, 0.5641338229179382, -0.6261712312698364, -0.9941254258155823, -0.22936944663524628, -0.8994541764259338, -0.7952099442481995, 1.2108389139175415, 0.08842407912015915, 0.7188935875892639, 1.2134337425231934, 1.1539489030838013, 0.6580086350440979, -0.5770635008811951, -0.4808295965194702, -0.2751728296279907, -0.6616568565368652, -1.4190149307250977, 0.10343987494707108, 0.9475454092025757, -0.17711438238620758, 1.3838483095169067, -0.713301956653595, 1.0920761823654175, -1.0904520750045776, 0.5057739615440369, 1.1409176588058472, 1.3276315927505493, -0.9485867023468018, -0.0749884843826294, -0.25689563155174255, 1.0847969055175781, 0.6935446858406067, -1.1503890752792358, -0.5035227537155151, 0.6424089074134827, -0.5454347133636475, 1.0152465105056763, 0.7765384316444397, 0.07607198506593704, 0.5508414506912231, -0.8384941220283508, -1.1076934337615967, 1.923928141593933, -0.7438542246818542, 1.444390892982483, 0.7500180006027222, 0.8633134961128235, 3.380384922027588, -0.9661814570426941, 2.0783233642578125, -0.6812329888343811, -1.8210670948028564], [0.4916069209575653, -0.39058718085289, -1.4229320287704468, 0.15910698473453522, -0.7289043068885803, -0.3087136447429657, -0.23677939176559448, 0.7638392448425293, -0.3259681165218353, 0.023824797943234444, 0.2949606776237488, 1.7912020683288574, -0.5386099815368652, -0.6241231560707092, -1.244623064994812, -0.13766559958457947, 0.10046518594026566, -0.8617305159568787, -0.928597092628479, 0.35670557618141174, 1.1719714403152466, -0.4728277325630188, -1.8320014476776123, 1.5780212879180908, 0.197393000125885, -0.04109084978699684, -0.9351336359977722, -0.04033373296260834, 0.5599237680435181, 1.5353199243545532, -0.4003886580467224, -0.7427992820739746, 0.18946681916713715, 1.9361523389816284, 1.7575794458389282, -1.5584018230438232, -1.2465680837631226, 0.6142129302024841, -0.8633641004562378, -0.3273255527019501, 0.6243811845779419, 1.0635056495666504, -0.6885683536529541, 0.3398888409137726, 1.1840436458587646, -0.3865842819213867, 0.05060969665646553, -0.8342869281768799, 0.059280458837747574, 0.1582086831331253, 0.35455429553985596, -0.8303817510604858, -1.5795036554336548, 0.253599613904953, -1.1609939336776733, 2.06595516204834, 0.10866967588663101, -1.6074533462524414, 0.1849423050880432, 0.8872578740119934, -1.0328023433685303, -0.39405035972595215, -1.2067139148712158, -0.7010241746902466], [0.8238584995269775, 0.601948618888855, -0.5708763003349304, -1.146153450012207, 1.1205483675003052, -0.7041592597961426, -1.2874476909637451, 0.6735117435455322, -0.06397099792957306, -0.6832045912742615, -0.03592206537723541, -0.3437063992023468, 0.9224079847335815, -0.6995112895965576, 1.6862210035324097, 0.7319772839546204, 1.3787156343460083, 1.4136712551116943, -2.170010566711426, -0.6425460577011108, -1.0932687520980835, -1.0792571306228638, -0.14872890710830688, 1.4741106033325195, 1.575992226600647, -1.977676510810852, -0.29456254839897156, -0.8384741544723511, -0.05067792534828186, -0.07081858813762665, 0.4670565724372864, -0.1083124503493309, 2.0517449378967285, -2.20076584815979, 1.148535966873169, -1.022529125213623, 0.2926205098628998, -0.8968273401260376, -1.4235525131225586, -0.40458381175994873, -1.4249720573425293, -0.5540540218353271, -1.3248913288116455, -1.1520967483520508, 1.1448484659194946, -0.5162374973297119, 0.8316669464111328, 0.3179692029953003, -0.08307196944952011, 0.9240537881851196, 0.33050549030303955, -0.4389338493347168, -1.3826371431350708, 1.6780295372009277, 0.2205035537481308, 1.1752357482910156, 2.132688522338867, 0.15531028807163239, 0.0012397728860378265, 0.21122652292251587, 0.7722565531730652, 0.22201021015644073, -0.1730051338672638, 1.054054856300354], [1.300158143043518, 0.6407408714294434, 0.5942637324333191, 0.5152469277381897, 0.8139479160308838, -0.9898133277893066, 0.7518385052680969, 0.2615980803966522, -0.4385357201099396, 0.603937029838562, -1.671639323234558, -0.1817278414964676, -0.47684183716773987, 0.5131001472473145, 1.5668809413909912, -0.38042983412742615, 0.6646660566329956, 2.124518632888794, 2.034522294998169, 0.9161260724067688, -0.9699671268463135, -0.026898479089140892, 0.31869786977767944, 0.6100281476974487, -0.6766743063926697, -0.6409810781478882, -0.035418663173913956, -2.1619882583618164, -0.9162397980690002, 0.6258100271224976, -0.9569295644760132, 0.24795635044574738, 0.7370631694793701, -0.33050236105918884, 0.4010738730430603, -0.09582957625389099, -0.7116323113441467, 0.8817615509033203, 1.4893195629119873, -0.31534773111343384, -1.3656363487243652, 0.7779426574707031, 0.5956102013587952, 0.0034646764397621155, -1.0163601636886597, -1.0745962858200073, -1.3164849281311035, -2.4234228134155273, 1.644864559173584, 0.546684980392456, 0.9200431704521179, 0.4627567529678345, -1.8849010467529297, 0.570683479309082, -1.8689887523651123, 0.5487084984779358, 0.5660753846168518, 0.5471369624137878, -0.46847888827323914, 0.3377639949321747, 0.10138469189405441, -0.7735694646835327, 0.7210506796836853, 0.7736396193504333], [-0.8888423442840576, -1.1359829902648926, -0.49113890528678894, 0.2028151899576187, 0.5205186605453491, -1.9727853536605835, 0.68780916929245, 1.1477012634277344, -0.12401215732097626, -0.550371527671814, 1.160505771636963, -2.8152382373809814, -0.7792863249778748, 0.8362232446670532, 0.7569724917411804, 0.9796299934387207, 0.46228551864624023, 0.5241743326187134, 0.28822216391563416, -1.3093721866607666, 0.9028522372245789, 0.014139153994619846, 0.019332697615027428, 0.2981823980808258, -0.1833910197019577, -0.20981867611408234, 1.5199179649353027, 1.0665128231048584, 0.7622439861297607, -0.08890705555677414, -0.6502159833908081, 1.2034740447998047, -0.09546051919460297, -1.6629019975662231, -0.9519457817077637, 1.8267574310302734, 1.2119452953338623, -1.837917447090149, -0.053489699959754944, 1.3340930938720703, 0.8827560544013977, -0.2997887432575226, 0.8538857102394104, -0.20142416656017303, -0.6555666923522949, 0.7574882507324219, 2.403043508529663, 0.9503945112228394, -2.168966770172119, 1.9979959726333618, 0.15390807390213013, 1.138492226600647, -0.5453994870185852, 0.9617489576339722, -0.9108381271362305, -1.3144664764404297, -1.602702021598816, 0.08043614029884338, -1.2666772603988647, -0.34627029299736023, -1.320693850517273, -0.5232338309288025, 1.5453108549118042, 1.9148446321487427], [-0.4472033679485321, -1.2634179592132568, 1.2871088981628418, 1.7264631986618042, -0.38255932927131653, -2.9706037044525146, -2.2568061351776123, -1.4311295747756958, 0.8073291182518005, 0.16957847774028778, -0.5410547256469727, 0.4109114706516266, 0.2725841999053955, 0.5147755742073059, -0.20980632305145264, 2.1574933528900146, -0.357314795255661, 0.48536500334739685, 0.39824944734573364, -1.7083559036254883, -0.1668015569448471, -0.7349204421043396, 0.7042739391326904, 0.31315934658050537, -1.565071702003479, -0.20505931973457336, -1.3888647556304932, 0.6132387518882751, 1.6884185075759888, -0.24612586200237274, 1.8152488470077515, -0.1922536939382553, 0.19553625583648682, 0.24408265948295593, -1.125921607017517, 0.6657213568687439, 0.9333736300468445, 0.6977628469467163, -0.15743675827980042, -0.023628663271665573, 0.6604180335998535, 0.17883670330047607, -0.8645806312561035, -0.8333414793014526, 0.491338849067688, -3.369431495666504, -0.06277268379926682, 2.1230642795562744, -1.0126216411590576, -0.6451424956321716, 1.4727379083633423, 0.1792769879102707, 0.8118979334831238, -0.690123975276947, -0.6706328392028809, -1.8804899454116821, -0.7908068895339966, -2.049771547317505, -1.3496778011322021, 0.6228324174880981, 0.42340195178985596, -0.7945488095283508, -0.9730930924415588, 0.17403544485569], [-0.41156479716300964, -0.055909134447574615, -0.18854613602161407, 0.1317044049501419, 0.28466635942459106, -0.8201015591621399, -0.3006994128227234, -1.122384786605835, -0.9303906559944153, 0.36154016852378845, 0.02055496908724308, -0.45810577273368835, -0.3767581284046173, -0.8011916875839233, 1.5600676536560059, 1.027010440826416, -1.991861343383789, -0.7450686097145081, 0.35679855942726135, 1.6408329010009766, -0.8560329079627991, 1.6657328605651855, -2.0861711502075195, -1.2308573722839355, -0.9506591558456421, 0.40596243739128113, -1.0833503007888794, -0.38999342918395996, -1.4843275547027588, -0.6633798480033875, -1.1240015029907227, 1.4459558725357056, -0.9347304105758667, -0.46082186698913574, -1.802863359451294, 0.6036329865455627, -1.400280475616455, 0.1866733729839325, -0.051442768424749374, 0.18684172630310059, 0.3231322169303894, -0.7777267098426819, 1.1440521478652954, -1.360521912574768, -0.5280677676200867, 0.24448831379413605, -1.5653866529464722, -0.9930906295776367, 0.044629376381635666, 0.5004063248634338, 0.7681077718734741, -0.6361980438232422, 0.9290980100631714, -1.1520472764968872, 0.33348220586776733, -1.598200798034668, 0.2904896140098572, -1.0216227769851685, -1.0641419887542725, -1.1555687189102173, 0.643300473690033, 1.1037077903747559, 0.09433625638484955, -1.6310361623764038], [-0.9311633706092834, -0.5073705911636353, 1.2934468984603882, 0.12658224999904633, 0.2631799578666687, -0.042737796902656555, 0.012322709895670414, 1.2099839448928833, 0.3499082922935486, 0.1246974840760231, -0.8451552391052246, 0.40047821402549744, 0.30248743295669556, 1.2622846364974976, -1.776219129562378, -1.0566627979278564, 1.3144702911376953, -1.3120290040969849, 0.6988497376441956, 0.3995663523674011, -0.8999145030975342, 0.43813347816467285, 0.8357095718383789, -0.7360038161277771, -0.12105685472488403, 0.8533570766448975, -0.3657221496105194, 1.3802695274353027, -1.9826990365982056, -0.4824235439300537, 1.5958176851272583, -1.6591343879699707, 0.016700757667422295, 1.17560875415802, -0.1978607475757599, -1.0059627294540405, 0.9133030772209167, -0.6934700608253479, 2.694734573364258, -1.1331413984298706, 0.5144860148429871, 0.9450103044509888, -0.23311854898929596, -2.3192014694213867, -0.10851337760686874, -0.4205474555492401, 1.180922269821167, -1.8186144828796387, 0.9872264266014099, 1.0843396186828613, 0.967551052570343, -0.6970430612564087, 0.6046861410140991, 0.2611229419708252, 1.4814488887786865, -2.2323098182678223, 0.6498394012451172, 0.5209451913833618, -0.642616868019104, -0.5925683379173279, -0.2872453033924103, 0.9521682262420654, -0.5772212743759155, 0.5186671018600464], [0.5025536417961121, 1.2383074760437012, 1.8826481103897095, -0.6482833027839661, 0.6615083813667297, -0.1342875212430954, 0.17349228262901306, 0.025623304769396782, -0.6599732637405396, -0.3613106906414032, 2.107076644897461, 3.194779872894287, -0.5344463586807251, 0.1387028694152832, 0.18801358342170715, 1.9275635480880737, -0.7676718235015869, -0.5776705741882324, 1.3098191022872925, -1.230937123298645, 0.12407775968313217, -0.6411901116371155, -0.8664678335189819, 1.2928972244262695, -0.32280659675598145, 1.078394889831543, 0.5700013041496277, 0.08474840968847275, 1.6083314418792725, -0.2831408977508545, -0.23770344257354736, 0.22056356072425842, 1.3171013593673706, -0.8239664435386658, 1.8781503438949585, -1.7219762802124023, 0.5995028614997864, 1.9953514337539673, 0.5283843874931335, 0.5273172855377197, 1.5689128637313843, 0.7218150496482849, -0.7017295956611633, -0.17957019805908203, -0.64512038230896, 0.8781367540359497, 0.04265601560473442, -0.7730069756507874, -1.7750240564346313, 0.12110970169305801, 0.5798172354698181, 1.0703284740447998, 0.1328284740447998, -2.1070191860198975, 0.7718440294265747, -2.416985511779785, -0.27465707063674927, 0.9367176294326782, -0.9597583413124084, 1.427518606185913, 1.3074824810028076, 0.06890352070331573, 0.7258217334747314, -0.16098052263259888], [0.05202341824769974, -1.2090805768966675, 0.6834284067153931, -0.15721067786216736, 0.2737330496311188, -1.5182008743286133, -1.425663709640503, -1.3533159494400024, 0.3509960174560547, 0.1508321464061737, -0.16430002450942993, -0.40787824988365173, 0.25095486640930176, -1.4082001447677612, 0.6769928932189941, 1.3943783044815063, -0.5139027237892151, 1.8416775465011597, 0.6856932044029236, 2.1067047119140625, 0.42436760663986206, -1.5097694396972656, 0.26726749539375305, 1.1509206295013428, -1.1491416692733765, 1.0565905570983887, -0.7439069747924805, -0.09090210497379303, -0.6956884860992432, -1.2710119485855103, 0.04883042722940445, -1.2506909370422363, 1.23871910572052, -1.5255322456359863, -0.531499445438385, -0.18581783771514893, -3.434389114379883, 0.8676246404647827, -0.6565849781036377, 1.108140230178833, -0.5414190292358398, -0.410451740026474, -2.002335786819458, 0.5107904076576233, 1.1426219940185547, -1.2162015438079834, 0.17114080488681793, -0.3066474199295044, -1.3912127017974854, 0.9969127178192139, 0.8342908620834351, 0.037920136004686356, -0.0901542603969574, 0.20791910588741302, -1.996404767036438, 0.31095215678215027, 0.6304153203964233, -1.4417954683303833, -0.6919538378715515, -0.5269525051116943, -0.012420745566487312, -0.8611262440681458, -0.4833753705024719, 0.2832866609096527], [-0.9945512413978577, 0.9781371355056763, 0.5729690790176392, -0.9184779524803162, -0.3379196226596832, -0.6139926910400391, 0.20384086668491364, -0.7796080708503723, 0.6274561285972595, 1.5832089185714722, -1.4101067781448364, -0.5122820734977722, -0.8477446436882019, -0.692493200302124, 0.9814275503158569, -1.725745439529419, -0.26097986102104187, -1.9003790616989136, -0.19438080489635468, 0.21542924642562866, -0.3860965073108673, 1.2568491697311401, -0.9259352087974548, -0.002841540612280369, 0.2923426330089569, 0.11975115537643433, 1.7141438722610474, -1.183390736579895, -1.4447860717773438, 1.4002670049667358, -1.0348999500274658, -0.8256513476371765, 1.2595493793487549, -0.13285645842552185, -1.2067711353302002, -1.0088841915130615, -0.3499681353569031, 1.9825695753097534, -1.1189851760864258, -0.8812812566757202, 0.3270587921142578, -1.0132410526275635, -0.9645865559577942, 0.8566363453865051, -1.8315632343292236, 0.8329766988754272, 0.2839270532131195, 0.8486168384552002, -0.3573329746723175, 0.5625096559524536, -0.8220701217651367, 0.20902663469314575, 1.4596126079559326, -0.3654007911682129, -1.0167438983917236, -0.03407474234700203, 0.4296022653579712, 2.448505401611328, -0.9584850668907166, -0.67659592628479, 0.5601217150688171, 0.713912308216095, 0.3782802224159241, 0.2526925504207611], [-0.1755426824092865, 1.1650923490524292, -0.3915312886238098, 0.8615825176239014, -1.107088327407837, -0.025671962648630142, -2.431222915649414, 0.4140068590641022, -1.2717307806015015, 1.6633923053741455, 0.004650664981454611, 0.5128868818283081, 1.7331304550170898, 2.5739011764526367, -0.5821630954742432, 1.9837732315063477, -0.642126202583313, 1.4602638483047485, 0.5719668865203857, 2.1803245544433594, -0.09632661938667297, -0.1546192467212677, 0.3798389136791229, 1.0969494581222534, 2.295915126800537, -0.3932796120643616, 1.173477053642273, -0.46019163727760315, 0.11537887901067734, 0.28424072265625, 0.935316264629364, 2.226677894592285, -0.7499371767044067, 0.6773213148117065, 0.742838978767395, -0.8842431306838989, 0.2972935736179352, 0.6950381398200989, 0.40768513083457947, -0.37277278304100037, -0.7589814066886902, -1.9971402883529663, -0.9754641652107239, -1.2123849391937256, -0.5058721303939819, 1.3346003293991089, -0.392435759305954, 2.017580986022949, 1.3081066608428955, -1.3456281423568726, 0.7928341031074524, 0.45267215371131897, -2.3032212257385254, -1.2444770336151123, -0.29902946949005127, -1.839782953262329, -0.7348842620849609, 0.5766478180885315, 1.1891354322433472, 0.5420868992805481, -0.17159508168697357, 0.1248757541179657, 0.40904614329338074, 1.5752164125442505], [-0.0688786506652832, 0.6444536447525024, -0.3839206397533417, -0.7932637929916382, -0.06473752856254578, 1.0539307594299316, -1.9081194400787354, 0.5804975032806396, -0.06905309110879898, 0.09957277774810791, 2.8375446796417236, 0.10802971571683884, 0.602626383304596, -1.1906859874725342, 0.9544643759727478, -0.8155930042266846, -0.32541993260383606, -0.4290004074573517, -0.251010000705719, -0.5858875513076782, -0.38355550169944763, 0.16809453070163727, -1.4454586505889893, 1.2464488744735718, -0.9315447807312012, 0.7423398494720459, 0.08715204149484634, -0.0024949023500084877, -1.1545937061309814, -0.3517819941043854, 0.8302921652793884, 0.7081984281539917, -0.22371456027030945, 0.09850398451089859, 0.31367433071136475, -0.4540126323699951, -0.058888401836156845, -1.6329371929168701, -0.3017004728317261, -0.5691397786140442, 1.4851406812667847, 1.0976380109786987, 0.18388180434703827, -0.34951871633529663, 0.7748126983642578, -1.5560212135314941, -0.5645757913589478, 0.5257843136787415, 1.45287024974823, 0.6016491055488586, -0.36862701177597046, 0.4288780391216278, 0.1085047721862793, 1.060075283050537, -0.5670650005340576, 1.6528732776641846, 0.63468337059021, 1.0625005960464478, -0.7397864460945129, 0.791222095489502, 0.8783713579177856, -0.6523751020431519, -0.9376407265663147, -1.4210312366485596], [0.7040253281593323, 0.5462492108345032, 0.7223049402236938, 1.7997905015945435, -0.1387133002281189, 0.6272525787353516, 0.35913747549057007, 0.13126240670681, -0.06321690231561661, 0.2593890428543091, -0.05944928899407387, 0.8607199788093567, -1.2321386337280273, 0.9581258296966553, -0.9067058563232422, -0.7122547030448914, -0.11385234445333481, -1.2496516704559326, 