{"weights": {"hparams": {"n_kc": 7, "d_model": 16, "n_heads": 4, "n_layers": 2}, "state": {"kc_emb.weight": [[0.0, 0.0, 0.0, 0.0, 0.0, 0.0, 0.0, 0.0, 0.0, 0.0, 0.0, 0.0, 0.0, 0.0, 0.0, 0.0], [1.6423169374465942, -0.1595974713563919, -0.4973975419998169, 0.439589262008667, -0.7581311464309692, 1.078317642211914, 0.8008005619049072, 1.680620551109314, 1.27912437915802, 1.2964228391647339, 0.610466480255127, 1.334737777709961, -0.2316243201494217, 0.041759490966796875, -0.2515752911567688, 0.859858512878418], [-1.3846737146377563, -0.8712361454963684, -0.223365917801857, 1.7173614501953125, 0.3188803195953369, -0.42451897263526917, 0.3057209253311157, -0.7745925188064575, -1.5575724840164185, 0.9956361055374146, -0.8797858357429504, -0.6011420488357544, -1.2741512060165405, 2.1227850914001465, -1.234653115272522, -0.4879138767719269], [-0.9138230085372925, -0.6581372618675232, 0.07802387326955795, 0.5258087515830994, -0.48799172043800354, 1.1913690567016602, -0.8140076398849487, -0.7359927892684937, -1.4032478332519531, 0.03600366786122322, -0.06347727030515671, 0.6756148934364319, -0.0978068932890892, 1.8445940017700195, -1.184537410736084, 1.3835493326187134], [1.4451338052749634, 0.8564125299453735, 2.218075752258301, 0.5231655240058899, 0.34664666652679443, -0.19733144342899323, -1.0545889139175415, 1.2779955863952637, -0.1721901297569275, 0.5237884521484375, 0.056621819734573364, 0.4262961447238922, 0.575005054473877, -0.6417241096496582, -2.2063984870910645, -0.7508030533790588], [0.01086814422160387, -0.33874234557151794, -1.3406795263290405, -0.5853705406188965, 0.5361881256103516, 0.5246226191520691, 1.1412016153335571, 0.05164359509944916, 0.7439519762992859, -0.4815843999385834, -1.0494661331176758, 0.603898823261261, -1.7222950458526611, -0.827768862247467, 1.334702968597412, 0.48353928327560425], [-2.5095443725585938, 0.4880010485649109, 0.7845868468284607, 0.02864718623459339, 0.640755295753479, 0.5832474231719971, 1.0669267177581787, -0.4501533806324005, -0.18526747822761536, 0.7527588605880737, 0.4047577977180481, 0.17846599221229553, 0.2649095058441162, 1.2731683254241943, -0.0013108636485412717, -0.30360376834869385], [-1.457029104232788, -0.10233523696660995, -0.5991530418395996, 0.4770564138889313, 0.7261772155761719, 0.09115186333656311, -0.3890652060508728, 0.5279164910316467, -0.012685478664934635, 0.24083632230758667, 0.13253536820411682, 0.7642406225204468, 1.095009684562683, 0.3398909568786621, 0.7199674844741821, 0.41140761971473694]], "resp_emb.weight": [[1.931160569190979, 1.0118638277053833, -1.4364064931869507, -1.1298598051071167, -0.1360345333814621, 1.6354095935821533, 0.6547407507896423, 0.5760045647621155, 1.1415079832077026, 0.018564576283097267, -1.8058050870895386, 0.9254348874092102, -0.3753443658351898, 1.0330873727798462, -0.6866509318351746, 0.6368136405944824], [-0.9726738929748535, 0.9584577679634094, 1.6192004680633545, 1.450609803199768, 0.2694815397262573, -0.21037597954273224, -0.7328027486801147, 0.10429783165454865, 0.3487516939640045, 0.9675941467285156, -0.46568843722343445, 1.6047972440719604, -2.4801201820373535, -0.4175437390804291, -1.1954537630081177, 0.8123369216918945]], "encoder.layers.0.self_attn.in_proj_weight": [[-0.1210515946149826, 0.17061494290828705, -0.24384662508964539, 0.19351519644260406, -0.11878642439842224, 0.004686302505433559, -0.06050725653767586, 0.037121694535017014, -0.09252899140119553, 0.22263626754283905, -0.007959973067045212, 0.2390088140964508, 0.29439207911491394, -0.1491711586713791, -0.2233656495809555, 0.24565382301807404], [0.23993179202079773, -0.2337876707315445, -0.023669203743338585, -0.3019382953643799, -0.2506437599658966, 0.059137582778930664, 0.08145613223314285, 0.06490568071603775, -0.0833330824971199, 0.2824805974960327, 0.04377787932753563, -0.18067583441734314, -0.017334366217255592, 0.07352915406227112, 0.10722417384386063, -0.21649841964244843], [0.11475541442632675, -0.15642492473125458, -0.25442248582839966, -0.1672411859035492, 0.2952888607978821, 0.2617456912994385, 0.2741850018501282, 0.1797347515821457, 0.2313082367181778, -0.04098294675350189, -0.16847220063209534, 0.15298795700073242, -0.158660426735878, -0.20663462579250336, -0.09777568280696869, 0.06425601243972778], [0.15762363374233246, -0.11892548948526382, -0.1802109032869339, 0.0413023978471756, -0.1804763227701187, -0.19934603571891785, 0.1596001535654068, -0.05143457278609276, 0.27978837490081787, 0.29785263538360596, 0.09158199280500412, 0.10537634789943695, 0.07050970941781998, 0.00479514617472887, -0.02226967364549637, 0.00420825881883502], [0.11433751881122589, 0.2846830189228058, -0.07935094088315964, -0.12942975759506226, -0.0741475448012352, -0.1479259878396988, 0.052063509821891785, 0.2285522222518921, 0.23943071067333221, 0.14057791233062744, -0.2253320962190628, -0.1643316149711609, -0.0672726109623909, -0.05643751472234726, 0.025183124467730522, -0.2810702323913574], [0.09529884904623032, -0.23358093202114105, -0.1937377005815506, -0.25455787777900696, 0.2667860686779022, -0.2899399399757385, 0.23097671568393707, -0.010293032042682171, -0.03560908883810043, 0.19151291251182556, -0.02830006182193756, 0.19202595949172974, 0.22137722373008728, -0.2658339738845825, 0.11781555414199829, 0.05780152976512909], [0.06583362817764282, 0.04470057040452957, 0.08375141024589539, -0.14729604125022888, -0.03917381167411804, 0.2909136414527893, 0.20571106672286987, -0.011502942070364952, -0.2879776060581207, 0.013419460505247116, -0.20850472152233124, 0.2489880472421646, -0.18588179349899292, -0.022107139229774475, -0.06795578449964523, 0.054487016052007675], [0.2881297171115875, 0.029093576595187187, 0.1773320436477661, 0.23766838014125824, 0.2471875697374344, -0.10574185848236084, -0.06848058849573135, 0.14756271243095398, -0.08354832231998444, 0.14337597787380219, -0.06689180433750153, -0.20767152309417725, 0.12463106215000153, 0.046943873167037964, 0.1365126222372055, 0.3041917383670807], [0.20904342830181122, 0.2902587652206421, 0.016387952491641045, -0.26338523626327515, -0.2147979736328125, -0.19019484519958496, -0.26982611417770386, -0.1534750908613205, -0.2818651795387268, -0.28249210119247437, -0.18296298384666443, -0.30184876918792725, -0.18794092535972595, 0.11675146222114563, 0.255375474691391, -0.09107901901006699], [-0.08906307816505432, 0.16348914802074432, -0.15106336772441864, -0.14477482438087463, 0.18865036964416504, -0.2667805552482605, 0.03743884712457657, 0.27047938108444214, 0.05250680446624756, 0.08326544612646103, -0.17832015454769135, -0.004224319010972977, 0.01683548092842102, 0.07514859735965729, 0.11896742880344391, 0.2660537362098694], [-0.23371177911758423, 0.009178022854030132, -0.15298175811767578, -0.24221287667751312, -0.02451867237687111, -0.2695164084434509, 0.21368713676929474, 0.03546089679002762, -0.16502153873443604, 0.16000652313232422, -0.28978320956230164, -0.11843259632587433, -0.059650812298059464, -0.26018184423446655, -0.19470025599002838, -0.04997529461979866], [0.2323232740163803, 0.2956700325012207, 0.1948147863149643, -0.18283113837242126, -0.2003135085105896, 0.2672066390514374, 0.10830341279506683, 0.008134663105010986, 0.041436828672885895, -0.24608087539672852, -0.10223112255334854, 0.2947404086589813, -0.07551538944244385, -0.01535955723375082, -0.2542359530925751, -0.17128275334835052], [-0.006252199411392212, -0.19019046425819397, -0.03797003626823425, 0.12460529804229736, -0.29950442910194397, 0.09094101190567017, -0.20245282351970673, -0.14943450689315796, 0.11754786223173141, 0.24345487356185913, -0.08368334174156189, -0.125710591673851, -0.27686455845832825, -0.1578872799873352, -0.26810798048973083, -0.07007700204849243], [0.062478963285684586, -0.2868584394454956, 0.26733532547950745, 0.1920984387397766, -0.2997397482395172, -0.14624464511871338, 0.09986422955989838, -0.06290889531373978, -0.0333670973777771, -0.13824787735939026, 0.24593476951122284, -0.17115755379199982, 0.25391313433647156, 0.019755829125642776, 0.06155010312795639, 0.23886561393737793], [-0.050448957830667496, -0.174325093626976, -0.049520790576934814, 0.2483333796262741, -0.22718630731105804, 0.06949828565120697, -0.30091720819473267, 0.1605340838432312, 0.11312593519687653, 0.01297992467880249, 0.1314130276441574, 0.00034437980502843857, 0.1694290190935135, -0.24238328635692596, -0.04496421292424202, 0.13582868874073029], [0.30490538477897644, 0.15596863627433777, -0.22265078127384186, 0.23548686504364014, -0.06827899813652039, -0.0653751865029335, -0.278295636177063, -0.048198096454143524, 0.21657371520996094, 0.04269608482718468, -0.1783393770456314, 0.09424782544374466, -0.09817689657211304, 0.27954620122909546, -0.2657557427883148, -0.0967167392373085], [-0.2956453263759613, -0.1205853745341301, 0.09652449190616608, 0.29473936557769775, 0.051422856748104095, 0.30017226934432983, 0.05990598723292351, 0.17683357000350952, 0.24545793235301971, 0.2559482157230377, -0.1713797003030777, 0.2815045416355133, 0.18547704815864563, -0.14316625893115997, -0.1461130976676941, -0.25681254267692566], [0.07689476758241653, -0.24817901849746704, 0.12934061884880066, 0.09669290482997894, -0.26601526141166687, 0.0834360122680664, -0.02490229159593582, 0.13987129926681519, 0.17568647861480713, -0.3043935298919678, 0.28080305457115173, 0.25678062438964844, 0.12182649224996567, -0.2798422873020172, -0.10937608033418655, -0.08873548358678818], [-0.07868923246860504, 0.17266549170017242, 0.11132030189037323, 0.24255433678627014, -0.11467383801937103, 0.10304383188486099, 0.10893957316875458, -0.2549278438091278, -0.2970066964626312, -0.1588766872882843, 0.2095990628004074, -0.2882619798183441, -0.2665148377418518, 0.17152570188045502, 0.16519634425640106, 0.25180530548095703], [-0.23115183413028717, -0.2240976244211197, 0.15706944465637207, 0.266268789768219, 0.18320311605930328, 0.04796471446752548, 0.10091123729944229, 0.29060953855514526, -0.1975526660680771, -0.1390121579170227, 0.21416714787483215, -0.20950475335121155, -0.16883493959903717, 0.22351321578025818, 0.09660851210355759, 0.09891960024833679], [-0.1297740936279297, -0.004225523676723242, 0.28023168444633484, -0.18377912044525146, 0.00240730051882565, 0.14562202990055084, -0.2113775759935379, 0.29736098647117615, -0.15297387540340424, -0.07352634519338608, -0.08284489065408707, -0.19952897727489471, -0.3004496991634369, 0.17264358699321747, 0.08134575188159943, -0.28677427768707275], [-0.1970696598291397, 0.3026246726512909, 0.11703510582447052, 0.12285558134317398, -0.18319062888622284, -0.1342308521270752, -0.0462200753390789, -0.05599531531333923, -0.20981360971927643, 0.025225134566426277, 0.030431237071752548, -0.03876961022615433, 0.042447153478860855, -0.12135710567235947, 0.07968553900718689, 0.11547520011663437], [-0.16128022968769073, -0.30360785126686096, 0.1602684110403061, 0.07303665578365326, -0.15572263300418854, 0.2950722575187683, -0.13847211003303528, 0.2069043666124344, 0.15533700585365295, -0.2567090094089508, 0.19747215509414673, -0.28152996301651, -0.16963165998458862, -0.05104580894112587, -0.20638376474380493, 0.2991163432598114], [-0.061414726078510284, 0.12161402404308319, -0.2733973264694214, 0.17626112699508667, -0.09515770524740219, -0.23290705680847168, 0.044771451503038406, 0.1483355313539505, 0.2649726867675781, -0.1870162934064865, -0.15067555010318756, 0.058868248015642166, 0.08305644989013672, 0.1177201122045517, 0.16805803775787354, -0.06942886114120483], [0.17010778188705444, 0.22574852406978607, -0.07998243719339371, 0.21783840656280518, 0.14959631860256195, 0.27007240056991577, -0.1739976406097412, -0.15119750797748566, -0.08853035420179367, 0.015531692653894424, 0.18377266824245453, -0.17479027807712555, 0.15329335629940033, -0.10973144322633743, 0.1849699467420578, -0.014536879025399685], [-0.26824575662612915, -0.16847771406173706, -0.2216029018163681, 0.15185688436031342, -0.20531262457370758, -0.025510895997285843, 0.06606145948171616, -0.16791090369224548, 0.08832555264234543, -0.2989673912525177, -0.21907883882522583, -0.2774425148963928, -0.09261440485715866, -0.11154284328222275, 0.0438438355922699, -0.05661826580762863], [0.14393265545368195, 0.2807101309299469, 0.10985689610242844, -0.12062742561101913, -0.28670838475227356, 0.11090124398469925, -0.1517023891210556, 0.15581092238426208, 0.20468087494373322, 0.1181023046374321, 0.2872978150844574, 0.2908145785331726, 0.06483183801174164, -0.2230985313653946, 0.27355942130088806, -0.14528407156467438], [-0.14462816715240479, 0.2562100887298584, 0.23723624646663666, 0.09251457452774048, 0.019192922860383987, -0.25755342841148376, -0.031783390790224075, 0.29367128014564514, 0.07797302305698395, 0.02621505782008171, -0.06357987970113754, -0.10679233819246292, 0.18249395489692688, 0.01888204924762249, 0.19919686019420624, -0.05419453978538513], [0.13377557694911957, 0.12638446688652039, 0.048825718462467194, 0.19239917397499084, 0.19187034666538239, 0.28381115198135376, 0.2353886067867279, -0.07829079777002335, -0.25922346115112305, 0.05597618967294693, -0.002672474831342697, -0.07986114174127579, -0.051272328943014145, 0.014400805346667767, 0.22340261936187744, 0.09545087069272995], [-0.10872498899698257, -0.1259114146232605, -0.07582129538059235, -0.11834189295768738, 0.2753296494483948, 0.16217009723186493, 0.27647870779037476, 0.0009778415551409125, 0.061748847365379333, 0.10617457330226898, -0.2898215353488922, 0.027341382578015327, -0.020480796694755554, -0.1716645509004593, -0.23758438229560852, 0.2710588276386261], [0.24894961714744568, 0.1419077217578888, 0.29217812418937683, -0.12425277382135391, -0.05288531258702278, 0.1159278005361557, -0.05059010162949562, -0.060084398835897446, -0.253081738948822, 0.0822603777050972, -0.18503667414188385, 0.011134836822748184, 0.2985241115093231, -0.09424880892038345, -0.09650737047195435, 0.18472608923912048], [-0.11257036030292511, -0.026294482871890068, 0.2858978509902954, -0.12552832067012787, -0.21904876828193665, -0.171355202794075, -0.08488879352807999, -0.1452849805355072, -0.1588897556066513, 0.12368223816156387, 0.05203259363770485, -0.09799844026565552, -0.23787955939769745, -0.0964057520031929, -0.129222571849823, -0.09963879734277725], [-0.27621763944625854, 0.06596141308546066, -0.2249622344970703, -0.238457590341568, -0.25016430020332336, 0.12779712677001953, -0.18433228135108948, -0.1263786256313324, 0.24000121653079987, 0.1625739485025406, 0.1755644828081131, -0.29072582721710205, -0.21956607699394226, -0.11558867990970612, 0.25293970108032227, 0.03132297471165657], [-0.22899580001831055, 0.0019172847969457507, -0.23780590295791626, -0.06708518415689468, -0.08419357985258102, 0.2650536596775055, 0.09483712166547775, -0.05339003726840019, 0.0517236553132534, -0.08838541060686111, 0.12030067294836044, 0.12111619859933853, 0.08222512155771255, -0.1193443313241005, 0.2612230181694031, -0.044204093515872955], [-0.11920340359210968, 0.19176873564720154, 0.24955913424491882, 0.3047042191028595, 0.09071022272109985, -0.10437700897455215, 0.15550954639911652, 0.262693852186203, -0.3003179132938385, -0.03793247416615486, -0.20880843698978424, 0.05706079304218292, 0.12663397192955017, -0.06325437128543854, -0.02561466582119465, 0.13781772553920746], [-0.0514606349170208, -0.25712892413139343, 0.24499061703681946, -0.1541079729795456, -0.033637162297964096, 0.028881438076496124, -0.018400831148028374, -0.2880250811576843, 0.1404782235622406, -0.13907943665981293, -0.1588064283132553, 0.07315261662006378, -0.15978696942329407, -0.14150691032409668, -0.10316943377256393, -0.1150273010134697], [-0.12787483632564545, -0.08257409930229187, 0.07957038283348083, -0.24777138233184814, -0.18532848358154297, 0.004467702936381102, 0.042580746114254, 0.16910435259342194, -0.215078666806221, 0.09773370623588562, 0.17403312027454376, 0.17001302540302277, -0.2851884365081787, -0.11684194952249527, -0.26318714022636414, -0.19375814497470856], [0.1705404818058014, -0.045719437301158905, 0.13004076480865479, -0.1797332614660263, 0.04652802646160126, -0.18519917130470276, 0.15306004881858826, -0.13391943275928497, -0.07677899301052094, -0.2656567692756653, 0.001011494779959321, 0.290717750787735, 0.14861610531806946, -0.16336289048194885, 0.004117811564356089, -0.03357284888625145], [-0.24650263786315918, 0.2400778979063034, 0.00493592768907547, 0.06448191404342651, -0.12364687025547028, -0.14327038824558258, 0.05048691853880882, 0.11320039629936218, 0.06867695599794388, -0.14756493270397186, 0.2972755432128906, -0.045071959495544434, -0.187513068318367, -0.14320716261863708, 0.3014160990715027, 1.4746097804163583e-05], [-0.0415630079805851, -0.1274230033159256, -0.08026531338691711, -0.25787878036499023, -0.24332113564014435, 0.17920757830142975, 0.2619268298149109, 0.2921936511993408, -0.22104878723621368, 0.16560488939285278, -0.18951904773712158, 0.18265852332115173, 0.22092998027801514, 0.236948624253273, 0.22046978771686554, 0.19154192507266998], [0.005959504283964634, 0.14068719744682312, -0.1095445305109024, 0.13332414627075195, -0.09840885549783707, -0.005141278263181448, -0.26649802923202515, -0.08005992323160172, -0.16101504862308502, -0.10328298807144165, -0.19552640616893768, -0.2753974199295044, 0.019937783479690552, 0.19870848953723907, 0.2788589298725128, 0.17867624759674072], [-0.15870776772499084, -0.30282115936279297, 0.11614067107439041, 0.1715604066848755, -0.2628645598888397, 0.10979411751031876, 0.25887349247932434, 0.01854770816862583, -0.18446460366249084, 0.25103482604026794, 0.13074639439582825, 0.2027568817138672, -0.2070693075656891, 0.17818370461463928, -0.20914773643016815, 0.3029695451259613], [-0.12973102927207947, 0.18449774384498596, 0.06131121143698692, 0.08114255964756012, -0.04695519059896469, 0.1257615089416504, -0.12760981917381287, -0.2886047959327698, -0.11763769388198853, 0.23990872502326965, -0.08060954511165619, 0.09623996913433075, -0.11320513486862183, 0.22968536615371704, 0.18324947357177734, 0.10808791220188141], [-0.15651066601276398, -0.25019389390945435, 0.011527725495398045, -0.17962652444839478, 0.2517443895339966, -0.29423755407333374, 0.13682492077350616, 0.30524134635925293, 0.15334676206111908, 0.10440299659967422, -0.2945960462093353, 0.29451844096183777, -0.05237241089344025, -0.2861029803752899, 0.30225566029548645, -0.12459657341241837], [-0.021661944687366486, 0.28024598956108093, -0.21224850416183472, -0.2166236788034439, 0.049791187047958374, -0.040984224528074265, 0.07052748650312424, -0.2568000257015228, 0.009156998246908188, -0.13617929816246033, -0.1505238562822342, -0.28035539388656616, 0.16234555840492249, 0.058982640504837036, -0.25886309146881104, 0.2429746687412262], [0.09235214442014694, 0.05681689828634262, -0.17977307736873627, 0.04617426544427872, 0.29502272605895996, 0.2100083827972412, -0.23847933113574982, 0.2794932723045349, 0.023732421919703484, 0.14726489782333374, 0.23780758678913116, 0.2610265612602234, -0.238682821393013, 0.26811620593070984, -0.20795400440692902, 0.02295357920229435], [-0.21395179629325867, -0.06712620705366135, -0.013913929462432861, -0.036630693823099136, -0.04837004840373993, 0.02414907142519951, 0.3020278215408325, 0.17789773643016815, 0.17130199074745178, 0.12255025655031204, 0.2370436042547226, -0.014130192808806896, 0.024345552548766136, 0.06301222741603851, -0.2670343518257141, -0.24665042757987976], [0.03753885626792908, -0.11979544162750244, -0.0056184460408985615, -0.07025712728500366, 0.04766179993748665, 0.199209526181221, -0.10154418647289276, 0.24521249532699585, 0.24175293743610382, -0.23499736189842224, -0.23644503951072693, -0.24772758781909943, -0.16779625415802002, -0.11919103562831879, -0.023046473041176796, -0.07446210086345673]], "encoder.layers.0.self_attn.in_proj_bias": [0.0, 0.0, 0.0, 0.0, 0.0, 0.0, 0.0, 0.0, 0.0, 0.0, 0.0, 0.0, 0.0, 0.0, 0.0, 0.0, 0.0, 0.0, 0.0, 0.0, 0.0, 0.0, 0.0, 0.0, 0.0, 0.0, 0.0, 0.0, 0.0, 0.0, 0.0, 0.0, 0.0, 0.0, 0.0, 0.0, 0.0, 0.0, 0.0, 0.0, 0.0, 0.0, 0.0, 0.0, 0.0, 0.0, 0.0, 0.0], "encoder.layers.0.self_attn.out_proj.weight": [[0.22723788022994995, 0.05493760108947754, 0.032160013914108276, -0.22031369805335999, 0.10494711995124817, -0.037505149841308594, -0.11453106999397278, 0.21473664045333862, 0.055737197399139404, -0.13831910490989685, -0.12653473019599915, -0.011938929557800293, 0.139590322971344, -0.0638834536075592, -0.14264371991157532, -0.08561071753501892], [-0.18676871061325073, 0.08915811777114868, 0.1935100555419922, -0.23536008596420288, 0.05806267261505127, 0.1291479468345642, 0.04533234238624573, -0.0890311598777771, 0.13048553466796875, 0.13137829303741455, 0.09348180890083313, -0.04393035173416138, -0.06620031595230103, 0.026745229959487915, -0.044163525104522705, -0.07450026273727417], [0.15980172157287598, 0.21484988927841187, -0.024749338626861572, -0.055974215269088745, 0.0036480724811553955, -0.014927059412002563, 0.06010282039642334, 0.07005840539932251, -0.22706419229507446, -0.09225943684577942, 0.21053236722946167, 0.09738874435424805, -0.012434393167495728, -0.15072643756866455, -0.15295127034187317, -0.22394171357154846], [-0.08149060606956482, 0.08442604541778564, 0.1594054102897644, 0.11542433500289917, -0.220986008644104, -0.15034061670303345, -0.03945416212081909, 0.24183738231658936, 0.03616437315940857, -0.06474268436431885, 0.10342881083488464, -0.09522038698196411, -0.1618139147758484, 0.18247181177139282, -0.11367544531822205, -0.05011668801307678], [-0.2487010657787323, 0.16731765866279602, 0.18940865993499756, 0.09111204743385315, -0.17431855201721191, -0.24673497676849365, -0.20304474234580994, 0.18642506003379822, 0.12002643942832947, 0.21037611365318298, 0.13096746802330017, 0.06327304244041443, -0.002448171377182007, -0.19012650847434998, -0.21419304609298706, -0.23383715748786926], [0.10234048962593079, -0.12274199724197388, -0.05031314492225647, -0.143876314163208, -0.04555588960647583, -0.17595872282981873, -0.16335391998291016, 0.08292770385742188, -0.07429909706115723, 0.15433579683303833, -0.08020219206809998, -0.18339180946350098, -0.044109731912612915, -0.12118685245513916, -0.07648539543151855, -0.23799890279769897], [0.1398727297782898, -0.17405113577842712, 0.1256544291973114, 0.11344605684280396, 0.17860817909240723, -0.1917630136013031, 0.17979919910430908, -0.11818790435791016, 0.09276729822158813, 0.23477867245674133, -0.035257965326309204, -0.001933366060256958, -0.057557642459869385, -0.20874613523483276, 0.11997571587562561, -0.24817946553230286], [0.15519997477531433, 0.1870562732219696, 0.23642659187316895, -0.0589698851108551, -0.20541048049926758, 0.0562075674533844, 0.1381068229675293, -0.24882718920707703, -0.05674591660499573, -0.14986386895179749, -0.021865934133529663, -0.12305337190628052, -0.10219189524650574, -0.07936471700668335, -0.23757600784301758, 0.20512688159942627], [0.20958280563354492, -0.0392172634601593, -0.028470516204833984, -0.10202997922897339, -0.22576570510864258, -0.2432861030101776, 0.09291461110115051, -0.1372615396976471, -0.16071924567222595, -0.019505798816680908, -0.08325278759002686, -0.08088019490242004, 0.008032798767089844, -0.053028106689453125, -0.08607810735702515, -0.11970147490501404], [-0.203456848859787, 0.20962679386138916, -0.1000467836856842, 0.06624487042427063, -0.08674147725105286, 0.020315319299697876, 0.2330751121044159, 0.11518067121505737, -0.21664991974830627, 0.09922569990158081, 0.23731070756912231, 0.06577083468437195, 0.1676061749458313, 0.24647188186645508, -0.038307249546051025, 0.051888614892959595], [-0.17375877499580383, -0.05151927471160889, 0.18514594435691833, 0.1281614601612091, -0.15819725394248962, -0.20047125220298767, -0.17084091901779175, -0.24671941995620728, -0.19290974736213684, -0.06182435154914856, 0.16871929168701172, 0.04184556007385254, -0.1901513636112213, -0.2005559802055359, 0.124368816614151, -0.1859603226184845], [-0.030781865119934082, 0.11992651224136353, -0.11570301651954651, -0.02725997567176819, -0.02176111936569214, -0.059145838022232056, -0.12675803899765015, -0.22285959124565125, -0.20208925008773804, -0.13386541604995728, 0.2414594292640686, -0.12075367569923401, -0.16788199543952942, 0.060598552227020264, 0.06890258193016052, 0.1369774341583252], [0.19003009796142578, 0.1392185389995575, -0.24787524342536926, 0.022172152996063232, 0.15143826603889465, -0.023106366395950317, -0.14731979370117188, 0.23833495378494263, -0.09350696206092834, -0.14233613014221191, -0.225388765335083, 0.011167079210281372, 0.11078327894210815, 0.055340707302093506, 0.04943743348121643, -0.18959686160087585], [-0.2334718108177185, 0.004402339458465576, 0.2279585301876068, 0.14423033595085144, -0.14555856585502625, -0.032452136278152466, -0.1842958927154541, -0.12060585618019104, 0.045274585485458374, 0.13613462448120117, 0.2070923149585724, -0.22952651977539062, 0.16715380549430847, -0.1763230264186859, 0.09361681342124939, 0.21156132221221924], [0.003510594367980957, 0.22745224833488464, -0.21301287412643433, -0.09548979997634888, 0.1458132266998291, -0.054466962814331055, -0.051175057888031006, -0.1041979193687439, 0.17232653498649597, 0.12262579798698425, 0.0801125168800354, -0.14049091935157776, -0.20293739438056946, 0.027040153741836548, 0.07406970858573914, -0.11542797088623047], [-0.06994941830635071, 0.16884192824363708, 0.01991492509841919, 0.011279582977294922, -0.0615251362323761, -0.22639742493629456, -0.23506435751914978, -0.11950376629829407, -0.12708035111427307, 0.07788839936256409, -0.07277768850326538, -0.09780552983283997, 0.23835745453834534, 0.08708071708679199, 0.178225576877594, -0.12102818489074707]], "encoder.layers.0.self_attn.out_proj.bias": [0.0, 0.0, 0.0, 0.0, 0.0, 0.0, 0.0, 0.0, 0.0, 0.0, 0.0, 0.0, 0.0, 0.0, 0.0, 0.0], "encoder.layers.0.linear1.weight": [[-0.12631213665008545, -0.07942339777946472, -0.09043613076210022, 0.24525955319404602, -0.09265720844268799, -0.17900022864341736, 0.10392439365386963, -0.014440387487411499, 0.1913909912109375, 0.15620815753936768, 0.22968220710754395, -0.18308988213539124, 0.16071584820747375, 0.20980969071388245, -0.1234578788280487, 0.22979497909545898], [0.18741074204444885, 0.00273779034614563, 0.12053811550140381, -0.08740538358688354, -0.21804594993591309, 0.06319501996040344, 0.07453131675720215, -0.16338974237442017, 0.12124991416931152, -0.21355566382408142, 0.21515601873397827, 0.24209758639335632, 0.0680646002292633, -0.1568571925163269, 0.12166780233383179, 0.04260393977165222], [0.06797969341278076, 0.08216333389282227, 0.1903388798236847, -0.10745897889137268, -0.05623626708984375, 0.06817647814750671, 0.027240276336669922, 0.20159441232681274, -0.1313096284866333, -0.009104162454605103, 0.046713292598724365, -0.06639724969863892, 0.17042917013168335, 0.027345389127731323, -0.23105749487876892, -0.02708396315574646], [-0.11338922381401062, 0.024292796850204468, -0.029053986072540283, -0.24798354506492615, -0.045556336641311646, -0.023944824934005737, -0.07371962070465088, 0.22969511151313782, -0.05454978346824646, 0.1606042981147766, 0.06192943453788757, -0.21103328466415405, 0.058746516704559326, 0.20718389749526978, -0.16352516412734985, -0.1615937352180481], [0.24471226334571838, 0.20087748765945435, -0.13947349786758423, 0.15043625235557556, -0.031983017921447754, -0.24648234248161316, 0.018783360719680786, 0.0807735025882721, -0.07499021291732788, 0.08697086572647095, -0.21377521753311157, 0.17325398325920105, 0.2131335735321045, 0.13786667585372925, 0.042372822761535645, 0.08233723044395447], [-0.18088695406913757, -0.06246834993362427, -0.023866891860961914, -0.13912153244018555, -0.18465501070022583, 0.16815438866615295, 0.16966131329536438, -0.22704705595970154, 0.07955297827720642, 0.1017005443572998, 0.23749208450317383, 0.14463841915130615, 0.2298341691493988, -0.0818474292755127, 0.17509660124778748, 0.20335033535957336], [-0.2360820174217224, -0.20067667961120605, 0.05060136318206787, 0.13650944828987122, -0.12420326471328735, 0.027533620595932007, -0.0003629326820373535, 0.06327691674232483, -0.1343373954296112, 0.14100974798202515, 0.16625234484672546, -0.1734645664691925, 0.002421855926513672, 0.0006936490535736084, 0.08027893304824829, 0.2328961193561554], [0.07331585884094238, -0.05680549144744873, 0.22453323006629944, -0.0951332151889801, -0.07259294390678406, 0.017068833112716675, -0.19037720561027527, 0.02720433473587036, -0.1696188747882843, 0.025705158710479736, 0.02395188808441162, 0.034605175256729126, -0.2108238935470581, -0.23744606971740723, 0.11502933502197266, 0.21439898014068604], [-0.22184309363365173, 0.092598557472229, -0.18403038382530212, 0.01567283272743225, 0.23258942365646362, 0.18965479731559753, -0.18278494477272034, 0.1546429693698883, 0.13057929277420044, -0.0003834664821624756, 0.2421816885471344, -0.0992937982082367, -0.05817896127700806, -0.12635353207588196, 0.035974204540252686, 0.06619668006896973], [0.019920051097869873, -0.14065927267074585, -0.11254161596298218, 0.08503812551498413, -0.21920660138130188, -0.038933634757995605, -0.005537897348403931, -0.10129097104072571, 0.09097951650619507, 0.01611343026161194, 0.17551615834236145, -0.022202879190444946, -0.1577846109867096, 0.1766379475593567, 0.03491219878196716, -0.07159954309463501], [-0.16477569937705994, 0.05859723687171936, -0.23843812942504883, 0.06584444642066956, 0.12361118197441101, -0.21930012106895447, -0.16366809606552124, -0.17973145842552185, 0.21012663841247559, 0.21253016591072083, 0.01565021276473999, 0.23470145463943481, -0.08357599377632141, -0.2427055537700653, 0.08732372522354126, 0.08856713771820068], [0.24509558081626892, -7.236003875732422e-05, 0.191599041223526, 0.15324094891548157, 0.18094220757484436, -0.24808302521705627, 0.20586448907852173, -0.2131132185459137, 0.22412776947021484, -0.010360151529312134, -0.22155427932739258, 0.06952318549156189, -0.050886690616607666, -0.22454833984375, -0.0906345546245575, 0.025776296854019165], [0.19471165537834167, -0.07685741782188416, 0.1484919786453247, 0.03130713105201721, 0.008426964282989502, 0.047836244106292725, -0.16406717896461487, -0.20779955387115479, -0.07855290174484253, -0.23296350240707397, -0.11658763885498047, 0.011501461267471313, -0.16465231776237488, -0.10369899868965149, -0.04492160677909851, -0.0288008451461792], [-0.1380036473274231, 0.012012749910354614, -0.035090118646621704, 0.07149890065193176, 0.011291861534118652, -0.12484243512153625, -0.08607098460197449, -0.0028814375400543213, -0.15599632263183594, 0.019571244716644287, -0.01765143871307373, 0.09699463844299316, 0.05916643142700195, 0.18709588050842285, -0.008241355419158936, -0.1847262978553772], [0.11175224184989929, -0.16895946860313416, -0.03436309099197388, -0.08095067739486694, -0.09486111998558044, -0.09249597787857056, 0.22973012924194336, 0.14311420917510986, 0.0692843496799469, 0.23473915457725525, -0.2265554964542389, 0.04034188389778137, 0.1600441038608551, 0.16607248783111572, -0.19896343350410461, 0.08897238969802856], [-0.14242148399353027, -0.009768456220626831, -0.05216756463050842, -0.20874112844467163, -0.23847860097885132, -0.1644744873046875, 0.11344262957572937, 0.11435887217521667, -0.21744093298912048, -0.09388557076454163, 0.004083603620529175, -0.21614563465118408, 0.14086362719535828, 0.22643309831619263, 0.04421544075012207, -0.1857537031173706], [0.05829659104347229, 0.09075340628623962, 0.197960764169693, -0.13301748037338257, -0.2239774465560913, 0.10983765125274658, 0.01556408405303955, -0.08145660161972046, -0.10475558042526245, -0.12890395522117615, 0.20237424969673157, -0.04313477873802185, 0.1803017556667328, 0.22316241264343262, 0.031669020652770996, 0.053254395723342896], [-0.017026185989379883, 0.17170384526252747, -0.22527197003364563, 0.09942075610160828, -0.04073220491409302, 0.11415407061576843, -0.00111350417137146, -0.09256651997566223, -0.02698749303817749, 0.13499820232391357, -0.17363247275352478, -0.15802478790283203, -0.05599910020828247, -0.09068113565444946, 0.09820979833602905, 0.1682424545288086], [-0.02677464485168457, 0.23639345169067383, -0.10445499420166016, -0.14028984308242798, -0.11192351579666138, -0.17224308848381042, -0.17523345351219177, -0.2227538824081421, -0.22156980633735657, 0.06524965167045593, 0.15246349573135376, 0.23471182584762573, 0.21294933557510376, -0.014398425817489624, 0.048511654138565063, -0.1495799422264099], [0.0966302752494812, -0.23971027135849, 0.1179182231426239, 0.045853883028030396, 0.0768260657787323, 0.09153708815574646, -0.11477619409561157, 0.21452659368515015, 0.11931312084197998, 0.16422367095947266, 0.03301963210105896, 0.15699663758277893, 0.16825026273727417, 0.11330872774124146, 0.19044217467308044, -0.04534447193145752], [0.16438403725624084, 0.057599782943725586, 0.15042400360107422, 0.24349963665008545, 0.056609272956848145, -0.09279173612594604, -0.02487403154373169, 0.07038211822509766, 0.04215231537818909, -0.0682925283908844, 0.19587960839271545, 0.15020182728767395, -0.155288428068161, -0.02037036418914795, -0.0239984393119812, -0.15668269991874695], [0.03646373748779297, -0.07674822211265564, -0.1290653645992279, -0.08038675785064697, -0.08913713693618774, 0.23916000127792358, 0.095892995595932, 0.24602830410003662, 0.06854888796806335, 0.05660781264305115, 0.10277339816093445, 0.04290813207626343, -0.19619286060333252, -0.14783838391304016, -0.0605696439743042, 0.0037583112716674805], [0.09417861700057983, 0.09626206755638123, 0.19832834601402283, 0.050893187522888184, -0.08532330393791199, -0.18800657987594604, -0.18310266733169556, -0.1493343710899353, 0.07540088891983032, 0.13506802916526794, 0.21872815489768982, -0.07907792925834656, -0.019720733165740967, -0.07424086332321167, -0.0009135007858276367, 0.08025035262107849], [-0.005492866039276123, 0.011573702096939087, 0.03167179226875305, 0.09310457110404968, -0.07585033774375916, -0.14907440543174744, 0.05898115038871765, -0.02960139513015747, -0.11325699090957642, 0.10499075055122375, 0.0022672712802886963, -0.036366164684295654, -0.12102094292640686, -0.03289148211479187, -0.21258127689361572, 0.05687257647514343], [0.0037516653537750244, 0.15170910954475403, 0.016142606735229492, 0.019988059997558594, 0.06810325384140015, 0.19023439288139343, -0.11813941597938538, 0.1492512822151184, 0.06114038825035095, -0.16677919030189514, 0.08704671263694763, -0.1499333679676056, -0.07869520783424377, -0.11916720867156982, -0.17007854580879211, 0.1968928575515747], [-0.22345522046089172, 0.12500375509262085, -0.2250029742717743, -0.030426502227783203, 0.01491054892539978, 0.17772763967514038, -0.09047338366508484, 0.07195687294006348, 0.038726478815078735, 0.14709621667861938, 0.014862895011901855, 0.09361115097999573, -0.15102270245552063, -0.17372775077819824, 0.22276940941810608, -0.18216675519943237], [-0.042559921741485596, -0.03022003173828125, 0.2444700300693512, -0.05402839183807373, -0.19032609462738037, -0.06337472796440125, 0.12895527482032776, 0.09907254576683044, 0.20682302117347717, -0.05117923021316528, 0.11776137351989746, -0.235260009765625, 0.09673494100570679, 0.11486592888832092, 0.16127175092697144, -0.14336055517196655], [-0.0667445957660675, 0.0604824423789978, -0.17765367031097412, -0.1988702416419983, -0.2405107021331787, 0.01395571231842041, 0.15524697303771973, 0.06421497464179993, 0.015241235494613647, 0.08710646629333496, -0.15710103511810303, 0.026356488466262817, -0.06210589408874512, -0.12378591299057007, 0.21559327840805054, -0.1934131681919098], [0.036637067794799805, -0.21967813372612, -0.00848168134689331, -0.1110905110836029, 0.08228686451911926, -0.1403844952583313, 0.16000989079475403, -0.20286673307418823, 0.15015891194343567, -0.18779486417770386, 0.1338963508605957, -0.10526660084724426, -0.0005823969841003418, -0.04562586545944214, 0.16225752234458923, 0.08193188905715942], [-0.22030109167099, 0.022985130548477173, -0.17246559262275696, 0.1868903636932373, 0.041074931621551514, -0.0642952024936676, -0.12754234671592712, 0.08653223514556885, -0.14972427487373352, 0.11856555938720703, 0.13641881942749023, 0.1534508466720581, 0.06530946493148804, -0.21884220838546753, 0.17982926964759827, -0.07755586504936218], [-0.07390895485877991, -0.02685973048210144, 0.18278372287750244, 0.1922316551208496, 0.038603007793426514, 0.11928796768188477, -0.23299923539161682, 0.0005905628204345703, -0.22117090225219727, 0.08508738875389099, -0.17811235785484314, -0.0891011655330658, 0.17475780844688416, 0.23892396688461304, -0.1500951051712036, -0.13875272870063782], [0.03096151351928711, 0.09827631711959839, -0.04071807861328125, -0.07807257771492004, -0.16421091556549072, 0.10671892762184143, 0.24494045972824097, -0.12101978063583374, 0.11791592836380005, 0.1220986545085907, 0.20094925165176392, -0.0284634530544281, 0.007874459028244019, 0.18367472290992737, 0.1580284833908081, 0.24692678451538086]], "encoder.layers.0.linear1.bias": [-0.07164251804351807, 0.09892165660858154, 0.1745690405368805, -0.16970399022102356, 0.049664705991744995, -0.05593818426132202, 0.1607060730457306, -0.11228179931640625, 0.017534643411636353, 0.14957767724990845, -0.22902923822402954, -0.21109053492546082, -0.12804600596427917, 0.16035428643226624, 0.16763195395469666, -0.17074251174926758, 0.04767182469367981, -0.13247022032737732, -0.11603817343711853, 0.21560436487197876, 0.12075227499008179, -0.06837072968482971, 0.036800384521484375, 0.048439234495162964, 0.05856025218963623, -0.08556967973709106, -0.1472213864326477, 0.1655159592628479, 0.03359314799308777, 0.10463741421699524, -0.09468242526054382, 0.12109237909317017], "encoder.layers.0.linear2.weight": [[0.12865200638771057, 0.10751089453697205, 0.048064835369586945, 0.17392756044864655, -0.00038661304279230535, 0.037635236978530884, 0.16796080768108368, 0.17180873453617096, -0.07463867217302322, 0.15924103558063507, 0.06524121016263962, -0.019787965342402458, 0.1543518751859665, -0.091575488448143, 0.114860400557518, 0.17517583072185516, -0.12192326784133911, -0.10431466996669769, -0.17517051100730896, -0.031813155859708786, -0.16054922342300415, -0.05920639634132385, 0.0536685511469841, 0.12495950609445572, 0.09847084432840347, 0.09812536090612411, 0.07333825528621674, -0.10964278876781464, -0.1403597891330719, 0.007328051142394543, 0.1678641140460968, 0.009953547269105911], [-0.015204538591206074, -0.1199849545955658, -0.08765265345573425, -0.13627073168754578, 0.14153949916362762, -0.028802165761590004, -0.15616606175899506, 0.018963657319545746, 0.012828362174332142, -0.021840518340468407, 0.06327968090772629, 0.09506683051586151, -0.1662425994873047, -0.13542716205120087, -0.008492336608469486, -0.1638963371515274, -0.16057683527469635, 0.15607799589633942, -0.013445540331304073, -0.08739669620990753, -0.06063738465309143, -0.1380135416984558, 0.13795046508312225, -0.038332052528858185, -0.09939056634902954, -0.13406971096992493, 0.10332421958446503, -0.024436088278889656, -0.018571671098470688, -0.046073880046606064, -0.08533415198326111, 0.03144685924053192], [0.13600675761699677, -0.10245627164840698, 0.008469851687550545, -0.13444103300571442, -0.08289007842540741, 0.1551692634820938, 0.0018535129493102431, 0.17029236257076263, -0.030972011387348175, -0.09635110944509506, -0.10562200099229813, 0.15667976438999176, -0.13593897223472595, 0.09277141094207764, 0.04394354671239853, 0.05216808244585991, 0.09974447637796402, -0.04624883085489273, 0.1093829795718193, -0.14084197580814362, -0.06219734624028206, 0.1294078528881073, 0.05246374383568764, -0.023541796952486038, -0.0412827730178833, -0.10794241726398468, 0.10749644041061401, -0.0056215254589915276, -0.005981038324534893, 0.04180653393268585, 0.13045206665992737, -0.09018852561712265], [-0.06088143587112427, 0.11978936940431595, 0.09983861446380615, -0.08696290105581284, -0.17487812042236328, 0.03279408439993858, 0.09296581149101257, 0.042224377393722534, 0.12539024651050568, -0.1402677297592163, 0.08914601802825928, -0.1098984107375145, 0.09949111193418503, 0.13147136569023132, 0.055988021194934845, 0.14302551746368408, -0.11652263253927231, -0.1581047922372818, -0.16997170448303223, 0.11098597198724747, 0.06192663684487343, -0.12944769859313965, 0.0856095626950264, 0.16129322350025177, -0.17431659996509552, 0.1282375305891037, 0.027112750336527824, 0.016443930566310883, 0.159062460064888, 0.1600872427225113, 0.07448507100343704, 0.13967743515968323], [0.07354342192411423, 0.028804272413253784, -0.15538866817951202, 0.03301883116364479, -0.12576712667942047, 0.05442357063293457, 0.03118940442800522, 0.003971413243561983, -0.12086693942546844, -0.10716154426336288, 0.13066230714321136, 0.08609361946582794, 0.09320370852947235, -0.052675362676382065, -0.03044028766453266, -0.04530392214655876, 0.12156815826892853, -0.0763123482465744, 0.11134541779756546, 0.12188643217086792, -0.1616721898317337, 0.0010795071721076965, -0.03366774320602417, -0.09772610664367676, 0.07631759345531464, -0.021477485075592995, 0.1547694355249405, -0.11064523458480835, 0.08213600516319275, -0.15093064308166504, -0.08860430866479874, 0.012058465741574764], [0.13967005908489227, 0.09311167895793915, -0.14514876902103424, 0.019580751657485962, -0.10420805960893631, 0.007659683935344219, -0.14726793766021729, -0.05186159163713455, 0.12124520540237427, -0.162199005484581, -0.16854290664196014, 0.032198864966630936, 0.024233320727944374, -0.032329898327589035, 0.15436354279518127, -0.10643529146909714, -0.10731763392686844, -0.13213635981082916, -0.032902125269174576, -0.04511428251862526, 0.10938002914190292, -0.009925835765898228, 0.05645427107810974, -0.07346073538064957, 0.1433999091386795, 0.1490260660648346, -0.1583157181739807, -0.04543154314160347, -0.14999456703662872, 0.07509949058294296, -0.1544468253850937, -0.08358211070299149], [0.1766304075717926, -0.16880746185779572, 0.13042664527893066, 0.014933934435248375, 0.14135678112506866, -0.08971228450536728, 0.11611197143793106, 0.021328771486878395, 0.013596320524811745, 0.12065578252077103, -0.16803105175495148, -0.14238500595092773, 0.17072446644306183, -0.10615379363298416, -0.12742199003696442, -0.008643433451652527, -0.056586652994155884, -0.024185147136449814, -0.11843782663345337, 0.06378436833620071, -0.15211309492588043, 0.014317663386464119, 0.103156179189682, 0.03396517410874367, 0.02348829060792923, 0.025856079533696175, -0.05178682133555412, -0.033675648272037506, -0.07454555481672287, -0.1194176971912384, -0.09359550476074219, 0.17475447058677673], [-0.029584726318717003, 0.06192417070269585, 0.12225063890218735, -0.013809414580464363, -0.09510128200054169, -0.11977310478687286, -0.06512512266635895, 0.06309804320335388, -0.14887399971485138, -0.021583864465355873, 0.06724348664283752, 0.1442241668701172, 0.05319749936461449, 0.034960538148880005, 0.12101967632770538, 0.0816863626241684, 0.059805978089571, -0.054809004068374634, -0.1417570263147354, -0.038184136152267456, -0.0320608951151371, 0.012981987558305264, -0.019441939890384674, 0.071468785405159, 0.11747696250677109, -0.07166886329650879, -0.16773644089698792, -0.09069698303937912, -0.08458347618579865, 0.10020413249731064, -0.1140286773443222, -0.016627099364995956], [-0.0374658927321434, -0.10729148238897324, 0.0801301971077919, -0.07363730669021606, -0.009145043790340424, -0.12428899109363556, -0.017829654738307, 0.025117456912994385, -0.007193539757281542, -0.06605220586061478, 0.05251745879650116, -0.04580241069197655, -0.09800480306148529, -0.1303609013557434, -0.0374465249478817, -0.16699713468551636, 0.14672818779945374, -0.08445113152265549, -0.07325948029756546, 0.0163410697132349, 0.045826394110918045, -0.01666869968175888, 0.12127285450696945, -0.10305190831422806, 0.06335337460041046, -0.00039868810563348234, -0.1438027322292328, -0.06846471130847931, 0.04498739913105965, 0.03377174213528633, 0.12854059040546417, 0.11826236546039581], [-0.09641803801059723, -0.0754888579249382, -0.037483975291252136, -0.12664645910263062, -0.04772791266441345, -0.1446586400270462, 0.06723562628030777, 0.12508000433444977, 0.013996547088027, -0.12655101716518402, -0.13387440145015717, -0.06881901621818542, 0.051416099071502686, 0.0043119387701153755, 0.03214188292622566, 0.16660872101783752, 0.08210252225399017, 0.03801097720861435, -0.035765793174505234, 0.08362402766942978, 0.0646720826625824, -0.15911710262298584, -0.10442357510328293, 0.005933643784373999, 0.06707656383514404, 0.08600237220525742, -0.1052313819527626, -0.17538268864154816, -0.00920858047902584, -0.020208634436130524, 0.05129705369472504, -0.04861472547054291], [0.13514980673789978, 0.011795280501246452, 0.12909063696861267, -0.12309214472770691, 0.07071703672409058, 0.021064024418592453, -0.08841456472873688, 0.08763665705919266, -0.17395170032978058, 0.14291812479496002, 0.014246097765862942, 0.017068251967430115, 0.08174960315227509, 0.014674647711217403, 0.07577560842037201, 0.11246783286333084, -0.13796685636043549, 0.11694846302270889, -0.026470327749848366, -0.04110925644636154, 0.035581886768341064, 0.1382661908864975, -0.09609849750995636, -0.1191353127360344, 0.10970889776945114, -0.08302634209394455, 0.05691327154636383, -0.02604382298886776, 0.048658303916454315, 0.13490095734596252, -0.08959025144577026, -0.08578329533338547], [0.08673030883073807, 0.009678960777819157, -0.019455721601843834, -0.1552785485982895, 0.14977551996707916, -0.006694689393043518, -0.032560043036937714, -0.07256504893302917, -0.034884799271821976, 0.08591952919960022, -0.004062913823872805, 0.1511809527873993, -0.01020615454763174, -0.0253599900752306, 0.09978188574314117, -0.004574197344481945, -0.03528338298201561, 0.059083472937345505, 0.1394115686416626, 0.04411453753709793, 0.12309282273054123, 0.11455806344747543, 0.04999206215143204, 0.06146323308348656, 0.05704303830862045, 0.018336471170186996, 0.1503903567790985, 0.16318972408771515, 0.06293049454689026, -0.008827973157167435, 0.1584969311952591, -0.13758893311023712], [0.12989266216754913, 0.09366080909967422, 0.11351469159126282, -0.013582749292254448, -0.13189272582530975, 0.12610168755054474, -0.07729659974575043, 0.046512164175510406, 0.10015197098255157, -0.16520234942436218, 0.011731595732271671, -0.06279575079679489, 0.1254681944847107, -0.11255397647619247, 0.1073334589600563, 0.1102326363325119, 0.09753033518791199, 0.16970780491828918, 0.02677302621304989, -0.16022706031799316, 0.12619468569755554, 0.016183335334062576, 0.003508134977892041, -0.16839557886123657, -0.03973166644573212, -0.08580171316862106, 0.17313703894615173, 0.12587010860443115, 0.13187333941459656, 0.12106315046548843, -0.10957925766706467, -0.0759202092885971], [-0.06918160617351532, -0.07086663693189621, 0.13760866224765778, 0.06006286293268204, 0.14166072010993958, -0.008269422687590122, -0.157583549618721, -0.05128702521324158, 0.12423771619796753, 0.10762263089418411, 0.05472502484917641, -0.05185350030660629, -0.16499824821949005, -0.09498683363199234, 0.09216790646314621, -0.07130424678325653, 0.0845591127872467, 0.04826730862259865, -0.06789768487215042, 0.1076708436012268, -0.056804109364748, -0.005872994661331177, -0.0673365443944931, -0.1676853448152542, 0.02850315533578396, 0.0510830320417881, -0.08900377154350281, 0.10844310373067856, -0.15857850015163422, -0.17040859162807465, -0.10918594151735306, -0.06109489127993584], [-0.019632486626505852, -0.034161705523729324, 0.08067884296178818, -0.15514370799064636, 0.026029935106635094, 0.003061357419937849, 0.04669206961989403, 0.17573018372058868, 0.10879694670438766, -0.09788206964731216, -0.14486010372638702, -0.04279780760407448, -0.08867595344781876, 0.061749011278152466, 0.0016205041902139783, 0.14218565821647644, 0.06943897902965546, -0.03250398486852646, 0.006075805053114891, 0.04233554005622864, -0.021935727447271347, 0.14264722168445587, -0.13822174072265625, 0.08616200089454651, -0.11268522590398788, -0.15487077832221985, -0.036291658878326416, 0.08614414930343628, 0.12490367889404297, 0.04436077922582626, -0.015278632752597332, -0.00990998838096857], [-0.07166197150945663, -0.015863483771681786, -0.01221419870853424, 0.150430366396904, 0.10345753282308578, -0.14146094024181366, 0.000731268897652626, -0.1087300181388855, -0.02806168794631958, -0.14049647748470306, 0.04595506936311722, -0.12746979296207428, 0.1745176613330841, 0.13350220024585724, -0.12168581038713455, -0.16642887890338898, 0.006897415965795517, -0.04934750869870186, 0.05189575254917145, -0.11966263502836227, 0.07236198335886002, -0.15269075334072113, -0.09329744428396225, -0.0929318219423294, 0.08554071187973022, -0.004628229420632124, -0.1698874533176422, -0.10096070915460587, -0.0818081721663475, -0.1640186458826065, 0.022635702043771744, 0.06299223750829697]], "encoder.layers.0.linear2.bias": [-0.03243457153439522, -0.0703473687171936, -0.0010720683494582772, -0.14041049778461456, -0.10763959586620331, -0.004031619988381863, 0.1570443958044052, -0.05436030775308609, 0.0876210406422615, -0.06957053393125534, -0.04705756530165672, -0.16828159987926483, 0.14645683765411377, 0.17213234305381775, -0.003712884383276105, 0.11231856793165207], "encoder.layers.0.norm1.weight": [1.0, 1.0, 1.0, 1.0, 1.0, 1.0, 1.0, 1.0, 1.0, 1.0, 1.0, 1.0, 1.0, 1.0, 1.0, 1.0], "encoder.layers.0.norm1.bias": [0.0, 0.0, 0.0, 0.0, 0.0, 0.0, 0.0, 0.0, 0.0, 0.0, 0.0, 0.0, 0.0, 0.0, 0.0, 0.0], "encoder.layers.0.norm2.weight": [1.0, 1.0, 1.0, 1.0, 1.0, 1.0, 1.0, 1.0, 1.0, 1.0, 1.0, 1.0, 1.0, 1.0, 1.0, 1.0], "encoder.layers.0.norm2.bias": [0.0, 0.0, 0.0, 0.0, 0.0, 0.0, 0.0, 0.0, 0.0, 0.0, 0.0, 0.0, 0.0, 0.0, 0.0, 0.0], "encoder.layers.1.self_attn.in_proj_weight": [[-0.1210515946149826, 0.17061494290828705, -0.24384662508964539, 0.19351519644260406, -0.11878642439842224, 0.004686302505433559, -0.06050725653767586, 0.037121694535017014, -0.09252899140119553, 0.22263626754283905, -0.007959973067045212, 0.2390088140964508, 0.29439207911491394, -0.1491711586713791, -0.2233656495809555, 0.24565382301807404], [0.23993179202079773, -0.2337876707315445, -0.023669203743338585, -0.3019382953643799, -0.2506437599658966, 0.059137582778930664, 0.08145613223314285, 0.06490568071603775, -0.0833330824971199, 0.2824805974960327, 0.04377787932753563, -0.18067583441734314, -0.017334366217255592, 0.07352915406227112, 0.10722417384386063, -0.21649841964244843], [0.11475541442632675, -0.15642492473125458, -0.25442248582839966, -0.1672411859035492, 0.2952888607978821, 0.2617456912994385, 0.2741850018501282, 0.1797347515821457, 0.2313082367181778, -0.04098294675350189, -0.16847220063209534, 0.15298795700073242, -0.158660426735878, -0.20663462579250336, -0.09777568280696869, 0.06425601243972778], [0.15762363374233246, -0.11892548948526382, -0.1802109032869339, 0.0413023978471756, -0.1804763227701187, -0.19934603571891785, 0.1596001535654068, -0.05143457278609276, 0.27978837490081787, 0.29785263538360596, 0.09158199280500412, 0.10537634789943695, 0.07050970941781998, 0.00479514617472887, -0.02226967364549637, 0.00420825881883502], [0.11433751881122589, 0.2846830189228058, -0.07935094088315964, -0.12942975759506226, -0.0741475448012352, -0.1479259878396988, 0.052063509821891785, 0.2285522222518921, 0.23943071067333221, 0.14057791233062744, -0.2253320962190628, -0.1643316149711609, -0.0672726109623909, -0.05643751472234726, 0.025183124467730522, -0.2810702323913574], [0.09529884904623032, -0.23358093202114105, -0.1937377005815506, -0.25455787777900696, 0.2667860686779022, -0.2899399399757385, 0.23097671568393707, -0.010293032042682171, -0.03560908883810043, 0.19151291251182556, -0.02830006182193756, 0.19202595949172974, 0.22137722373008728, -0.2658339738845825, 0.11781555414199829, 0.05780152976512909], [0.06583362817764282, 0.04470057040452957, 0.08375141024589539, -0.14729604125022888, -0.03917381167411804, 0.2909136414527893, 0.20571106672286987, -0.011502942070364952, -0.2879776060581207, 0.013419460505247116, -0.20850472152233124, 0.2489880472421646, -0.18588179349899292, -0.022107139229774475, -0.06795578449964523, 0.054487016052007675], [0.2881297171115875, 0.029093576595187187, 0.1773320436477661, 0.23766838014125824, 0.2471875697374344, -0.10574185848236084, -0.06848058849573135, 0.14756271243095398, -0.08354832231998444, 0.14337597787380219, -0.06689180433750153, -0.20767152309417725, 0.12463106215000153, 0.046943873167037964, 0.1365126222372055, 0.3041917383670807], [0.20904342830181122, 0.2902587652206421, 0.016387952491641045, -0.26338523626327515, -0.2147979736328125, -0.19019484519958496, -0.26982611417770386, -0.1534750908613205, -0.2818651795387268, -0.28249210119247437, -0.18296298384666443, -0.30184876918792725, -0.18794092535972595, 0.11675146222114563, 0.255375474691391, -0.09107901901006699], [-0.08906307816505432, 0.16348914802074432, -0.15106336772441864, -0.14477482438087463, 0.18865036964416504, -0.2667805552482605, 0.03743884712457657, 0.27047938108444214, 0.05250680446624756, 0.08326544612646103, -0.17832015454769135, -0.004224319010972977, 0.01683548092842102, 0.07514859735965729, 0.11896742880344391, 0.2660537362098694], [-0.23371177911758423, 0.009178022854030132, -0.15298175811767578, -0.24221287667751312, -0.02451867237687111, -0.2695164084434509, 0.21368713676929474, 0.03546089679002762, -0.16502153873443604, 0.16000652313232422, -0.28978320956230164, -0.11843259632587433, -0.059650812298059464, -0.26018184423446655, -0.19470025599002838, -0.04997529461979866], [0.2323232740163803, 0.2956700325012207, 0.1948147863149643, -0.18283113837242126, -0.2003135085105896, 0.2672066390514374, 0.10830341279506683, 0.008134663105010986, 0.041436828672885895, -0.24608087539672852, -0.10223112255334854, 0.2947404086589813, -0.07551538944244385, -0.01535955723375082, -0.2542359530925751, -0.17128275334835052], [-0.006252199411392212, -0.19019046425819397, -0.03797003626823425, 0.12460529804229736, -0.29950442910194397, 0.09094101190567017, -0.20245282351970673, -0.14943450689315796, 0.11754786223173141, 0.24345487356185913, -0.08368334174156189, -0.125710591673851, -0.27686455845832825, -0.1578872799873352, -0.26810798048973083, -0.07007700204849243], [0.062478963285684586, -0.2868584394454956, 0.26733532547950745, 0.1920984387397766, -0.2997397482395172, -0.14624464511871338, 0.09986422955989838, -0.06290889531373978, -0.0333670973777771, -0.13824787735939026, 0.24593476951122284, -0.17115755379199982, 0.25391313433647156, 0.019755829125642776, 0.06155010312795639, 0.23886561393737793], [-0.050448957830667496, -0.174325093626976, -0.049520790576934814, 0.2483333796262741, -0.22718630731105804, 0.06949828565120697, -0.30091720819473267, 0.1605340838432312, 0.11312593519687653, 0.01297992467880249, 0.1314130276441574, 0.00034437980502843857, 0.1694290190935135, -0.24238328635692596, -0.04496421292424202, 0.13582868874073029], [0.30490538477897644, 0.15596863627433777, -0.22265078127384186, 0.23548686504364014, -0.06827899813652039, -0.0653751865029335, -0.278295636177063, -0.048198096454143524, 0.21657371520996094, 0.04269608482718468, -0.1783393770456314, 0.09424782544374466, -0.09817689657211304, 0.27954620122909546, -0.2657557427883148, -0.0967167392373085], [-0.2956453263759613, -0.1205853745341301, 0.09652449190616608, 0.29473936557769775, 0.051422856748104095, 0.30017226934432983, 0.05990598723292351, 0.17683357000350952, 0.24545793235301971, 0.2559482157230377, -0.1713797003030777, 0.2815045416355133, 0.18547704815864563, -0.14316625893115997, -0.1461130976676941, -0.25681254267692566], [0.07689476758241653, -0.24817901849746704, 0.12934061884880066, 0.09669290482997894, -0.26601526141166687, 0.0834360122680664, -0.02490229159593582, 0.13987129926681519, 0.17568647861480713, -0.3043935298919678, 0.28080305457115173, 0.25678062438964844, 0.12182649224996567, -0.2798422873020172, -0.10937608033418655, -0.08873548358678818], [-0.07868923246860504, 0.17266549170017242, 0.11132030189037323, 0.24255433678627014, -0.11467383801937103, 0.10304383188486099, 0.10893957316875458, -0.2549278438091278, -0.2970066964626312, -0.1588766872882843, 0.2095990628004074, -0.2882619798183441, -0.2665148377418518, 0.17152570188045502, 0.16519634425640106, 0.25180530548095703], [-0.23115183413028717, -0.2240976244211197, 0.15706944465637207, 0.266268789768219, 0.18320311605930328, 0.04796471446752548, 0.10091123729944229, 0.29060953855514526, -0.1975526660680771, -0.1390121579170227, 0.21416714787483215, -0.20950475335121155, -0.16883493959903717, 0.22351321578025818, 0.09660851210355759, 0.09891960024833679], [-0.1297740936279297, -0.004225523676723242, 0.28023168444633484, -0.18377912044525146, 0.00240730051882565, 0.14562202990055084, -0.2113775759935379, 0.29736098647117615, -0.15297387540340424, -0.07352634519338608, -0.08284489065408707, -0.19952897727489471, -0.3004496991634369, 0.17264358699321747, 0.08134575188159943, -0.28677427768707275], [-0.1970696598291397, 0.3026246726512909, 0.11703510582447052, 0.12285558134317398, -0.18319062888622284, -0.1342308521270752, -0.0462200753390789, -0.05599531531333923, -0.20981360971927643, 0.025225134566426277, 0.030431237071752548, -0.03876961022615433, 0.042447153478860855, -0.12135710567235947, 0.07968553900718689, 0.11547520011663437], [-0.16128022968769073, -0.30360785126686096, 0.1602684110403061, 0.07303665578365326, -0.15572263300418854, 0.2950722575187683, -0.13847211003303528, 0.2069043666124344, 0.15533700585365295, -0.2567090094089508, 0.19747215509414673, -0.28152996301651, -0.16963165998458862, -0.05104580894112587, -0.20638376474380493, 0.2991163432598114], [-0.061414726078510284, 0.12161402404308319, -0.2733973264694214, 0.17626112699508667, -0.09515770524740219, -0.23290705680847168, 0.044771451503038406, 0.1483355313539505, 0.2649726867675781, -0.1870162934064865, -0.15067555010318756, 0.058868248015642166, 0.08305644989013672, 0.1177201122045517, 0.16805803775787354, -0.06942886114120483], [0.17010778188705444, 0.22574852406978607, -0.07998243719339371, 0.21783840656280518, 0.14959631860256195, 0.27007240056991577, -0.1739976406097412, -0.15119750797748566, -0.08853035420179367, 0.015531692653894424, 0.18377266824245453, -0.17479027807712555, 0.15329335629940033, -0.10973144322633743, 0.1849699467420578, -0.014536879025399685], [-0.26824575662612915, -0.16847771406173706, -0.2216029018163681, 0.15185688436031342, -0.20531262457370758, -0.025510895997285843, 0.06606145948171616, -0.16791090369224548, 0.08832555264234543, -0.2989673912525177, -0.21907883882522583, -0.2774425148963928, -0.09261440485715866, -0.11154284328222275, 0.0438438355922699, -0.05661826580762863], [0.14393265545368195, 0.2807101309299469, 0.10985689610242844, -0.12062742561101913, -0.28670838475227356, 0.11090124398469925, -0.1517023891210556, 0.15581092238426208, 0.20468087494373322, 0.1181023046374321, 0.2872978150844574, 0.2908145785331726, 0.06483183801174164, -0.2230985313653946, 0.27355942130088806, -0.14528407156467438], [-0.14462816715240479, 0.2562100887298584, 0.23723624646663666, 0.09251457452774048, 0.019192922860383987, -0.25755342841148376, -0.031783390790224075, 0.29367128014564514, 0.07797302305698395, 0.02621505782008171, -0.06357987970113754, -0.10679233819246292, 0.18249395489692688, 0.01888204924762249, 0.19919686019420624, -0.05419453978538513], [0.13377557694911957, 0.12638446688652039, 0.048825718462467194, 0.19239917397499084, 0.19187034666538239, 0.28381115198135376, 0.2353886067867279, -0.07829079777002335, -0.25922346115112305, 0.05597618967294693, -0.002672474831342697, -0.07986114174127579, -0.051272328943014145, 0.014400805346667767, 0.22340261936187744, 0.09545087069272995], [-0.10872498899698257, -0.1259114146232605, -0.07582129538059235, -0.11834189295768738, 0.2753296494483948, 0.16217009723186493, 0.27647870779037476, 0.0009778415551409125, 0.061748847365379333, 0.10617457330226898, -0.2898215353488922, 0.027341382578015327, -0.020480796694755554, -0.1716645509004593, -0.23758438229560852, 0.2710588276386261], [0.24894961714744568, 0.1419077217578888, 0.29217812418937683, -0.12425277382135391, -0.05288531258702278, 0.1159278005361557, -0.05059010162949562, -0.060084398835897446, -0.253081738948822, 0.0822603777050972, -0.18503667414188385, 0.011134836822748184, 0.2985241115093231, -0.09424880892038345, -0.09650737047195435, 0.18472608923912048], [-0.11257036030292511, -0.026294482871890068, 0.2858978509902954, -0.12552832067012787, -0.21904876828193665, -0.171355202794075, -0.08488879352807999, -0.1452849805355072, -0.1588897556066513, 0.12368223816156387, 0.05203259363770485, -0.09799844026565552, -0.23787955939769745, -0.0964057520031929, -0.129222571849823, -0.09963879734277725], [-0.27621763944625854, 0.06596141308546066, -0.2249622344970703, -0.238457590341568, -0.25016430020332336, 0.12779712677001953, -0.18433228135108948, -0.1263786256313324, 0.24000121653079987, 0.1625739485025406, 0.1755644828081131, -0.29072582721710205, -0.21956607699394226, -0.11558867990970612, 0.25293970108032227, 0.03132297471165657], [-0.22899580001831055, 0.0019172847969457507, -0.23780590295791626, -0.06708518415689468, -0.08419357985258102, 0.2650536596775055, 0.09483712166547775, -0.05339003726840019, 0.0517236553132534, -0.08838541060686111, 0.12030067294836044, 0.12111619859933853, 0.08222512155771255, -0.1193443313241005, 0.2612230181694031, -0.044204093515872955], [-0.11920340359210968, 0.19176873564720154, 0.24955913424491882, 0.3047042191028595, 0.09071022272109985, -0.10437700897455215, 0.15550954639911652, 0.262693852186203, -0.3003179132938385, -0.03793247416615486, -0.20880843698978424, 0.05706079304218292, 0.12663397192955017, -0.06325437128543854, -0.02561466582119465, 0.13781772553920746], [-0.0514606349170208, -0.25712892413139343, 0.24499061703681946, -0.1541079729795456, -0.033637162297964096, 0.028881438076496124, -0.018400831148028374, -0.2880250811576843, 0.1404782235622406, -0.13907943665981293, -0.1588064283132553, 0.07315261662006378, -0.15978696942329407, -0.14150691032409668, -0.10316943377256393, -0.1150273010134697], [-0.12787483632564545, -0.08257409930229187, 0.07957038283348083, -0.24777138233184814, -0.18532848358154297, 0.004467702936381102, 0.042580746114254, 0.16910435259342194, -0.215078666806221, 0.09773370623588562, 0.17403312027454376, 0.17001302540302277, -0.2851884365081787, -0.11684194952249527, -0.26318714022636414, -0.19375814497470856], [0.1705404818058014, -0.045719437301158905, 0.13004076480865479, -0.1797332614660263, 0.04652802646160126, -0.18519917130470276, 0.15306004881858826, -0.13391943275928497, -0.07677899301052094, -0.2656567692756653, 0.001011494779959321, 0.290717750787735, 0.14861610531806946, -0.16336289048194885, 0.004117811564356089, -0.03357284888625145], [-0.24650263786315918, 0.2400778979063034, 0.00493592768907547, 0.06448191404342651, -0.12364687025547028, -0.14327038824558258, 0.05048691853880882, 0.11320039629936218, 0.06867695599794388, -0.14756493270397186, 0.2972755432128906, -0.045071959495544434, -0.187513068318367, -0.14320716261863708, 0.3014160990715027, 1.4746097804163583e-05], [-0.0415630079805851, -0.1274230033159256, -0.08026531338691711, -0.25787878036499023, -0.24332113564014435, 0.17920757830142975, 0.2619268298149109, 0.2921936511993408, -0.22104878723621368, 0.16560488939285278, -0.18951904773712158, 0.18265852332115173, 0.22092998027801514, 0.236948624253273, 0.22046978771686554, 0.19154192507266998], [0.005959504283964634, 0.14068719744682312, -0.1095445305109024, 0.13332414627075195, -0.09840885549783707, -0.005141278263181448, -0.26649802923202515, -0.08005992323160172, -0.16101504862308502, -0.10328298807144165, -0.19552640616893768, -0.2753974199295044, 0.019937783479690552, 0.19870848953723907, 0.2788589298725128, 0.17867624759674072], [-0.15870776772499084, -0.30282115936279297, 0.11614067107439041, 0.1715604066848755, -0.2628645598888397, 0.10979411751031876, 0.25887349247932434, 0.01854770816862583, -0.18446460366249084, 0.25103482604026794, 0.13074639439582825, 0.2027568817138672, -0.2070693075656891, 0.17818370461463928, -0.20914773643016815, 0.3029695451259613], [-0.12973102927207947, 0.18449774384498596, 0.06131121143698692, 0.08114255964756012, -0.04695519059896469, 0.1257615089416504, -0.12760981917381287, -0.2886047959327698, -0.11763769388198853, 0.23990872502326965, -0.08060954511165619, 0.09623996913433075, -0.11320513486862183, 0.22968536615371704, 0.18324947357177734, 0.10808791220188141], [-0.15651066601276398, -0.25019389390945435, 0.011527725495398045, -0.17962652444839478, 0.2517443895339966, -0.29423755407333374, 0.13682492077350616, 0.30524134635925293, 0.15334676206111908, 0.10440299659967422, -0.2945960462093353, 0.29451844096183777, -0.05237241089344025, -0.2861029803752899, 0.30225566029548645, -0.12459657341241837], [-0.021661944687366486, 0.28024598956108093, -0.21224850416183472, -0.2166236788034439, 0.049791187047958374, -0.040984224528074265, 0.07052748650312424, -0.2568000257015228, 0.009156998246908188, -0.13617929816246033, -0.1505238562822342, -0.28035539388656616, 0.16234555840492249, 0.058982640504837036, -0.25886309146881104, 0.2429746687412262], [0.09235214442014694, 0.05681689828634262, -0.17977307736873627, 0.04617426544427872, 0.29502272605895996, 0.2100083827972412, -0.23847933113574982, 0.2794932723045349, 0.023732421919703484, 0.14726489782333374, 0.23780758678913116, 0.2610265612602234, -0.238682821393013, 0.26811620593070984, -0.20795400440692902, 0.02295357920229435], [-0.21395179629325867, -0.06712620705366135, -0.013913929462432861, -0.036630693823099136, -0.04837004840373993, 0.02414907142519951, 0.3020278215408325, 0.17789773643016815, 0.17130199074745178, 0.12255025655031204, 0.2370436042547226, -0.014130192808806896, 0.024345552548766136, 0.06301222741603851, -0.2670343518257141, -0.24665042757987976], [0.03753885626792908, -0.11979544162750244, -0.0056184460408985615, -0.07025712728500366, 0.04766179993748665, 0.199209526181221, -0.10154418647289276, 0.24521249532699585, 0.24175293743610382, -0.23499736189842224, -0.23644503951072693, -0.24772758781909943, -0.16779625415802002, -0.11919103562831879, -0.023046473041176796, -0.07446210086345673]], "encoder.layers.1.self_attn.in_proj_bias": [0.0, 0.0, 0.0, 0.0, 0.0, 0.0, 0.0, 0.0, 0.0, 0.0, 0.0, 0.0, 0.0, 0.0, 0.0, 0.0, 0.0, 0.0, 0.0, 0.0, 0.0, 0.0, 0.0, 0.0, 0.0, 0.0, 0.0, 0.0, 0.0, 0.0, 0.0, 0.0, 0.0, 0.0, 0.0, 0.0, 0.0, 0.0, 0.0, 0.0, 0.0, 0.0, 0.0, 0.0, 0.0, 0.0, 0.0, 0.0], "encoder.layers.1.self_attn.out_proj.weight": [[0.22723788022994995, 0.05493760108947754, 0.032160013914108276, -0.22031369805335999, 0.10494711995124817, -0.037505149841308594, -0.11453106999397278, 0.21473664045333862, 0.055737197399139404, -0.13831910490989685, -0.12653473019599915, -0.011938929557800293, 0.139590322971344, -0.0638834536075592, -0.14264371991157532, -0.08561071753501892], [-0.18676871061325073, 0.08915811777114868, 0.1935100555419922, -0.23536008596420288, 0.05806267261505127, 0.1291479468345642, 0.04533234238624573, -0.0890311598777771, 0.13048553466796875, 0.13137829303741455, 0.09348180890083313, -0.04393035173416138, -0.06620031595230103, 0.026745229959487915, -0.044163525104522705, -0.07450026273727417], [0.15980172157287598, 0.21484988927841187, -0.024749338626861572, -0.055974215269088745, 0.0036480724811553955, -0.014927059412002563, 0.06010282039642334, 0.07005840539932251, -0.22706419229507446, -0.09225943684577942, 0.21053236722946167, 0.09738874435424805, -0.012434393167495728, -0.15072643756866455, -0.15295127034187317, -0.22394171357154846], [-0.08149060606956482, 0.08442604541778564, 0.1594054102897644, 0.11542433500289917, -0.220986008644104, -0.15034061670303345, -0.03945416212081909, 0.24183738231658936, 0.03616437315940857, -0.06474268436431885, 0.10342881083488464, -0.09522038698196411, -0.1618139147758484, 0.18247181177139282, -0.11367544531822205, -0.05011668801307678], [-0.2487010657787323, 0.16731765866279602, 0.18940865993499756, 0.09111204743385315, -0.17431855201721191, -0.24673497676849365, -0.20304474234580994, 0.18642506003379822, 0.12002643942832947, 0.21037611365318298, 0.13096746802330017, 0.06327304244041443, -0.002448171377182007, -0.19012650847434998, -0.21419304609298706, -0.23383715748786926], [0.10234048962593079, -0.12274199724197388, -0.05031314492225647, -0.143876314163208, -0.04555588960647583, -0.17595872282981873, -0.16335391998291016, 0.08292770385742188, -0.07429909706115723, 0.15433579683303833, -0.08020219206809998, -0.18339180946350098, -0.044109731912612915, -0.12118685245513916, -0.07648539543151855, -0.23799890279769897], [0.1398727297782898, -0.17405113577842712, 0.1256544291973114, 0.11344605684280396, 0.17860817909240723, -0.1917630136013031, 0.17979919910430908, -0.11818790435791016, 0.09276729822158813, 0.23477867245674133, -0.035257965326309204, -0.001933366060256958, -0.057557642459869385, -0.20874613523483276, 0.11997571587562561, -0.24817946553230286], [0.15519997477531433, 0.1870562732219696, 0.23642659187316895, -0.0589698851108551, -0.20541048049926758, 0.0562075674533844, 0.1381068229675293, -0.24882718920707703, -0.05674591660499573, -0.14986386895179749, -0.021865934133529663, -0.12305337190628052, -0.10219189524650574, -0.07936471700668335, -0.23757600784301758, 0.20512688159942627], [0.20958280563354492, -0.0392172634601593, -0.028470516204833984, -0.10202997922897339, -0.22576570510864258, -0.2432861030101776, 0.09291461110115051, -0.1372615396976471, -0.16071924567222595, -0.019505798816680908, -0.08325278759002686, -0.08088019490242004, 0.008032798767089844, -0.053028106689453125, -0.08607810735702515, -0.11970147490501404], [-0.203456848859787, 0.20962679386138916, -0.1000467836856842, 0.06624487042427063, -0.08674147725105286, 0.020315319299697876, 0.2330751121044159, 0.11518067121505737, -0.21664991974830627, 0.09922569990158081, 0.23731070756912231, 0.06577083468437195, 0.1676061749458313, 0.24647188186645508, -0.038307249546051025, 0.051888614892959595], [-0.17375877499580383, -0.05151927471160889, 0.18514594435691833, 0.1281614601612091, -0.15819725394248962, -0.20047125220298767, -0.17084091901779175, -0.24671941995620728, -0.19290974736213684, -0.06182435154914856, 0.16871929168701172, 0.04184556007385254, -0.1901513636112213, -0.2005559802055359, 0.124368816614151, -0.1859603226184845], [-0.030781865119934082, 0.11992651224136353, -0.11570301651954651, -0.02725997567176819, -0.02176111936569214, -0.059145838022232056, -0.12675803899765015, -0.22285959124565125, -0.20208925008773804, -0.13386541604995728, 0.2414594292640686, -0.12075367569923401, -0.16788199543952942, 0.060598552227020264, 0.06890258193016052, 0.1369774341583252], [0.19003009796142578, 0.1392185389995575, -0.24787524342536926, 0.022172152996063232, 0.15143826603889465, -0.023106366395950317, -0.14731979370117188, 0.23833495378494263, -0.09350696206092834, -0.14233613014221191, -0.225388765335083, 0.011167079210281372, 0.11078327894210815, 0.055340707302093506, 0.04943743348121643, -0.18959686160087585], [-0.2334718108177185, 0.004402339458465576, 0.2279585301876068, 0.14423033595085144, -0.14555856585502625, -0.032452136278152466, -0.1842958927154541, -0.12060585618019104, 0.045274585485458374, 0.13613462448120117, 0.2070923149585724, -0.22952651977539062, 0.16715380549430847, -0.1763230264186859, 0.09361681342124939, 0.21156132221221924], [0.003510594367980957, 0.22745224833488464, -0.21301287412643433, -0.09548979997634888, 0.1458132266998291, -0.054466962814331055, -0.051175057888031006, -0.1041979193687439, 0.17232653498649597, 0.12262579798698425, 0.0801125168800354, -0.14049091935157776, -0.20293739438056946, 0.027040153741836548, 0.07406970858573914, -0.11542797088623047], [-0.06994941830635071, 0.16884192824363708, 0.01991492509841919, 0.011279582977294922, -0.0615251362323761, -0.22639742493629456, -0.23506435751914978, -0.11950376629829407, -0.12708035111427307, 0.07788839936256409, -0.07277768850326538, -0.09780552983283997, 0.23835745453834534, 0.08708071708679199, 0.178225576877594, -0.12102818489074707]], "encoder.layers.1.self_attn.out_proj.bias": [0.0, 0.0, 0.0, 0.0, 0.0, 0.0, 0.0, 0.0, 0.0, 0.0, 0.0, 0.0, 0.0, 0.0, 0.0, 0.0], "encoder.layers.1.linear1.weight": [[-0.12631213665008545, -0.07942339777946472, -0.09043613076210022, 0.24525955319404602, -0.09265720844268799, -0.17900022864341736, 0.10392439365386963, -0.014440387487411499, 0.1913909912109375, 0.15620815753936768, 0.22968220710754395, -0.18308988213539124, 0.16071584820747375, 0.20980969071388245, -0.1234578788280487, 0.22979497909545898], [0.18741074204444885, 0.00273779034614563, 0.12053811550140381, -0.08740538358688354, -0.21804594993591309, 0.06319501996040344, 0.07453131675720215, -0.16338974237442017, 0.12124991416931152, -0.21355566382408142, 0.21515601873397827, 0.24209758639335632, 0.0680646002292633, -0.1568571925163269, 0.12166780233383179, 0.04260393977165222], [0.06797969341278076, 0.08216333389282227, 0.1903388798236847, -0.10745897889137268, -0.05623626708984375, 0.06817647814750671, 0.027240276336669922, 0.20159441232681274, -0.1313096284866333, -0.009104162454605103, 0.046713292598724365, -0.06639724969863892, 0.17042917013168335, 0.027345389127731323, -0.23105749487876892, -0.02708396315574646], [-0.11338922381401062, 0.024292796850204468, -0.029053986072540283, -0.24798354506492615, -0.045556336641311646, -0.023944824934005737, -0.07371962070465088, 0.22969511151313782, -0.05454978346824646, 0.1606042981147766, 0.06192943453788757, -0.21103328466415405, 0.058746516704559326, 0.20718389749526978, -0.16352516412734985, -0.1615937352180481], [0.24471226334571838, 0.20087748765945435, -0.13947349786758423, 0.15043625235557556, -0.031983017921447754, -0.24648234248161316, 0.018783360719680786, 0.0807735025882721, -0.07499021291732788, 0.08697086572647095, -0.21377521753311157, 0.17325398325920105, 0.2131335735321045, 0.13786667585372925, 0.042372822761535645, 0.08233723044395447], [-0.18088695406913757, -0.06246834993362427, -0.023866891860961914, -0.13912153244018555, -0.18465501070022583, 0.16815438866615295, 0.16966131329536438, -0.22704705595970154, 0.07955297827720642, 0.1017005443572998, 0.23749208450317383, 0.14463841915130615, 0.2298341691493988, -0.0818474292755127, 0.17509660124778748, 0.20335033535957336], [-0.2360820174217224, -0.20067667961120605, 0.05060136318206787, 0.13650944828987122, -0.12420326471328735, 0.027533620595932007, -0.0003629326820373535, 0.06327691674232483, -0.1343373954296112, 0.14100974798202515, 0.16625234484672546, -0.1734645664691925, 0.002421855926513672, 0.0006936490535736084, 0.08027893304824829, 0.2328961193561554], [0.07331585884094238, -0.05680549144744873, 0.22453323006629944, -0.0951332151889801, -0.07259294390678406, 0.017068833112716675, -0.19037720561027527, 0.02720433473587036, -0.1696188747882843, 0.025705158710479736, 0.02395188808441162, 0.034605175256729126, -0.2108238935470581, -0.23744606971740723, 0.11502933502197266, 0.21439898014068604], [-0.22184309363365173, 0.092598557472229, -0.18403038382530212, 0.01567283272743225, 0.23258942365646362, 0.18965479731559753, -0.18278494477272034, 0.1546429693698883, 0.13057929277420044, -0.0003834664821624756, 0.2421816885471344, -0.0992937982082367, -0.05817896127700806, -0.12635353207588196, 0.035974204540252686, 0.06619668006896973], [0.019920051097869873, -0.14065927267074585, -0.11254161596298218, 0.08503812551498413, -0.21920660138130188, -0.038933634757995605, -0.005537897348403931, -0.10129097104072571, 0.09097951650619507, 0.01611343026161194, 0.17551615834236145, -0.022202879190444946, -0.1577846109867096, 0.1766379475593567, 0.03491219878196716, -0.07159954309463501], [-0.16477569937705994, 0.05859723687171936, -0.23843812942504883, 0.06584444642066956, 0.12361118197441101, -0.21930012106895447, -0.16366809606552124, -0.17973145842552185, 0.21012663841247559, 0.21253016591072083, 0.01565021276473999, 0.23470145463943481, -0.08357599377632141, -0.2427055537700653, 0.08732372522354126, 0.08856713771820068], [0.24509558081626892, -7.236003875732422e-05, 0.191599041223526, 0.15324094891548157, 0.18094220757484436, -0.24808302521705627, 0.20586448907852173, -0.2131132185459137, 0.22412776947021484, -0.010360151529312134, -0.22155427932739258, 0.06952318549156189, -0.050886690616607666, -0.22454833984375, -0.0906345546245575, 0.025776296854019165], [0.19471165537834167, -0.07685741782188416, 0.1484919786453247, 0.03130713105201721, 0.008426964282989502, 0.047836244106292725, -0.16406717896461487, -0.20779955387115479, -0.07855290174484253, -0.23296350240707397, -0.11658763885498047, 0.011501461267471313, -0.16465231776237488, -0.10369899868965149, -0.04492160677909851, -0.0288008451461792], [-0.1380036473274231, 0.012012749910354614, -0.035090118646621704, 0.07149890065193176, 0.011291861534118652, -0.12484243512153625, -0.08607098460197449, -0.0028814375400543213, -0.15599632263183594, 0.019571244716644287, -0.01765143871307373, 0.09699463844299316, 0.05916643142700195, 0.18709588050842285, -0.008241355419158936, -0.1847262978553772], [0.11175224184989929, -0.16895946860313416, -0.03436309099197388, -0.08095067739486694, -0.09486111998558044, -0.09249597787857056, 0.22973012924194336, 0.14311420917510986, 0.0692843496799469, 0.23473915457725525, -0.2265554964542389, 0.04034188389778137, 0.1600441038608551, 0.16607248783111572, -0.19896343350410461, 0.08897238969802856], [-0.14242148399353027, -0.009768456220626831, -0.05216756463050842, -0.20874112844467163, -0.23847860097885132, -0.1644744873046875, 0.11344262957572937, 0.11435887217521667, -0.21744093298912048, -0.09388557076454163, 0.004083603620529175, -0.21614563465118408, 0.14086362719535828, 0.22643309831619263, 0.04421544075012207, -0.1857537031173706], [0.05829659104347229, 0.09075340628623962, 0.197960764169693, -0.13301748037338257, -0.2239774465560913, 0.10983765125274658, 0.01556408405303955, -0.08145660161972046, -0.10475558042526245, -0.12890395522117615, 0.20237424969673157, -0.04313477873802185, 0.1803017556667328, 0.22316241264343262, 0.031669020652770996, 0.053254395723342896], [-0.017026185989379883, 0.17170384526252747, -0.22527197003364563, 0.09942075610160828, -0.04073220491409302, 0.11415407061576843, -0.00111350417137146, -0.09256651997566223, -0.02698749303817749, 0.13499820232391357, -0.17363247275352478, -0.15802478790283203, -0.05599910020828247, -0.09068113565444946, 0.09820979833602905, 0.1682424545288086], [-0.02677464485168457, 0.23639345169067383, -0.10445499420166016, -0.14028984308242798, -0.11192351579666138, -0.17224308848381042, -0.17523345351219177, -0.2227538824081421, -0.22156980633735657, 0.06524965167045593, 0.15246349573135376, 0.23471182584762573, 0.21294933557510376, -0.014398425817489624, 0.048511654138565063, -0.1495799422264099], [0.0966302752494812, -0.23971027135849, 0.1179182231426239, 0.045853883028030396, 0.0768260657787323, 0.09153708815574646, -0.11477619409561157, 0.21452659368515015, 0.11931312084197998, 0.16422367095947266, 0.03301963210105896, 0.15699663758277893, 0.16825026273727417, 0.11330872774124146, 0.19044217467308044, -0.04534447193145752], [0.16438403725624084, 0.057599782943725586, 0.15042400360107422, 0.24349963665008545, 0.056609272956848145, -0.09279173612594604, -0.02487403154373169, 0.07038211822509766, 0.04215231537818909, -0.0682925283908844, 0.19587960839271545, 0.15020182728767395, -0.155288428068161, -0.02037036418914795, -0.0239984393119812, -0.15668269991874695], [0.03646373748779297, -0.07674822211265564, -0.1290653645992279, -0.08038675785064697, -0.08913713693618774, 0.23916000127792358, 0.095892995595932, 0.24602830410003662, 0.06854888796806335, 0.05660781264305115, 0.10277339816093445, 0.04290813207626343, -0.19619286060333252, -0.14783838391304016, -0.0605696439743042, 0.0037583112716674805], [0.09417861700057983, 0.09626206755638123, 0.19832834601402283, 0.050893187522888184, -0.08532330393791199, -0.18800657987594604, -0.18310266733169556, -0.1493343710899353, 0.07540088891983032, 0.13506802916526794, 0.21872815489768982, -0.07907792925834656, -0.019720733165740967, -0.07424086332321167, -0.0009135007858276367, 0.08025035262107849], [-0.005492866039276123, 0.011573702096939087, 0.03167179226875305, 0.09310457110404968, -0.07585033774375916, -0.14907440543174744, 0.05898115038871765, -0.02960139513015747, -0.11325699090957642, 0.10499075055122375, 0.0022672712802886963, -0.036366164684295654, -0.12102094292640686, -0.03289148211479187, -0.21258127689361572, 0.05687257647514343], [0.0037516653537750244, 0.15170910954475403, 0.016142606735229492, 0.019988059997558594, 0.06810325384140015, 0.19023439288139343, -0.11813941597938538, 0.1492512822151184, 0.06114038825035095, -0.16677919030189514, 0.08704671263694763, -0.1499333679676056, -0.07869520783424377, -0.11916720867156982, -0.17007854580879211, 0.1968928575515747], [-0.22345522046089172, 0.12500375509262085, -0.2250029742717743, -0.030426502227783203, 0.01491054892539978, 0.17772763967514038, -0.09047338366508484, 0.07195687294006348, 0.038726478815078735, 0.14709621667861938, 0.014862895011901855, 0.09361115097999573, -0.15102270245552063, -0.17372775077819824, 0.22276940941810608, -0.18216675519943237], [-0.042559921741485596, -0.03022003173828125, 0.2444700300693512, -0.05402839183807373, -0.19032609462738037, -0.06337472796440125, 0.12895527482032776, 0.09907254576683044, 0.20682302117347717, -0.05117923021316528, 0.11776137351989746, -0.235260009765625, 0.09673494100570679, 0.11486592888832092, 0.16127175092697144, -0.14336055517196655], [-0.0667445957660675, 0.0604824423789978, -0.17765367031097412, -0.1988702416419983, -0.2405107021331787, 0.01395571231842041, 0.15524697303771973, 0.06421497464179993, 0.015241235494613647, 0.08710646629333496, -0.15710103511810303, 0.026356488466262817, -0.06210589408874512, -0.12378591299057007, 0.21559327840805054, -0.1934131681919098], [0.036637067794799805, -0.21967813372612, -0.00848168134689331, -0.1110905110836029, 0.08228686451911926, -0.1403844952583313, 0.16000989079475403, -0.20286673307418823, 0.15015891194343567, -0.18779486417770386, 0.1338963508605957, -0.10526660084724426, -0.0005823969841003418, -0.04562586545944214, 0.16225752234458923, 0.08193188905715942], [-0.22030109167099, 0.022985130548477173, -0.17246559262275696, 0.1868903636932373, 0.041074931621551514, -0.0642952024936676, -0.12754234671592712, 0.08653223514556885, -0.14972427487373352, 0.11856555938720703, 0.13641881942749023, 0.1534508466720581, 0.06530946493148804, -0.21884220838546753, 0.17982926964759827, -0.07755586504936218], [-0.07390895485877991, -0.02685973048210144, 0.18278372287750244, 0.1922316551208496, 0.038603007793426514, 0.11928796768188477, -0.23299923539161682, 0.0005905628204345703, -0.22117090225219727, 0.08508738875389099, -0.17811235785484314, -0.0891011655330658, 0.17475780844688416, 0.23892396688461304, -0.1500951051712036, -0.13875272870063782], [0.03096151351928711, 0.09827631711959839, -0.04071807861328125, -0.07807257771492004, -0.16421091556549072, 0.10671892762184143, 0.24494045972824097, -0.12101978063583374, 0.11791592836380005, 0.1220986545085907, 0.20094925165176392, -0.0284634530544281, 0.007874459028244019, 0.18367472290992737, 0.1580284833908081, 0.24692678451538086]], "encoder.layers.1.linear1.bias": [-0.07164251804351807, 0.09892165660858154, 0.1745690405368805, -0.16970399022102356, 0.049664705991744995, -0.05593818426132202, 0.1607060730457306, -0.11228179931640625, 0.017534643411636353, 0.14957767724990845, -0.22902923822402954, -0.21109053492546082, -0.12804600596427917, 0.16035428643226624, 0.16763195395469666, -0.17074251174926758, 0.04767182469367981, -0.13247022032737732, -0.11603817343711853, 0.21560436487197876, 0.12075227499008179, -0.06837072968482971, 0.036800384521484375, 0.048439234495162964, 0.05856025218963623, -0.08556967973709106, -0.1472213864326477, 0.1655159592628479, 0.03359314799308777, 0.10463741421699524, -0.09468242526054382, 0.12109237909317017], "encoder.layers.1.linear2.weight": [[0.12865200638771057, 0.10751089453697205, 0.048064835369586945, 0.17392756044864655, -0.00038661304279230535, 0.037635236978530884, 0.16796080768108368, 0.17180873453617096, -0.07463867217302322, 0.15924103558063507, 0.06524121016263962, -0.019787965342402458, 0.1543518751859665, -0.091575488448143, 0.114860400557518, 0.17517583072185516, -0.12192326784133911, -0.10431466996669769, -0.17517051100730896, -0.031813155859708786, -0.16054922342300415, -0.05920639634132385, 0.0536685511469841, 0.12495950609445572, 0.09847084432840347, 0.09812536090612411, 0.07333825528621674, -0.10964278876781464, -0.1403597891330719, 0.007328051142394543, 0.1678641140460968, 0.009953547269105911], [-0.015204538591206074, -0.1199849545955658, -0.08765265345573425, -0.13627073168754578, 0.14153949916362762, -0.028802165761590004, -0.15616606175899506, 0.018963657319545746, 0.012828362174332142, -0.021840518340468407, 0.06327968090772629, 0.09506683051586151, -0.1662425994873047, -0.13542716205120087, -0.008492336608469486, -0.1638963371515274, -0.16057683527469635, 0.15607799589633942, -0.013445540331304073, -0.08739669620990753, -0.06063738465309143, -0.1380135416984558, 0.13795046508312225, -0.038332052528858185, -0.09939056634902954, -0.13406971096992493, 0.10332421958446503, -0.024436088278889656, -0.018571671098470688, -0.046073880046606064, -0.08533415198326111, 0.03144685924053192], [0.13600675761699677, -0.10245627164840698, 0.008469851687550545, -0.13444103300571442, -0.08289007842540741, 0.1551692634820938, 0.0018535129493102431, 0.17029236257076263, -0.030972011387348175, -0.09635110944509506, -0.10562200099229813, 0.15667976438999176, -0.13593897223472595, 0.09277141094207764, 0.04394354671239853, 0.05216808244585991, 0.09974447637796402, -0.04624883085489273, 0.1093829795718193, -0.14084197580814362, -0.06219734624028206, 0.1294078528881073, 0.05246374383568764, -0.023541796952486038, -0.0412827730178833, -0.10794241726398468, 0.10749644041061401, -0.0056215254589915276, -0.005981038324534893, 0.04180653393268585, 0.13045206665992737, -0.09018852561712265], [-0.06088143587112427, 0.11978936940431595, 0.09983861446380615, -0.08696290105581284, -0.17487812042236328, 0.03279408439993858, 0.09296581149101257, 0.042224377393722534, 0.12539024651050568, -0.1402677297592163, 0.08914601802825928, -0.1098984107375145, 0.09949111193418503, 0.13147136569023132, 0.055988021194934845, 0.14302551746368408, -0.11652263253927231, -0.1581047922372818, -0.16997170448303223, 0.11098597198724747, 0.06192663684487343, -0.12944769859313965, 0.0856095626950264, 0.16129322350025177, -0.17431659996509552, 0.1282375305891037, 0.027112750336527824, 0.016443930566310883, 0.159062460064888, 0.1600872427225113, 0.07448507100343704, 0.13967743515968323], [0.07354342192411423, 0.028804272413253784, -0.15538866817951202, 0.03301883116364479, -0.12576712667942047, 0.05442357063293457, 0.03118940442800522, 0.003971413243561983, -0.12086693942546844, -0.10716154426336288, 0.13066230714321136, 0.08609361946582794, 0.09320370852947235, -0.052675362676382065, -0.03044028766453266, -0.04530392214655876, 0.12156815826892853, -0.0763123482465744, 0.11134541779756546, 0.12188643217086792, -0.1616721898317337, 0.0010795071721076965, -0.03366774320602417, -0.09772610664367676, 0.07631759345531464, -0.021477485075592995, 0.1547694355249405, -0.11064523458480835, 0.08213600516319275, -0.15093064308166504, -0.08860430866479874, 0.012058465741574764], [0.13967005908489227, 0.09311167895793915, -0.14514876902103424, 0.019580751657485962, -0.10420805960893631, 0.007659683935344219, -0.14726793766021729, -0.05186159163713455, 0.12124520540237427, -0.162199005484581, -0.16854290664196014, 0.032198864966630936, 0.024233320727944374, -0.032329898327589035, 0.15436354279518127, -0.10643529146909714, -0.10731763392686844, -0.13213635981082916, -0.032902125269174576, -0.04511428251862526, 0.10938002914190292, -0.009925835765898228, 0.05645427107810974, -0.07346073538064957, 0.1433999091386795, 0.1490260660648346, -0.1583157181739807, -0.04543154314160347, -0.14999456703662872, 0.07509949058294296, -0.1544468253850937, -0.08358211070299149], [0.1766304075717926, -0.16880746185779572, 0.13042664527893066, 0.014933934435248375, 0.14135678112506866, -0.08971228450536728, 0.11611197143793106, 0.021328771486878395, 0.013596320524811745, 0.12065578252077103, -0.16803105175495148, -0.14238500595092773, 0.17072446644306183, -0.10615379363298416, -0.12742199003696442, -0.008643433451652527, -0.056586652994155884, -0.024185147136449814, -0.11843782663345337, 0.06378436833620071, -0.15211309492588043, 0.014317663386464119, 0.103156179189682, 0.03396517410874367, 0.02348829060792923, 0.025856079533696175, -0.05178682133555412, -0.033675648272037506, -0.07454555481672287, -0.1194176971912384, -0.09359550476074219, 0.17475447058677673], [-0.029584726318717003, 0.06192417070269585, 0.12225063890218735, -0.013809414580464363, -0.09510128200054169, -0.11977310478687286, -0.06512512266635895, 0.06309804320335388, -0.14887399971485138, -0.021583864465355873, 0.06724348664283752, 0.1442241668701172, 0.05319749936461449, 0.034960538148880005, 0.12101967632770538, 0.0816863626241684, 0.059805978089571, -0.054809004068374634, -0.1417570263147354, -0.038184136152267456, -0.0320608951151371, 0.012981987558305264, -0.019441939890384674, 0.071468785405159, 0.11747696250677109, -0.07166886329650879, -0.16773644089698792, -0.09069698303937912, -0.08458347618579865, 0.10020413249731064, -0.1140286773443222, -0.016627099364995956], [-0.0374658927321434, -0.10729148238897324, 0.0801301971077919, -0.07363730669021606, -0.009145043790340424, -0.12428899109363556, -0.017829654738307, 0.025117456912994385, -0.007193539757281542, -0.06605220586061478, 0.05251745879650116, -0.04580241069197655, -0.09800480306148529, -0.1303609013557434, -0.0374465249478817, -0.16699713468551636, 0.14672818779945374, -0.08445113152265549, -0.07325948029756546, 0.0163410697132349, 0.045826394110918045, -0.01666869968175888, 0.12127285450696945, -0.10305190831422806, 0.06335337460041046, -0.00039868810563348234, -0.1438027322292328, -0.06846471130847931, 0.04498739913105965, 0.03377174213528633, 0.12854059040546417, 0.11826236546039581], [-0.09641803801059723, -0.0754888579249382, -0.037483975291252136, -0.12664645910263062, -0.04772791266441345, -0.1446586400270462, 0.06723562628030777, 0.12508000433444977, 0.013996547088027, -0.12655101716518402, -0.13387440145015717, -0.06881901621818542, 0.051416099071502686, 0.0043119387701153755, 0.03214188292622566, 0.16660872101783752, 0.08210252225399017, 0.03801097720861435, -0.035765793174505234, 0.08362402766942978, 0.0646720826625824, -0.15911710262298584, -0.10442357510328293, 0.005933643784373999, 0.06707656383514404, 0.08600237220525742, -0.1052313819527626, -0.17538268864154816, -0.00920858047902584, -0.020208634436130524, 0.05129705369472504, -0.04861472547054291], [0.13514980673789978, 0.011795280501246452, 0.12909063696861267, -0.12309214472770691, 0.07071703672409058, 0.021064024418592453, -0.08841456472873688, 0.08763665705919266, -0.17395170032978058, 0.14291812479496002, 0.014246097765862942, 0.017068251967430115, 0.08174960315227509, 0.014674647711217403, 0.07577560842037201, 0.11246783286333084, -0.13796685636043549, 0.11694846302270889, -0.026470327749848366, -0.04110925644636154, 0.035581886768341064, 0.1382661908864975, -0.09609849750995636, -0.1191353127360344, 0.10970889776945114, -0.08302634209394455, 0.05691327154636383, -0.02604382298886776, 0.048658303916454315, 0.13490095734596252, -0.08959025144577026, -0.08578329533338547], [0.08673030883073807, 0.009678960777819157, -0.019455721601843834, -0.1552785485982895, 0.14977551996707916, -0.006694689393043518, -0.032560043036937714, -0.07256504893302917, -0.034884799271821976, 0.08591952919960022, -0.004062913823872805, 0.1511809527873993, -0.01020615454763174, -0.0253599900752306, 0.09978188574314117, -0.004574197344481945, -0.03528338298201561, 0.059083472937345505, 0.1394115686416626, 0.04411453753709793, 0.12309282273054123, 0.11455806344747543, 0.04999206215143204, 0.06146323308348656, 0.05704303830862045, 0.018336471170186996, 0.1503903567790985, 0.16318972408771515, 0.06293049454689026, -0.008827973157167435, 0.1584969311952591, -0.13758893311023712], [0.12989266216754913, 0.09366080909967422, 0.11351469159126282, -0.013582749292254448, -0.13189272582530975, 0.12610168755054474, -0.07729659974575043, 0.046512164175510406, 0.10015197098255157, -0.16520234942436218, 0.011731595732271671, -0.06279575079679489, 0.1254681944847107, -0.11255397647619247, 0.1073334589600563, 0.1102326363325119, 0.09753033518791199, 0.16970780491828918, 0.02677302621304989, -0.16022706031799316, 0.12619468569755554, 0.016183335334062576, 0.003508134977892041, -0.16839557886123657, -0.03973166644573212, -0.08580171316862106, 0.17313703894615173, 0.12587010860443115, 0.13187333941459656, 0.12106315046548843, -0.10957925766706467, -0.0759202092885971], [-0.06918160617351532, -0.07086663693189621, 0.13760866224765778, 0.06006286293268204, 0.14166072010993958, -0.008269422687590122, -0.157583549618721, -0.05128702521324158, 0.12423771619796753, 0.10762263089418411, 0.05472502484917641, -0.05185350030660629, -0.16499824821949005, -0.09498683363199234, 0.09216790646314621, -0.07130424678325653, 0.0845591127872467, 0.04826730862259865, -0.06789768487215042, 0.1076708436012268, -0.056804109364748, -0.005872994661331177, -0.0673365443944931, -0.1676853448152542, 0.02850315533578396, 0.0510830320417881, -0.08900377154350281, 0.10844310373067856, -0.15857850015163422, -0.17040859162807465, -0.10918594151735306, -0.06109489127993584], [-0.019632486626505852, -0.034161705523729324, 0.08067884296178818, -0.15514370799064636, 0.026029935106635094, 0.003061357419937849, 0.04669206961989403, 0.17573018372058868, 0.10879694670438766, -0.09788206964731216, -0.14486010372638702, -0.04279780760407448, -0.08867595344781876, 0.061749011278152466, 0.0016205041902139783, 0.14218565821647644, 0.06943897902965546, -0.03250398486852646, 0.006075805053114891, 0.04233554005622864, -0.021935727447271347, 0.14264722168445587, -0.13822174072265625, 0.08616200089454651, -0.11268522590398788, -0.15487077832221985, -0.036291658878326416, 0.08614414930343628, 0.12490367889404297, 0.04436077922582626, -0.015278632752597332, -0.00990998838096857], [-0.07166197150945663, -0.015863483771681786, -0.01221419870853424, 0.150430366396904, 0.10345753282308578, -0.14146094024181366, 0.000731268897652626, -0.1087300181388855, -0.02806168794631958, -0.14049647748470306, 0.04595506936311722, -0.12746979296207428, 0.1745176613330841, 0.13350220024585724, -0.12168581038713455, -0.16642887890338898, 0.006897415965795517, -0.04934750869870186, 0.05189575254917145, -0.11966263502836227, 0.07236198335886002, -0.15269075334072113, -0.09329744428396225, -0.0929318219423294, 0.08554071187973022, -0.004628229420632124, -0.1698874533176422, -0.10096070915460587, -0.0818081721663475, -0.1640186458826065, 0.022635702043771744, 0.06299223750829697]], "encoder.layers.1.linear2.bias": [-0.03243457153439522, -0.0703473687171936, -0.0010720683494582772, -0.14041049778461456, -0.10763959586620331, -0.004031619988381863, 0.1570443958044052, -0.05436030775308609, 0.0876210406422615, -0.06957053393125534, -0.04705756530165672, -0.16828159987926483, 0.14645683765411377, 0.17213234305381775, -0.003712884383276105, 0.11231856793165207], "encoder.layers.1.norm1.weight": [1.0, 1.0, 1.0, 1.0, 1.0, 1.0, 1.0, 1.0, 1.0, 1.0, 1.0, 1.0, 1.0, 1.0, 1.0, 1.0], "encoder.layers.1.norm1.bias": [0.0, 0.0, 0.0, 0.0, 0.0, 0.0, 0.0, 0.0, 0.0, 0.0, 0.0, 0.0, 0.0, 0.0, 0.0, 0.0], "encoder.layers.1.norm2.weight": [1.0, 1.0, 1.0, 1.0, 1.0, 1.0, 1.0, 1.0, 1.0, 1.0, 1.0, 1.0, 1.0, 1.0, 1.0, 1.0], "encoder.layers.1.norm2.bias": [0.0, 0.0, 0.0, 0.0, 0.0, 0.0, 0.0, 0.0, 0.0, 0.0, 0.0, 0.0, 0.0, 0.0, 0.0, 0.0], "head.weight": [[0.1445930153131485, 0.08780808746814728, 0.09104340523481369, -0.16828975081443787, -0.16611187160015106, -0.13568323850631714, 0.055293209850788116, -0.15290771424770355, -0.13494154810905457, -0.0856841653585434, -0.16293248534202576, 0.000238192908000201, 0.0255032479763031, -0.10344979912042618, 0.11574725806713104, -0.06711236387491226, -0.04976741969585419, 0.13468177616596222, 0.1517719179391861, -0.020279904827475548, -0.12690411508083344, -0.08868339657783508, 0.02251061052083969, 0.10362517088651657, 0.08800733834505081, -0.07806148380041122, -0.16711878776550293, -0.15470558404922485, -0.05624260753393173, 0.002217514207586646, -0.07940377295017242, -0.1397782564163208]], "head.bias": [0.01863008737564087]}}, "mastery_cases": [{"history": [[1, 1], [2, 0], [1, 1]], "kc": 1, "expected": 0.3151196837425232}, {"history": [[3, 0], [3, 0], [3, 1], [4, 1]], "kc": 3, "expected": 0.29245850443840027}, {"history": [], "kc": 5, "expected": 0.5252494812011719}, {"history": [[6, 1], [6, 1], [6, 1], [6, 1], [6, 1], [6, 1], [6, 1], [6, 1], [6, 1], [6, 1], [2, 0]], "kc": 6, "expected": 0.47330576181411743}], "multi_case": {"steps": [[[1, 2], 1], [[3], 0], [[4, 5, 6], 1]], "expected": [0.5408037304878235, 0.25997599959373474, 0.4822731018066406]}}